0.00115661
-0.000349246
0.000429725
-0.00025042
-0.000611044
-8.67712e-05
-0.000747815
0.000596446
-0.000513237
-0.000148851
5.61092e-05
0.000332786
-0.000286262
-9.66252e-05
-0.000327309
-0.000190308
0.000649695
-0.00048569
-0.000942151
0.000547595
2.68889e-05
0.000336162
-0.00039047
0.000204986
9.62602e-05
-0.000351877
0.000679991
-0.0001665
0.000182866
-0.000172306
-2.31323e-05
0.000123509
-0.000317716
-0.000489001
-6.06565e-05
0.000275849
0.00043945
-0.000277119
0.000195923
0.000273973
-0.000586499
2.42084e-05
0.000760961
0.000334746
0.000124704
0.000489807
0.000537636
-8.28307e-05
-0.000798214
0.000894743
-5.69856e-05
-0.000325913
-0.000269568
0.000971875
-0.000147683
-0.000174914
-0.000594088
-0.000260251
0.000481368
-0.000246108
0.000486658
0.00054729
0.000158403
0.000464099
0.000358771
4.40257e-05
-6.49529e-05
8.48754e-05
0.000196945
-0.000260936
0.000237069
0.000339996
-0.000289436
-0.000331717
0.000835176
-5.16167e-05
0.000430001
-0.000473134
-0.000209189
-0.000987766
-0.000364594
4.51796e-05
-0.00100643
0.000428087
-0.000246041
0.000356322
-9.32321e-05
-9.86015e-06
0.000240863
-0.000265914
0.000310165
-1.05688e-05
0.000202193
3.37431e-05
0.000248599
-0.000541742
0.0012022
-0.000359792
-0.000571558
0.000276948
6.15423e-05
-4.09228e-05
3.7217e-05
0.000283606
-3.05819e-05
-0.000913362
-0.000674129
-0.000494894
-0.000634388
0.000291304
-0.00056028
-0.000429347
-0.000568993
0.00010574
-0.000326486
0.00063669
0.000692562
-4.8733e-05
8.25642e-05
0.000811054
0.000355149
-0.000100096
-0.000187879
-0.000219671
-9.69018e-05
0.000539967
-0.000638144
0.000254465
-7.94518e-05
-0.00120087
-0.000537896
6.29621e-05
0.000551975
0.000134059
-0.000146678
4.39164e-07
-0.000583979
0.000630852
-0.00018518
-0.00112204
-0.000217746
7.93746e-05
-0.000719358
-0.000598982
0.000633152
-0.000402721
4.40383e-05
-0.000279395
-8.81926e-05
-0.000241372
0.000174786
-7.5385e-05
-1.18758e-05
0.00026084
6.58444e-05
-6.12504e-05
0.000119988
0.000738789
0.000320639
-8.17591e-05
3.28823e-05
0.000339554
-0.000149523
-0.000383563
-0.000437846
4.76951e-05
-0.000494251
-0.000467992
-0.000410681
-0.000620901
0.000278943
-3.70046e-05
8.34874e-05
0.000163196
-0.000326471
0.000727058
-1.02104e-05
-0.000511242
-0.000492915
0.000613923
-1
7.85119e-05
9.35514e-05
4.46663e-06
-0.00101618
-1
-0.000132774
-0.000662156
-0.000350432
-0.00035649
3.77533e-06
-0.000408258
-0.000343302
0.00078066
-0.000632008
-0.000690397
0.000520491
0.00106733
0.000177084
4.51928e-05
0.000455771
0.00021901
-0.000464262
0.000470134
0.000289578
-9.23689e-05
-0.000200925
0.00029081
-1
0.00083509
0.00132431
-0.000431573
0.000210841
-0.000630968
-9.98098e-05
0.000628076
-9.50454e-06
-5.07286e-05
0.00014831
0.000104185
-0.000249473
0.000429133
-0.000215709
0.00106321
-0.000351621
-0.000134984
-4.6232e-05
-0.000364704
0.000467255
-0.000159256
0.000239111
-0.000257065
-0.000463613
-0.000664507
5.92869e-05
0.000348378
0.000362406
-0.000650273
-4.38692e-05
-1
0.00053051
-0.000235923
-0.000400214
0.000160194
-0.000157295
-5.94884e-06
0.000306665
-7.36828e-05
-0.000375137
-3.94737e-05
-0.000518584
0.000141561
0.000393833
-0.000422884
1
-4.9902e-05
0.000226155
0.000190235
0.000494423
0.000479844
0.000447578
-0.000824638
-0.000896705
2.14968e-05
-0.00049198
-0.000573606
0.000626761
-0.000525118
0.00029222
-0.000444658
-7.24768e-05
-0.000342159
0.000441323
-0.000392783
-0.000103288
0.00075475
-4.99325e-05
0.000516978
-0.000161971
0.000320507
-0.000338575
0.000667493
0.00070049
-0.000420038
0.000170794
0.000767993
0.000539493
-0.000125374
3.52296e-05
0.000128998
-0.000621824
-0.000101804
0.000250473
-0.000110092
-0.000811838
0.000180015
-0.000390376
0.000426026
-0.000665042
-0.000143587
-0.000157934
4.21967e-05
-0.000773221
0.000209166
7.29923e-05
0.000622465
-0.00034927
0.000933697
-0.00020241
0.00013092
-0.00028771
-1.11978e-05
0.00048972
-0.000518705
-2.68144e-05
9.14096e-05
4.5414e-05
0.000408767
0.000755414
0.000716848
-0.000845983
0.000458704
-6.68375e-05
-0.000262655
0.000569911
-0.000852197
4.21829e-06
-8.44256e-05
0.000407734
-5.23177e-06
0.000370059
-3.48942e-05
-9.06535e-05
-0.00011366
0.000100626
-0.000261213
0.000309698
-1
0.000172592
-0.000493287
7.69582e-05
-0.000931709
6.65004e-05
0.000299296
-0.000565551
0.000390525
0.000347863
0.000141918
0.000205999
-0.000546232
8.9625e-05
0.000539319
-7.59482e-06
-7.32437e-05
-0.000864004
0.000352799
0.000809558
-0.00043062
-0.000102748
-0.0014277
-2.99846e-05
8.31531e-05
-0.000102735
0.000496929
-0.000550667
-0.000170103
-7.44446e-05
0.000600866
0.000638357
-0.000407678
-0.000723652
0.000253187
0.000130123
0.000462478
0.000149434
-9.11809e-05
0.000155072
0.000215954
-0.000239079
4.01131e-05
5.16995e-05
-0.000705369
0.000369537
0.000609219
-3.75498e-06
-0.000284212
-0.000447832
6.97966e-05
0.000271141
-1
0.000285103
2.17019e-05
-0.000564533
0.000143487
-0.00115889
-0.000206878
0.000140179
0.000324062
0.00111027
0.000173114
-0.000107962
0.000504456
7.14465e-05
-6.82129e-05
-0.00049367
0.000488344
-0.000189224
-0.000455194
-0.000337014
-5.77208e-05
-0.000536673
0.000123363
0.000190716
0.000539908
-0.000896123
-0.000218616
0.000249107
4.82013e-05
0.000262116
-0.000112725
0.000233012
0.000335485
-0.000442954
0.000513232
0.000348235
-0.000577209
5.22848e-06
0.000291579
0.000360345
0.000895147
0.000875714
-0.000336306
-0.00115119
0.000436093
0.000154742
0.000159662
-0.000207914
-0.000188515
4.41975e-05
-0.000236334
-0.000252882
-0.00038775
-0.000128036
0.00111169
-0.000198641
-0.000161067
0.000215192
-0.000449084
2.94325e-05
0.000253819
9.03604e-05
-0.000122617
-0.000264381
0.000107225
-0.000228573
-0.000399848
-0.000299816
-0.000458943
0.000436294
0.000125946
-0.000151681
0.000145899
-0.000134532
0.000504442
9.79515e-06
-0.000353425
0.000545677
-0.000355434
0.00010226
-0.000228992
0.000492065
-0.000226574
0.000117677
0.000339365
5.64842e-06
-0.000659962
-0.000497983
0.000335647
-2.18439e-05
0.000620326
0.000476617
-0.000308842
7.96653e-05
0.000766826
-0.000132509
0.000181284
-0.000999422
-0.000754459
0.000605111
7.6266e-05
0.00020977
0.000180738
-0.000327677
0.000397099
-0.000792558
-0.000733111
-0.000689961
0.000585897
-0.000185333
-0.000186957
-0.000318076
-9.6085e-05
-0.000804995
0.000320031
-0.000385102
-0.00122853
-0.000670415
-0.000497508
0.000808818
-0.000341091
-0.000596538
-0.000104744
-8.43617e-05
0.000281383
0.000321713
-0.000613566
0.000653768
-0.00046732
-0.00058962
-0.000373486
0.00022957
9.04427e-05
-0.000843296
0.000737837
-0.00032033
-0.000141798
-0.000580569
2.13189e-05
0.000367642
-0.000416194
-0.000141574
5.2693e-05
-7.75347e-06
5.16499e-05
-0.00070901
0.000122018
-1.63026e-05
0.00035813
-0.000147848
0.000248478
0.000742899
1
7.29042e-05
0.000267883
0.000240477
-0.000796281
4.12524e-05
-0.000102813
0.00131985
-0.000434279
0.000212466
0.000264115
-3.56014e-05
-5.55525e-05
0.000388336
-0.000198628
0.000291273
0.000318021
-0.000330133
-0.000671399
-0.000519359
-0.000581497
0.000555493
0.000417026
-2.17001e-05
-0.000217221
-0.000445654
-0.000151938
6.5146e-05
-7.34247e-05
0.000101709
-0.000451225
0.00010725
0.000253435
-0.00034536
-0.000771279
0.000232983
-0.000208607
7.76428e-05
0.000602917
-0.000286197
0.000142441
0.000187877
-2.05808e-05
0.00040773
9.43431e-05
6.24463e-05
-0.000272531
-0.000122449
0.00130935
-0.00020506
-0.00108978
0.000733533
-0.000167565
0.000348993
-0.000300512
0.000533335
0.000537488
-0.000617641
-0.000105861
-9.55092e-05
-0.000541142
-0.000544552
0.000397884
0.000359633
0.000141391
0.000795064
-2.67001e-05
-0.000126063
0.000563107
8.56646e-05
0.000578341
-5.16829e-05
8.13109e-05
0.000702264
-8.66014e-05
-0.000377459
4.44701e-05
0.000409553
0.000849154
0.000214989
-0.000512173
-0.000443126
-0.000411622
0.000166345
0.000176461
-0.000204824
-0.000509709
0.0001952
0.00113899
0.00029724
0.00010775
0.000109085
0.000593292
0.000219942
5.54469e-05
0.00059152
0.000194532
-0.000770264
0.000534574
0.00105168
7.49077e-05
0.000353087
0.000483296
-7.63888e-05
0.000245352
0.000253533
-0.000738729
-2.05884e-05
-0.000923151
-0.000225729
0.000396208
0.000822195
-3.57389e-05
-0.000240726
-6.94223e-05
0.000176018
-0.000128467
4.35554e-05
0.000155623
0.000577841
0.000456935
-0.000635549
3.54444e-06
-7.77851e-05
-0.000205095
-0.000596309
0.000412878
-0.000406501
0.000321653
-0.000577888
3.01181e-05
-0.000415555
-0.000679763
-5.95346e-05
2.7386e-05
-0.000265009
-1.23848e-05
0.000481711
0.000324343
-0.000297486
-0.000582755
0.000293472
-0.000367933
-0.000994058
0.000445583
2.54643e-05
0.000983675
0.00108383
-0.000683858
0.000277402
0.000728912
0.000654623
-8.89399e-05
0.000229884
7.48666e-05
-0.000204389
-9.27687e-05
0.000171081
-0.000834738
-0.000472151
0.000515621
0.000291633
0.000269135
0.000247777
-2.13931e-05
-0.000624258
8.29922e-05
-0.000333258
-0.000146603
0.000360294
-0.000207463
-2.98471e-05
-0.000379467
-9.60927e-05
0.000595342
4.70742e-05
-0.00100684
-0.000222787
-1.33751e-05
0.000277363
-0.000189536
0.000563257
-5.21587e-05
0.000577287
-0.000265215
-0.00108407
-0.000497614
0.00021079
-0.000407142
0.000443122
3.98608e-05
-0.00117857
-0.000623922
0.000275893
0.00055369
-0.00076133
0.000373303
0.000103626
-0.000501377
0.000475018
0.000295068
-0.000309361
-0.000257672
0.000366181
0.000229478
-0.00064212
0.000112576
0.000528105
0.000132837
0.000650667
-9.54956e-05
0.000581617
3.59075e-05
5.67698e-06
0.000323336
0.00071038
8.37962e-05
-0.000110365
4.84277e-05
-0.000411939
0.000562731
0.000141031
0.000829671
-0.000566557
0.000616264
3.86213e-05
-0.000256587
-4.43718e-05
0.00050717
0.000219393
0.000356046
0.000248754
0.000382299
-0.000401803
8.65513e-05
-0.000354217
0.000131818
0.000313456
-0.000238768
-0.000453855
-0.000394007
0.000421499
0.000295373
-0.000633116
0.000201911
-0.000224256
-1.61588e-05
4.07027e-05
0.00061585
-0.000663246
-0.000601113
-0.000511742
-0.000464761
0.000621667
0.000442014
-0.000457483
-0.000100208
-1
0.000152736
0.000256874
-0.000284217
-0.000378039
0.00021962
0.000463873
-0.000334544
8.32214e-05
0.00063297
-4.87815e-05
-5.92519e-05
-0.000113311
0.000477174
-0.000312874
-0.000392096
-1.58683e-05
0.000536695
-0.000712092
0.00105274
-0.000650609
-2.80553e-05
-0.000245036
0.000320115
0.00100784
-0.000543661
-2.78593e-05
0.000198855
0.000695596
0.000560318
0.000168641
0.000881401
0.000368295
6.71356e-05
0.000333199
-0.00026
0.000921587
0.000318468
-0.000184445
0.000173017
-0.000396299
0.000563544
-0.000378731
0.000852697
-0.000149959
-0.000621093
-0.000704122
0.000239248
-0.000590705
4.14552e-05
-0.000275566
4.28919e-05
-0.0011408
-4.6948e-05
0.000217819
0.000413805
0.000553524
-0.00023773
-1.01674e-05
3.9327e-05
0.00069448
0.000361076
-0.000628442
0.000140996
0.000484154
-0.000201467
4.64447e-05
-7.79635e-05
0.000293433
-0.000147248
-0.000134972
-4.02375e-05
-0.000297038
-0.000156801
0.000935713
-0.000170068
-0.000235405
0.000355068
0.000525
-0.000490843
0.000318181
8.94628e-05
0.000311339
-0.000376444
8.94615e-05
0.000588086
-1.6612e-05
0.00117563
0.00016148
-0.000551708
-0.000359445
-0.000270928
0.00044933
-0.000505594
-0.00015404
0.000539908
-0.00016072
-0.000509047
0.000264224
-7.63999e-06
-0.000463248
-0.000833796
-0.000517985
0.000396682
4.90757e-05
-0.000121923
2.93132e-05
-0.000361458
6.57706e-05
-0.000883078
-0.000177304
4.86053e-05
0.00026402
0.000154657
-5.05488e-05
-8.80331e-05
-0.000134262
0.000177841
-0.000648196
-0.000243705
0.000371016
0.00019515
0.00112914
0.000304039
-0.000372134
-0.000209785
0.00061516
-0.000393151
-0.000239677
0.000372564
0.000676671
-2.68856e-05
-0.000259919
0.000173715
5.11885e-05
0.000193398
6.96897e-05
-0.00065069
-0.000531326
-0.000252227
0.000404535
-0.00030937
3.65283e-05
-0.000107884
-0.00068372
-0.000280294
-0.000281887
-0.000479906
-1.76367e-05
0.000560172
0.000842518
0.000383896
0.00023996
0.000391037
-0.000241648
0.000375546
0.000868598
-0.000191833
0.000584736
-0.000650429
0.000404077
0.000163648
-0.000158623
0.000824537
6.945e-05
-1
-0.000618615
-0.000240939
0.000159977
-0.000405943
0.000750269
-0.000181337
-0.000625218
-0.000273147
0.000103573
0.000376135
0.000213753
0.000397764
0.000858031
9.17733e-05
0.000466126
0.000446526
0.000268947
0.000516412
2.19642e-05
-0.000700872
-0.000650413
-0.000389056
-0.000375319
-0.000620085
-0.000386633
9.42447e-05
-0.00018681
2.7165e-05
0.000114799
-7.01102e-05
0.00075262
5.36212e-05
-7.78037e-05
-0.000456904
0.000584684
-0.000502797
0.000634866
-0.000639026
6.58781e-05
-0.00101584
0.000955851
-0.000407226
-2.20092e-05
-0.000525066
0.000214326
2.55142e-05
-0.000274604
-4.95104e-05
-0.000196838
-1.48743e-05
-0.000256558
-0.000582187
-0.000289962
0.000508964
9.82405e-05
-0.000122124
-0.000308784
0.0003613
0.000324469
-0.000857931
0.00022556
0.000279627
0.000128232
0.000919539
-0.000906268
0.00054491
-6.4904e-05
-1
0.000266704
-8.14019e-05
-0.000347487
-0.000318037
-0.000789209
0.000368313
0.000233095
-0.000283074
-0.00020812
0.000384495
-5.51226e-05
-0.000156348
0.000326427
0.000967744
6.38224e-05
7.85792e-05
-3.45949e-05
7.32957e-05
-0.000473602
-0.000441202
0.000163813
-0.000361554
-0.00024497
-0.000324184
4.83307e-05
-0.000336445
-0.000394002
0.000619456
0.000264968
7.98624e-05
0.000373303
-0.000151131
-0.00065206
0.000639003
-0.000585716
-0.000119321
-0.000212969
-9.4295e-05
-0.00012645
0.000765169
-7.45203e-05
0.000537154
0.000101506
-0.000151438
0.000166598
-0.000741155
0.000643443
0.000387395
5.15368e-05
-0.000449966
-8.7169e-05
0.000658367
0.000262055
-0.000102049
-0.00020643
-0.000475595
-0.00038966
2.57432e-05
0.000737121
-6.60044e-05
-0.000479382
0.000378988
0.000572381
-0.000165738
-0.000458402
-0.000208461
0.000200142
0.000155557
0.000133874
-0.000349063
-1.47252e-05
0.000539634
-0.000278275
0.000265862
0.000395343
-8.60772e-05
0.000132749
-0.000375007
-0.000319005
0.000761744
0.000435715
2.43757e-05
0.000159142
-8.43618e-05
-0.000560744
-0.000169283
-0.000463803
-0.000356523
0.00021857
-0.000188716
0.00119796
0.000297713
0.000417005
-0.00116079
-0.000178138
-0.000465902
0.000768961
-0.000827267
-0.000257135
0.000121377
-0.000685767
0.000370052
-0.000669879
0.000186883
-0.000335476
-0.000570413
-7.42633e-05
0.00033905
2.93299e-05
0.000153453
6.6745e-05
-0.000762732
0.000307826
0.000458116
-0.000628016
-0.000402013
0.00043287
-0.000213738
4.18813e-05
-0.000451696
0.000351862
0.000424042
6.07364e-05
-0.00103827
-3.89758e-05
-0.000383848
-0.000190518
-0.000672919
9.90575e-05
-0.000818157
0.000205548
-1.45914e-05
-6.13325e-05
0.000315203
-0.000282813
0.000111733
-0.000300157
0.000204437
-0.00027051
-0.000940707
-0.000452105
0.000660451
0.000131033
1
-0.000254919
0.000201337
0.000686115
-0.000617385
-0.000202521
0.000272006
-1.01133e-05
-2.99618e-05
-0.000262607
-0.000489602
-0.000306053
-0.000145722
0.000546467
5.74416e-06
0.000413525
0.000192365
0.000835136
-0.000135003
0.000205128
0.000775735
0.00049681
6.58598e-05
-0.000658973
-0.000654234
-0.000331785
-0.000430115
0.000347735
0.000610397
0.000132266
0.000352432
-0.000677086
-8.67204e-05
0.000143036
-4.94385e-05
0.00070774
-0.000184254
-4.70379e-05
0.000767134
-0.000204329
0.000360856
-0.000180875
-0.00020016
-0.000298334
0.000362794
-9.02904e-05
-0.000168325
-0.000351334
0.000189603
-0.000341521
-0.000387981
-0.00127034
0.000436328
0.000844527
-3.10228e-05
-0.000175257
0.00058274
-3.88626e-05
-0.000229699
-0.000293504
-2.34426e-05
-0.000200709
0.000105634
-0.000467933
0.000215175
0.000269801
0.000932818
-0.000133364
0.000516044
-4.6431e-05
-0.000540581
0.000432519
-0.000380627
0.000293212
8.5622e-05
-0.000623991
4.05459e-06
3.47475e-05
-6.84112e-05
-0.00061581
3.74342e-05
0.000217903
-0.000101283
-1.40905e-05
0.000681987
-0.000226084
0.000251187
-7.57566e-05
0.000288313
-0.000229527
0.000497776
-0.000567418
-0.000315894
0.000461415
-0.000519129
-0.000237441
-0.000522893
-0.00104555
7.3478e-05
-0.000333542
0.000255699
0.000428232
0.000620375
0.00051882
-0.000714431
0.000429499
0.000325238
0.000641951
-0.000285744
0.000188234
-0.000108197
-7.46994e-05
5.9916e-05
0.000621877
5.48144e-05
-0.000439099
-0.000623397
0.000152526
-0.000569828
-0.000517985
-0.000208822
0.000225298
0.000264062
0.000209826
-0.000329678
0.000193636
6.87566e-05
-0.000874112
0.000498617
-0.000321053
0.000340913
-0.00115946
0.000484469
-0.000113549
-0.000354147
0.000463732
-0.000388278
0.000636879
0.000132908
-0.000436393
-0.00022947
0.00037111
0.00118582
0.00028892
0.000880866
6.31599e-05
0.000117446
0.0001464
0.000284173
-0.000559535
0.00020359
-0.000602701
-0.000249079
0.000335167
-0.000799542
-0.000304007
-0.000219466
-6.56129e-05
-1.80669e-05
0.000193022
-0.000287077
0.000552566
0.000102691
-0.00023109
-0.000473363
-1.89749e-05
0.000698008
-3.00043e-05
-0.000965244
0.000121745
-4.34619e-05
0.000547767
-0.000495345
-0.000114687
0.000599464
0.00067729
-0.000601944
-0.000476504
0.00011656
-0.000340876
0.000121821
0.000132799
-0.000169288
-0.000470301
0.000152241
-0.000117421
-0.00022886
-0.000520557
-0.000184504
0.000769138
-0.000676359
0.000333412
-0.000809712
-8.73766e-05
-0.000108998
0.000925449
-0.00122545
0.000311368
0.000422383
0.000746249
-0.000291985
-0.000263948
0.000209804
0.000307554
-0.000560132
0.000510599
-0.000527887
-0.000252157
8.79926e-06
-0.000475104
4.10148e-05
-0.000776528
0.00030828
6.14361e-05
9.12007e-05
-0.000431584
-0.00036169
-3.1197e-05
-0.000138713
-0.000874173
-0.00031585
-0.000148853
-0.000143991
-1
2.21784e-05
-3.98389e-06
-0.000233252
0.000543482
-0.000292774
-0.000347509
0.000328955
6.10188e-05
0.000671611
-0.000345331
0.000556785
0.00057661
-1
0.000267171
-0.000391291
-0.000324423
0.000100528
0.0010755
0.000218844
-0.00116665
0.000418972
-0.000230349
4.9203e-05
8.13447e-05
0.000369153
0.000395481
-0.000604994
0.000408073
-0.000215289
-1.02888e-06
0.000121019
0.000992854
-2.62229e-06
-0.000121884
0.000559807
-0.000589305
-0.000434984
0.000954459
-0.00106096
0.00033997
0.000554153
-0.000595726
-0.000199991
0.00108609
-8.99173e-05
-0.000152549
-0.000399825
-0.000781491
-0.000429212
-0.000409653
-0.00061412
-0.000998122
5.99158e-05
-0.000118167
-0.000343968
-0.000329936
-0.000355345
-0.00021114
0.000183471
-0.000533094
0.000303075
0.000302953
-0.000333189
-0.00057287
0.000430249
0.000154126
0.000284195
-0.000643973
0.000110219
-0.000344444
0.000287494
0.000646639
0.000213859
-0.000487682
0.00156156
5.59769e-05
-0.000220007
5.4214e-05
0.00021543
-0.000677546
-0.000993333
-8.90826e-05
-0.000109923
-2.68572e-05
-0.000206162
-4.39084e-05
-0.000171535
0.000111996
0.000258868
-1
0.000261949
-0.00055848
-0.000206148
3.35523e-05
0.000808242
-0.000110938
0.000699287
-0.000250884
-0.000126968
0.000420331
0.000825444
0.00012819
3.2374e-05
-0.000257465
-0.000147251
-0.000701311
0.000741779
-0.000574938
0.000313266
0.000225958
-0.000331229
4.94988e-05
-5.72561e-05
0.000197575
0.000348317
-0.00010737
5.02924e-05
-0.000229462
0.00104719
0.000315427
-0.000116849
-5.71776e-05
-0.000106369
0.000142167
0.000290194
0.000806553
-0.000237331
0.000217648
0.000462573
-0.000435704
-0.000430485
0.00034013
0.000578431
-0.000131825
0.000405862
6.56696e-05
-0.000502177
-0.000421607
0.000891512
-0.000671667
-0.000264204
-0.000330355
0.000471799
6.74898e-06
0.000322763
5.23018e-05
5.96713e-05
-0.000322852
-0.000251616
0.000277549
-0.000512237
0.000103465
-0.00103886
-0.000482921
0.000429333
-0.000511045
0.000114003
3.05101e-05
0.000299173
-0.00132998
-0.00028498
-2.11915e-05
0.000413437
-0.000908906
-0.000336252
0.000596906
6.609e-05
0.000370503
-0.000234061
-0.00038645
0.000212826
9.21387e-06
0.000228168
0.000238989
-0.000900607
-0.000668314
-0.000217722
-0.000679459
0.000458825
-0.000428654
-0.000164816
0.000515391
8.81154e-05
0.00016041
-7.5911e-05
0.000253183
-0.000289704
-0.000204439
5.59559e-05
-8.36824e-05
0.000215029
0.000154201
0.000640278
-0.000208371
-0.000760519
0.000291401
-0.000120539
-0.00119456
0.000225816
0.000607129
0.000372214
0.000491865
4.79251e-05
-0.000326383
0.000572725
0.000506056
-5.5604e-05
0.000223722
3.15975e-05
-0.000276023
-1
0.000675269
-0.00011425
-0.000387716
-0.000601631
-2.19419e-05
0.000385807
0.000351207
-0.000375243
0.000152094
-0.000382508
0.000605294
-0.000589191
0.000338106
6.96585e-05
-0.000200915
-0.000495286
0.000130364
-0.000334066
-0.000272613
0.000397835
0.000283985
-0.000300645
-0.000553061
9.30496e-06
0.000688069
-0.000486447
-0.000139965
0.000156704
0.000171035
-0.000770978
0.00101312
0.00037039
0.000221605
-0.000537358
0.00053464
-0.000423834
0.000465266
3.11238e-05
2.35229e-05
0.000392193
-0.000159152
0.000332956
-0.000279928
-0.00106433
-0.000182658
0.000203833
7.40933e-05
-0.000294184
-0.000315925
-0.000529421
0.000363997
0.000197759
0.000467522
0.000731207
0.000245367
-4.639e-05
-0.000102985
0.000507007
-0.000530073
-0.000171955
7.93011e-05
-0.000373391
-0.000393337
-0.000143832
0.000178765
-0.000387676
0.000203934
-0.000290668
-0.000144837
0.000230928
-6.10189e-05
0.000309236
6.46226e-05
-0.000471245
-0.000215842
0.000119981
-0.000534492
-0.000710924
-0.000753033
0.000543266
-8.74769e-05
8.91758e-05
0.000376384
0.000207287
0.00022511
0.000455002
0.000431178
0.000493011
-0.000281261
0.000288178
0.000128902
0.000281292
5.65968e-05
0.00112995
-0.000393756
0.000216791
-0.000342579
-3.09022e-05
-0.000261899
-0.000249806
0.000292976
-0.000368712
-6.90155e-05
-5.85629e-05
0.000949019
0.000446438
-0.000356719
-0.000356741
-0.000130336
-0.000919788
0.000342595
8.95314e-05
0.000129765
-8.58409e-05
-0.000739128
-1.60698e-05
5.62732e-05
-0.000752768
-0.000540145
-0.000726422
-0.000328525
-0.000120487
-0.000453117
0.000173445
0.000571844
0.000295591
0.00056332
0.000571215
0.000229562
-0.000694626
-0.00041122
0.000249739
0.000771373
0.000435568
-0.000236815
-0.000395644
0.000170254
0.000269353
-0.000495943
-0.000180307
-1
-0.000350765
-0.000584217
7.15269e-06
0.000565987
-0.000199402
0.000734817
-0.00024806
-0.000501023
-0.000647457
5.41469e-05
0.000589903
-9.22395e-05
0.000488722
-0.000609981
6.27445e-05
-0.00029326
-0.000730206
3.71676e-05
-0.000140534
0.000665221
0.000525921
0.000489378
8.46597e-05
-0.000166055
-0.00010121
0.000173631
-0.000617792
-0.000280013
-4.45754e-06
-0.000540166
-1
0.000674963
0.000291349
0.000482179
0.000979306
0.000167615
0.000132026
0.000298712
0.000649136
-0.000757934
0.0004698
-7.80228e-05
-0.000444173
-4.28747e-05
-0.00019934
-4.90462e-05
4.99652e-07
0.000537996
-0.000314752
0.000313073
-0.000256323
0.00010188
0.000445283
8.22611e-05
-0.000637014
2.19099e-05
0.000530226
0.000192565
7.86781e-05
0.000320271
-0.000297356
-0.000390382
-0.000742062
-0.000154395
-0.000351766
0.000538796
-1.71047e-06
0.000609446
0.000372678
0.000119461
-0.000625213
0.000486931
0.000456004
0.000205073
0.000368049
0.000362898
0.000298743
0.000141582
0.00028079
-0.000332075
-0.000893183
-2.61309e-05
5.70485e-05
9.04983e-05
-5.97228e-05
-0.000702147
0.00107738
0.000165991
0.00033321
0.000252238
0.000170285
0.000187589
0.00039326
0.000345894
-0.000781173
-0.000142793
-0.000814266
-0.000449909
0.000332299
-0.000429667
0.000130236
-3.42692e-05
-9.31021e-05
-0.000317612
-0.000135921
5.92801e-06
4.5618e-05
-8.99332e-05
-6.05629e-05
0.000397875
-2.56395e-06
0.000194328
0.000438088
-0.000579212
-0.000918712
-0.000894896
-0.000343994
-0.000257632
-0.000316792
-4.61117e-05
0.00109105
-0.000430648
-0.000594423
-0.000509111
0.000667805
0.00104339
-7.83563e-06
-7.71958e-06
-2.07277e-05
0.000125921
0.000869818
0.000113381
0.000276399
9.69471e-05
0.000292172
-0.000499192
0.000312902
0.000520399
-0.000363986
1
-0.000240484
-0.000465964
-0.000255931
-0.000267823
-0.000270536
-0.00038359
0.000298416
-0.000276812
-2.12359e-05
6.59019e-05
0.000388599
-0.000441394
0.000113026
-0.000279094
0.000805618
0.000548161
0.000328318
-0.000183794
0.000191889
0.000323848
2.30031e-05
-0.000258916
-0.000472078
-0.000647655
-0.000195062
5.20329e-05
-8.71155e-05
-0.00118078
-2.91659e-05
0.000125773
0.000882257
-0.000104298
-0.00027378
-0.00034332
0.000828383
0.000122359
-0.000261795
0.00029991
-0.000896301
4.25779e-06
0.000264084
-0.000359552
0.000149309
0.000266031
-0.00039763
-0.000726599
0.000358134
0.000321348
0.000276128
0.000409089
0.000453316
0.00075512
0.000294951
-0.000479325
-0.000508866
-5.93714e-05
0.000513835
-0.000317259
0.000222617
-9.83569e-05
0.000754972
-0.000608588
-0.000149971
0.000442057
-0.000159234
-0.000161612
-0.000223475
0.000456468
-0.000277817
0.000519739
0.000819394
-0.000122297
0.00135218
-0.000633663
-0.000343139
-0.000235488
-0.000488554
0.000144424
0.000177738
0.000240542
-0.00044562
-0.000634462
0.000163297
-8.66657e-05
0.000533562
-0.000106101
-0.000176926
0.000571331
-0.000454442
0.000525275
0.000390069
0.00065765
-0.000267175
-0.000749349
-0.000100595
-0.00081368
-0.000912056
0.000392394
0.000383972
-0.000342126
0.000264049
5.82486e-05
-0.000213575
-0.000516722
8.54111e-05
-0.000258884
0.000256262
-0.00013586
-0.000342749
0.000734632
-0.000736335
-0.000739877
0.000381416
-0.000207435
0.000260064
-0.000135592
0.000582454
-0.00033197
-0.000217263
0.000477461
-0.000213549
-0.00064632
0.000367193
0.000534261
-0.000856661
-0.000241212
-0.00024346
-0.000558678
-0.000257354
-0.000778007
-8.86955e-05
5.34227e-05
-0.000304336
0.000240776
-3.88712e-05
0.000554762
0.000876721
0.000180159
-0.000446364
-0.000990954
-0.00044658
-0.00086353
-0.000135438
-0.000612124
-0.000120243
0.000945596
0.000150976
0.000662666
0.000392219
-0.000841905
-0.000552336
-0.000407719
-4.47775e-05
-0.000557305
0.000106783
-0.000380351
-0.00013638
-0.000211968
-0.000275773
0.000282913
0.000447303
0.000240362
3.36707e-05
0.000179813
-0.000400118
-0.000399752
-0.000498399
-0.000332518
-0.00135357
-0.000249256
-7.51387e-05
0.00144757
4.19121e-05
0.000230437
0.0016279
0.000200891
-0.000513977
-4.30867e-05
-0.00142763
-0.000298278
0.000337544
-0.000209145
0.000126823
0.000510858
-0.000324058
4.87373e-05
0.000327541
-0.000286659
-4.13109e-05
0.000450591
-0.000423581
0.000394008
-0.000565225
-0.000370622
-0.00042675
-0.000106234
-0.000465378
0.000181653
-9.0261e-05
-0.000156795
0.000496934
-0.000680028
-0.000434503
7.9113e-06
-0.000941967
8.45002e-05
-0.000282498
0.000246696
-0.000163693
-8.16855e-05
0.000354002
0.000106314
-0.000165973
-1
-0.000456523
-0.000455869
0.000315094
0.000776807
0.00102606
5.85717e-05
0.000350593
-0.000359904
-2.45636e-05
0.000200564
0.000637631
0.000435609
0.000696917
-0.000615948
-0.000642474
-0.000551245
-0.000318934
8.70678e-05
-0.000175659
0.000392227
-0.000535009
0.00027852
0.000570277
3.63214e-06
0.000216597
-7.12887e-05
0.000285019
0.000174525
-0.000271378
-0.000762656
0.000523654
-0.000203014
3.54822e-05
-0.000281333
0.000223918
-0.000236306
-0.000552161
0.000378797
-0.0006577
0.000476408
-0.000190398
0.00041055
-2.53146e-05
-0.000161366
0.000469911
-1.64392e-05
-4.25293e-06
0.000147573
-1.05238e-05
0.000242658
0.000255261
-0.000542328
-0.000212377
-0.00037881
0.00075858
0.000584278
6.2151e-05
0.000293728
-0.000147214
-0.000366468
-0.000245074
-0.000279432
-0.000486148
-0.000109234
0.000459661
0.000392649
-0.000346378
-0.000598956
8.48172e-05
-0.00114694
0.000398053
6.02252e-05
-0.000230971
-0.000129405
0.000402354
-0.000335532
-0.00065286
-0.000918892
0.00043859
0.000153004
-0.000993399
-0.000474144
0.000415884
-0.000232414
0.000145419
0.000185485
0.000793535
-0.000675943
0.000463398
-0.000209106
-0.00057943
0.000929245
4.26132e-06
0.000266121
9.42648e-05
-0.000589628
-0.000451821
0.000634808
0.000255815
0.000308925
0.000628011
-6.72485e-05
-0.000556517
0.000271063
-0.000164702
-0.00067372
-0.00039849
-0.000484008
-0.000104194
-0.000580588
-0.00082339
0.000487796
-0.000975865
-0.00028048
0.000365097
0.000701249
0.000371495
0.000562629
-0.000403679
0.000104491
-5.83364e-05
0.000909377
0.0004548
0.000742715
-0.000242087
0.000892335
0.000720524
-0.000494058
-8.87649e-05
0.000975221
0.000148903
0.000586397
0.000432195
4.41077e-05
-0.000647509
-0.000437252
-0.000176118
-0.000139235
-0.000129669
0.000599433
0.000249712
-3.87811e-05
5.18613e-05
0.000256864
-0.000314276
-0.000532861
-0.000237057
0.0004535
-0.000381087
-0.000189103
-0.000581276
0.000586634
-0.000576543
0.000369364
0.000419108
0.000121476
0.000417543
-0.000421154
-0.00012232
0.000483477
0.000119565
-0.000697514
5.61026e-05
-8.22472e-05
0.000167342
-0.00018874
-0.000108095
0.000183503
0.000510647
-0.000363602
-0.000983042
-0.000676889
0.000592569
-0.000213118
0.000955208
0.000506923
0.00020022
-4.7291e-05
0.00032737
-0.000276482
0.000179318
6.81042e-05
0.000380256
-0.000363699
0.000311576
0.000729303
-8.21141e-06
-0.000604775
-9.64664e-05
-8.96615e-05
-0.000298133
-3.74695e-05
-0.000211581
0.000537451
-0.000604493
0.000361126
0.000553598
-0.000310699
0.000349192
-2.8537e-05
-0.000633293
-0.000379896
3.37219e-05
-0.000187334
-0.000164507
0.000237532
0.00103549
-0.000218522
-0.000421642
-0.000376509
-0.000175486
-0.000537987
-6.79045e-05
0.000503975
-4.44524e-05
5.89546e-05
-0.000186608
-0.000225432
0.000156066
-0.000474043
-0.000285551
-1.99518e-05
0.000676842
-0.000368716
0.000519605
0.000333784
0.000509847
0.00057761
-0.000229001
-0.000566511
0.000170505
0.000205767
0.000277175
-0.000328441
0.000462562
-0.000518703
-8.29087e-05
-0.000823224
0.00025197
-0.0003152
-0.000287159
0.000385888
-0.000501991
0.000413719
4.84249e-05
-0.000206696
0.000547696
0.000153803
-0.000158292
0.000484689
-0.000224387
-0.000330696
-0.000424661
-0.000195649
-0.000510233
9.53344e-05
-0.00116071
-0.00072949
-0.000277946
0.000337941
0.00113466
-0.000725863
-0.000479757
-0.000106169
-0.000750196
0.000640485
0.000355627
4.15912e-05
0.000920081
0.000515716
0.000235488
0.000111877
0.000149462
0.000739944
-0.000440783
-0.00017189
-0.000680156
0.000129236
0.000270559
-0.00115167
-0.000531904
-7.86972e-05
-1
0.000492596
7.49735e-06
-5.4585e-06
2.59248e-05
-0.000924191
-0.000405366
0.000780249
0.000270143
-0.00100047
6.17119e-05
-0.000257888
0.000268967
-0.000596844
-0.00010031
-0.00032037
-0.000296035
-0.000121777
0.000467319
-0.000525062
-0.000305295
-0.00065866
-0.000569726
0.000191197
-0.000755317
0.00040743
-9.95468e-05
0.000700468
-0.000272678
5.59975e-05
-2.97913e-05
0.000513019
-0.000488573
0.000344167
-0.000534103
0.000858131
-0.00058343
-0.00046077
-0.000436867
0.0003741
0.000703029
-0.000345337
0.000755064
-0.000322654
0.000348441
0.000399317
0.000200331
0.00015711
-0.000593912
9.34606e-05
-0.000525224
0.000519894
-0.000110255
0.000602567
0.000209036
0.000232225
-0.000533042
-0.000481545
0.000231056
-4.69637e-05
0.000101587
-0.000440646
0.000592652
-0.000433848
0.00060515
-0.000402092
-0.000161404
-0.000680011
0.000195848
-0.000924827
-3.84444e-05
0.000530193
0.000406582
-0.000138351
-0.000195364
-0.00055154
0.000616906
-6.85845e-05
7.82321e-05
-0.000336209
-0.000157439
0.000399226
0.000325383
0.000178903
0.000590716
0.000204875
0.000932682
0.000107677
-0.000676293
-0.000402983
0.000729642
-2.46578e-05
0.000322778
0.000245191
0.000718441
0.000462951
-0.00127132
0.000375677
-0.000517535
-0.000194339
0.000162717
-8.46392e-05
0.000345324
0.000664683
3.05096e-05
-0.000485835
6.78912e-05
0.000246511
-5.81456e-05
-9.14886e-05
0.00031349
0.000319999
0.000312442
-0.000716912
0.000609853
-0.000108452
-0.000574545
-0.000903741
0.00063903
0.000418957
0.000915776
-0.000258686
0.00027349
0.000651982
0.0010604
-0.000782015
-0.000228663
0.00034079
-7.52196e-05
-0.000590264
0.000400059
-0.000654047
0.000515329
0.000221856
-0.000547415
-0.000508219
-0.000779668
-0.000456406
-0.000380907
-0.000382023
-0.000512512
-3.29891e-05
0.000240814
0.000255472
0.000355575
-0.000123685
-5.42986e-05
-0.000159849
0.000490861
-0.000216721
-0.000899405
-0.000521839
0.000312736
-0.000500357
0.000618049
-0.000631204
-0.000219028
-0.00035843
0.000362522
0.000199304
-0.000504938
-0.000209756
-1
0.000190701
-0.000561664
-0.000168297
0.000122398
0.00016967
0.000880946
0.000204972
-0.000531473
-0.000139229
-6.5534e-05
-4.0853e-05
0.000847185
0.000218815
-0.000180078
-0.000408071
-0.000338455
-0.000691518
6.3931e-05
-0.000281747
0.000340917
0.000319864
7.91312e-05
-0.000639651
0.000249437
-0.000188729
0.000812295
9.48854e-05
-0.000236321
-0.000271103
0.000187007
0.000201368
0.000407582
-0.000194462
0.000732934
-0.000322766
-0.000135965
-0.000271675
-0.000283945
7.0713e-05
-0.000231035
-0.000483535
0.000693052
5.87975e-05
8.35452e-05
0.000681236
0.000532295
0.000868257
-0.000326481
0.000431896
2.26195e-05
0.00057455
0.000560515
-0.00107484
-0.000630838
-0.000123192
0.000550171
-0.000111289
0.000795393
-8.14382e-05
-0.000392749
0.000815668
-0.000487613
-0.000175538
-0.000126743
-0.000148781
-0.000680044
-7.28417e-05
-0.0010273
-0.00016116
0.000126821
0.000485551
0.000284218
9.84988e-05
0.000121624
8.01115e-05
-0.000525603
-0.000780802
0.000464575
0.000156115
-0.000335604
-0.000531748
-0.000396967
0.000476735
-0.000348811
0.000819594
-0.000226097
-0.000429551
-0.000487509
-0.000141346
0.000204413
-5.06118e-05
-0.000276255
-0.000150717
-0.000384995
0.000907636
0.00031989
0.000446661
-0.000748482
-0.00033846
-0.000499401
0.000364918
-0.000437034
-0.000165423
-0.000100414
-0.000683625
-0.000378843
-0.000144375
0.000615194
0.000627283
0.00105655
-0.000213462
-7.32535e-05
0.000671821
0.000416534
-0.000300655
-4.82963e-05
0.000263977
-4.54463e-05
-0.000541447
0.000830524
-0.000147668
0.000425304
0.000124829
0.000262531
-9.86412e-06
0.00010559
-0.000105982
0.000240234
-5.93629e-05
0.000361815
-0.000961981
0.000605201
-0.000339734
-1.7615e-05
7.44803e-05
-0.000158615
-0.000363092
-0.000903206
0.000578014
-0.00020953
0.000366957
8.08267e-05
-0.000121388
0.000280746
0.00050954
0.000425156
8.09101e-05
-0.000152481
-0.000494529
0.000201686
-0.000483126
-0.00143629
-0.000405046
-9.1771e-05
0.00120127
0.00062673
-0.00066833
-0.00011091
0.00115614
-0.00127749
0.000298388
7.33398e-05
0.000377231
0.000929584
-0.000218176
-0.000165915
0.000301227
3.55907e-05
-0.000337818
0.00013501
-0.000573023
4.60717e-06
-0.000906283
-0.000202946
-6.04057e-05
-0.000268342
0.000558423
2.52619e-05
0.000172269
7.89492e-05
0.000124249
8.84362e-05
0.00045139
0.00016072
8.64285e-05
0.000472008
0.000158858
-0.000561151
0.000280295
-0.000826356
-0.000379198
-0.000188079
6.92818e-05
0.0001294
0.000447789
0.000265567
-0.000364464
0.000250652
0.000418753
-0.000725741
-9.91371e-05
-2.85856e-05
-0.000480286
0.000309204
0.000165832
0.000144259
0.000161497
-0.000297635
-0.000123024
0.00095175
0.000303184
0.000341751
0.000884393
-0.000789017
-0.000399149
-0.000463824
-0.000476746
0.000130675
0.000331921
0.00122438
0.00025973
0.000181355
-0.000379513
-0.000617162
0.000443775
-0.000136415
0.000139613
0.000276773
-0.000178499
0.000468278
-5.71959e-05
0.000158859
-0.00095358
0.000417621
-0.000714349
0.000286273
0.00014717
-8.80506e-05
0.00107188
0.000670201
0.000200126
-0.000505992
0.000680659
-0.000349325
-0.000562159
-0.000710591
-9.07628e-05
-0.0002529
0.000241943
-0.00144975
-0.00010602
-0.000795374
-5.17797e-05
0.000333737
-7.31868e-05
0.000119199
-0.000234403
-0.00051156
-0.00123666
-0.000202248
-0.000120864
0.00052353
-0.000144524
-0.000851771
0.000899791
5.84874e-05
-0.000602315
4.28046e-05
0.000161341
4.91955e-05
-6.23525e-05
-0.000795584
-0.000656612
0.000160458
-0.000256801
0.000565466
0.000697739
-0.000643154
9.6001e-05
-0.000267437
0.000458194
0.000490466
0.000592133
0.000279497
-6.40509e-05
-3.81742e-05
-0.000197764
0.000124919
-0.000153754
-0.000234494
-0.00012199
0.000462683
-0.000551341
-0.000278482
-9.43414e-05
0.000891516
-0.000332296
-0.000529597
3.97454e-05
0.000551347
-0.000182278
-0.000791703
-0.000191959
-0.000984493
-0.00037715
-0.000439514
0.000137038
0.000481632
0.000715224
4.25286e-05
-0.000251011
0.00106029
-0.000300491
0.000141211
-0.000315876
-0.000245432
-6.0307e-05
-0.000468057
0.000765683
0.00041277
0.000111729
0.000503958
0.00023098
-0.000402056
0.000662318
0.000604547
-0.000255036
0.000147693
0.000110057
-0.000610613
-0.000114002
-1.61089e-05
-0.000116168
-0.000368219
0.000696405
0.00106801
-0.000216544
-0.000289482
-3.43892e-05
-0.000204702
0.000545741
-0.000202548
0.000144942
-0.000726812
0.00105436
9.78673e-06
5.91682e-07
0.000742595
-0.000177703
0.000676455
-4.61416e-05
-0.000714556
-0.000882462
0.000681189
0.000247134
-0.00079942
0.000818689
0.000395553
9.40867e-05
-0.00031684
-0.0003369
0.000452941
0.000361479
0.000148956
-0.000551935
-0.000320605
0.000139866
-6.60214e-05
0.000202119
-1.85087e-05
-0.000153842
0.000136852
-2.77455e-05
0.000932047
-0.000417178
-0.000196249
0.000487338
-0.000357935
-0.000877049
5.90697e-07
-0.000415579
-0.000242845
-0.000124501
0.00075396
-0.000234965
-0.000941286
0.000190427
3.0359e-05
0.00020438
-0.000276427
-0.000270449
0.000993826
-0.000425904
0.000383347
0.000313958
-0.000210937
0.000291321
4.78483e-05
0.000350803
-0.000136588
0.00126131
0.000153251
0.000658455
-7.44596e-05
0.00045391
0.000564912
-0.000581979
-0.000203657
0.000402187
0.000367628
-3.68107e-06
-7.74865e-05
-2.48254e-05
0.0003215
-2.64512e-05
-0.000399314
1
-0.000305702
-0.000324079
-0.000122275
6.59978e-05
-3.47025e-05
0.000629163
-0.000266656
-0.000925571
0.000146196
0.00021487
-0.000351432
0.000427441
7.67314e-05
-0.000492618
-5.84842e-05
-0.000498888
0.000279576
-0.000642484
-1.31976e-05
-0.000165161
0.000158757
-0.000849485
-0.000154059
0.000476705
-0.000208618
-7.93311e-05
-0.000195816
-2.77423e-05
-8.53287e-05
-0.000188317
0.000136238
0.000335946
-2.12992e-05
0.000823841
0.000261092
-0.000758394
0.000458127
-0.0005965
-0.000420033
0.000380385
0.000197445
-0.000616239
0.000149543
0.000260697
-0.00035114
0.000122762
-0.0001524
-0.000585017
2.39879e-05
0.00024382
-1.47858e-05
-0.000575855
3.74389e-06
0.000323311
0.000383552
0.00014451
-0.000102119
0.000348103
-0.000566766
5.71713e-05
-0.00055249
0.00059917
9.4134e-06
0.000405613
-0.000785035
-0.000934481
0.000538534
0.000269109
0.000318662
0.000168239
-0.000345514
0.00108769
-0.00127736
-0.000563962
0.0003287
0.000917556
-0.000634228
-4.37977e-05
0.00016665
0.000539239
-0.0006601
0.000324732
8.55938e-05
3.26731e-05
-0.000250061
-0.000226051
-0.000453281
0.000369313
-0.000263251
-5.16812e-05
0.000585418
-0.000982007
-0.000184632
0.000685196
0.000459365
0.000311028
-0.00080198
-0.000609431
-0.000114567
-0.000439626
0.000540843
0.000150011
-0.00080567
0.000165064
0.000674151
-0.00050053
-0.000260792
3.05892e-06
0.000703731
0.000236409
5.69312e-05
0.000335954
0.000311917
-0.000281561
0.000193397
-0.000321718
-0.000166053
-7.71991e-05
0.000549177
0.000491071
0.000144893
-0.000456736
0.000220752
-0.000337616
0.000583237
-9.82096e-06
-0.00040781
0.000289897
-0.000494085
0.000641404
-0.000276986
5.43846e-05
0.000290385
-0.000216249
3.29229e-05
0.000347784
0.000392036
-0.0003618
0.000131753
-0.000108882
0.00053327
-0.000998092
-0.000489153
-0.000187017
-0.000174326
-0.000192096
0.000702938
0.000255473
0.000666163
0.00025058
-0.000387913
-5.68503e-05
0.000256189
-0.000233629
-0.000346117
4.19034e-05
5.55283e-05
-2.81372e-05
0.00037191
-0.000595015
0.000705525
0.000902374
-0.000127348
-0.000475094
-0.000369587
-0.000867389
-0.000324675
-5.61623e-05
0.000238068
-0.000449188
-0.000599986
0.000875261
0.000757354
-0.000188856
-0.000680125
-0.000161288
0.000818977
0.000702145
0.000201697
-0.000456224
0.00030946
-0.000417625
0.00139371
0.00045445
4.31339e-05
0.000228273
0.00050135
-0.00115095
-0.000421916
0.000435068
0.000258595
-0.000680329
-0.000469796
2.15182e-05
0.00051045
0.000119851
7.08822e-05
-0.000240167
-0.000107675
0.00075615
-0.000332674
-7.36648e-05
-3.8148e-05
-0.000843176
-0.000105606
-0.000226091
3.89939e-05
0.000451954
-0.000100244
-0.000540993
0.000650401
-5.50772e-05
-0.00141596
0.000195461
0.000592553
-0.000120654
4.67372e-05
-0.000175471
-0.000748563
-0.000341646
8.08672e-05
-0.000597581
-0.000128777
-0.000687519
0.000254126
0.00063621
-4.39804e-05
0.000254068
-0.0001079
-0.000579908
0.000132241
-5.60669e-05
-0.000156651
4.08342e-05
-0.00091015
-0.000411807
0.000419125
-0.000323526
0.000333418
0.000293187
-9.2286e-05
-0.000384064
-8.48487e-05
2.74788e-05
-0.000232712
0.000530367
0.000111484
-8.49623e-05
2.2933e-05
0.000911801
-0.000549516
-0.000177439
-0.000364835
-0.000722245
0.000316685
0.00113421
-0.000522712
0.000542879
-0.00050898
0.000304311
-8.24462e-05
-0.00036852
0.000483067
0.000288591
-0.00114818
0.000675153
0.000132494
6.59816e-05
0.000189124
-0.000145024
0.000351981
-0.000250951
0.0002333
6.15203e-05
0.000416136
-0.000405171
-0.000113969
6.90739e-05
0.000218342
-0.000714013
0.000389288
-0.000293078
-0.00056897
-0.000115116
0.000558415
-0.000897316
-0.000464651
0.000153717
-0.000187343
0.000642374
-0.000171084
-0.000396436
-0.000577541
-0.0007369
0.000501812
-0.00010645
-0.000752766
0.000331954
0.000120025
0.000404901
-0.000300114
0.000294615
-0.00052736
0.000746447
0.000219799
-0.000396854
0.000208883
-0.000230738
0.000525586
-0.000369963
0.000492006
0.000348359
0.000557015
0.000701804
0.000690784
-0.00033472
-5.1164e-05
-0.000524341
-0.000583867
0.0001111
-0.000454495
0.000679969
-0.00010251
0.00102823
-0.000749762
-0.000308072
-0.000337947
0.000301229
-0.000551703
0.000353593
-1.36442e-06
-0.00105167
6.2361e-05
0.000485295
4.23867e-05
0.00027672
0.000387023
-0.000236491
0.000554978
0.000112004
-8.16392e-05
-0.00036441
-0.0006535
-0.000207652
0.000459111
-3.74709e-05
-6.45434e-05
-0.000497328
0.000255082
0.000750824
0.000570892
5.06565e-05
6.89024e-06
-0.000303851
-0.00016952
0.000394148
0.000299022
-0.000150491
-0.00091835
-1
-0.000405505
-0.000408912
-0.000139642
-0.000105309
-0.000736912
-0.000260302
0.000480424
5.64795e-05
-0.000128955
-0.000457945
0.00055416
-0.000284964
-0.000743805
-0.000244219
0.000418696
0.000885559
0.000641746
0.000105138
-0.00014059
0.000159745
-0.000512058
-6.36189e-06
0.000115622
-0.000118882
0.000652873
-0.000413472
-0.00042091
-0.000265086
-0.000364228
7.76614e-05
0.000668529
-4.07382e-05
-0.000233712
0.000150878
-0.000145234
0.000601195
0.000413302
0.000172581
0.000181799
-9.51577e-05
0.000682968
0.000278162
-0.000129741
-0.000154262
1
-0.000320477
9.40788e-05
-0.000171353
6.61529e-05
0.000842797
0.000473192
-0.000554577
0.000341853
0.0004601
-0.000882333
4.70357e-05
-0.000989323
-0.00035621
-0.00070634
0.000565032
0.000625458
0.000290159
-0.000410149
-0.000425291
-0.000361901
-0.000810516
0.000748559
-0.000461625
-8.00162e-05
0.000515009
0.000115757
0.00031762
0.000220821
0.000164639
-1.33819e-05
-0.000136394
0.000216766
0.000261346
-0.000256347
0.00025947
0.000284525
0.000121537
-0.000111181
-0.000334197
-1.86576e-05
-0.000139794
-0.000461374
0.000604017
0.000200418
-0.000134997
4.98432e-05
0.000336324
0.000525775
-0.00083619
-0.000182159
-0.000314676
0.000242387
-0.000519034
0.000328892
0.000200535
-0.000661663
-0.000713396
0.00012084
0.000202398
0.00127478
0.000417606
0.000569736
8.18405e-05
-0.00029346
0.000595557
-0.000687353
2.18772e-05
0.000277199
0.000893142
0.000302027
-0.000561348
-0.000224586
0.000519944
-0.000307995
-0.000282828
-0.000134628
0.000247238
-7.27681e-05
-0.000264742
-0.000237903
-0.00095834
-3.09714e-05
-0.000555158
-0.000650367
0.000117252
-0.000355805
0.000382904
7.29473e-05
-8.44081e-05
-7.87118e-05
0.000360419
-0.000429834
-0.000343083
0.000236626
-0.000251412
0.000424594
0.000175939
0.000543976
-0.000286004
0.000111873
-0.000255758
0.000187516
0.000904598
-0.000251654
-0.000188519
-0.000417539
0.00028084
-7.57006e-05
0.000466566
-0.000113089
-0.000692064
0.000325429
0.000937581
0.000248867
0.000351795
0.000536828
0.000240447
0.000212753
0.000110198
0.000381824
0.00014257
0.000101862
-9.39129e-06
0.000735546
7.87306e-05
0.000573925
0.000465153
0.000750976
0.000427451
-0.000837339
-0.000267081
9.65663e-05
-0.000247058
0.000706903
-0.000555355
-0.000540181
0.000473862
-0.000237596
0.000330334
0.000423478
-0.000370859
-0.00036031
-0.000237461
-0.000215562
0.000582368
-0.000719945
-0.000349407
-0.00141486
0.00094929
0.000154444
-1.15808e-06
0.000145006
-0.000167698
0.000253699
-0.00046704
0.000140353
0.000432796
0.000286406
0.000714665
5.27288e-05
0.000141228
0.000243632
0.000165339
-3.49021e-05
0.00102543
0.0004522
0.000155879
-0.00050805
0.000179887
4.94342e-05
0.000354602
0.000122055
-3.35876e-05
-0.000260678
0.000977194
8.76538e-05
5.24601e-06
-0.00025725
0.000154752
-0.00055088
0.000163573
0.000146721
-0.000365225
2.1109e-05
-1
-0.000145172
0.000410041
0.000434578
0.000295899
-3.02432e-05
0.00051144
-0.000368536
-0.000290017
0.000439875
-0.000559066
0.000270893
-0.000193536
5.50762e-05
-3.989e-06
0.000177664
-8.55637e-05
-0.000743172
0.000126231
-0.000210329
-1.62001e-05
0.000379472
0.000123613
0.000558868
-0.000562283
-0.00020061
0.000100088
0.000563286
-0.000785241
0.000277369
0.000503126
0.000159165
-0.000195329
-0.000354883
-0.000104915
7.14336e-05
0.000580308
-0.000102806
-0.000765125
-0.000433978
-0.000170719
-0.000429192
0.000262811
-5.15257e-05
0.000112245
-0.000642514
3.76527e-05
0.00042796
0.000601694
0.000206078
-0.000857824
-0.00047873
0.000403714
-0.000128351
-0.00018921
-2.48448e-05
-0.00012294
-0.000375125
-0.000284318
0.000575633
0.000178232
0.00060229
0.000593774
0.000352018
-0.000557238
-0.000345834
0.000245208
-0.000199439
-0.000282783
-0.000936801
0.000501825
-0.00106705
0.000392591
-4.68975e-05
-0.000206864
0.00053038
5.54801e-05
-0.000358516
-2.50114e-06
0.000863847
-0.000693828
0.000556002
-0.000898145
-2.87799e-05
-0.000546844
0.000697499
4.43925e-05
0.000220618
-0.000193522
0.000586013
0.000100627
0.000513175
0.000167337
-6.70476e-05
0.000116526
-0.00020739
0.00114793
5.69423e-05
-6.75857e-05
-0.000198098
0.000354092
0.000332066
9.88808e-05
0.000399126
0.000530222
0.000329237
-0.000118928
0.000389035
0.000256104
-0.000636861
-1
-0.000593949
-3.31185e-05
0.000183122
-0.000570315
0.000441251
-0.000317503
0.000190255
-0.00039871
-0.0005947
-0.000670692
0.000302195
0.000807419
-0.000256453
-0.000926019
-0.000256705
-0.000710527
-0.000441041
-0.000236744
0.000234364
-0.000259832
-0.00103791
0.000433453
0.00104741
0.000121314
-0.000730422
0.000180423
0.000444822
0.000225077
-0.000451682
-0.000592813
9.49837e-05
0.000233464
0.000135506
6.31883e-05
-0.000507746
0.000650692
-0.000367818
9.76673e-05
-0.000103029
-0.000137287
0.000518184
0.00125255
0.000698441
9.76093e-05
0.000199613
0.000133285
0.000472718
-0.000139202
-0.000605709
-0.000433491
0.00063164
8.00468e-05
0.000153107
0.000481514
0.000468694
-8.50988e-05
-0.0004967
-0.000429424
0.000948262
-3.43161e-05
-0.000477258
-0.000108687
-0.000183794
-3.26446e-05
-0.000311741
6.93638e-05
-0.000265093
-0.000646836
-0.000283813
-0.000263549
0.000285623
-0.000493775
0.000503722
0.000276709
0.000442661
0.000223063
-0.000235266
0.000210635
-0.000228634
0.000368495
0.000221114
-0.000310016
-0.000798206
-9.84855e-05
0.000527476
-9.17776e-05
-0.000173555
0.000568956
0.000785686
-0.00104272
-0.000347024
-0.000129539
-9.67764e-05
-0.000323651
0.000838266
0.000707635
-0.000290524
0.000166065
0.000207354
-0.000291036
0.000184736
-0.000113661
-3.4658e-05
-0.000326566
0.0007291
0.000249675
0.000419527
-0.000510907
0.000255902
0.000235308
-0.000415664
-0.000458403
0.000763924
-0.000794741
-0.000520756
0.000215779
-0.000517674
0.000575802
-0.000310503
0.000389519
9.17349e-05
0.000524948
-0.000166484
-9.01492e-05
-2.48046e-05
-9.56567e-06
0.000476141
-0.00057518
-0.00054268
0.000325357
-0.000365623
-0.000416588
-0.000217939
0.000106059
-0.000354076
-0.000112985
-0.000849388
0.000278523
-4.49537e-05
0.000118993
-0.000708863
-7.22018e-05
0.000618702
-0.000358141
0.000251657
0.00108462
-0.000572997
-0.000104778
0.00016641
0.000560441
0.000133104
-0.000477473
-8.56805e-05
-0.000956176
-0.00124393
0.000162088
0.000335828
0.000840718
0.00155112
-0.000862301
0.000592381
-0.000168428
0.000399486
0.000849618
-0.0002701
0.000235973
-0.000298458
0.000173526
0.000509565
0.000486755
0.000696858
0.000400472
-0.000102325
-0.00130389
-0.00102442
-4.17166e-05
-0.000433067
-0.00030867
0.00049895
0.00012236
0.000333595
-6.8846e-05
-0.000176197
0.000121166
0.000291339
-0.000264041
0.000103298
-0.000437514
-0.000453394
0.000698871
-0.000240257
0.00076989
-0.000872173
-0.000738994
6.84539e-05
0.00015024
0.000686173
-0.000365738
-0.000388686
-0.000119914
0.00066673
0.000246278
0.000254262
0.000101746
0.000132038
-0.000368198
0.000963212
0.000345381
2.18482e-05
-0.000248225
-0.000433072
0.000172066
-6.7286e-05
0.000214815
-0.000170948
-0.000461408
0.000217921
-0.000571004
0.000573711
0.000472254
0.000274771
-0.000124832
-0.000758754
0.000493943
-0.000318284
0.000201416
-0.000368828
6.68645e-05
-0.000141045
0.000345619
-0.000171778
-3.17097e-05
0.000144116
-0.000262987
0.000704628
0.000682854
0.000239073
0.000448328
-0.000559075
0.000505948
0.000278914
0.000576155
-1.4792e-06
0.000379333
0.000576846
0.000148897
-0.000490994
-0.000483324
-0.000637072
0.000426954
-2.11452e-05
0.00020639
-0.000764042
0.000230773
0.00100314
4.22211e-05
-1
0.000570053
0.00023189
0.000123893
0.000185743
-0.0001034
-0.000286271
0.000783775
0.000237925
-0.000728387
0.000212581
0.000858731
4.24946e-05
-0.000287745
0.0009548
0.000649002
0.000111177
0.000529015
0.000170701
0.00098747
-0.000301904
-0.000261816
-0.000257439
-0.000139961
-0.000544232
0.000790193
-0.000914118
0.000388463
-0.00035539
-0.000657975
-0.00041299
0.000356696
-0.000944081
0.00027329
0.000189813
0.000311242
0.000267003
0.000569243
0.000429514
5.13749e-05
0.000113637
0.000748175
0.000480468
0.000367871
-0.000604123
0.000188578
-5.03084e-05
0.00032464
-0.000336874
-0.000324013
-7.85679e-06
-0.00054677
-0.000320921
-0.0001064
-0.000111272
0.000295354
0.000697061
-0.000154875
-0.00014691
0.000475944
-0.000226882
2.93833e-05
0.000567127
0.000734088
0.000193361
-0.00110987
0.000185826
0.000148902
0.000436819
6.72649e-05
-5.90347e-05
-2.54611e-05
0.000521693
-4.84119e-05
0.00027212
-0.000344834
0.000348077
0.000313432
-1
0.000180076
-0.000435328
-0.000562037
0.000582391
-0.000285799
-0.000856906
0.00027061
0.000365202
-0.000352288
-0.0001348
-8.24105e-05
0.000447271
0.000271852
5.13998e-05
-0.000350934
0.000253165
-6.94978e-05
-0.000195354
6.13637e-05
-0.000223152
0.000463337
-0.00137021
0.00062921
0.000366783
-1.11704e-05
0.000551591
0.000569563
0.000393064
0.000589273
2.80147e-05
0.000227113
0.000513443
0.00077804
0.000201163
-0.00029719
-0.000714186
0.000292257
0.000367435
8.92606e-05
0.00029025
-0.000123706
-2.34304e-06
-0.000198606
-0.000568947
-0.000576965
-0.00121378
-0.000515725
-0.00034011
0.000119693
0.000179441
0.000789361
-0.000296167
0.0011905
-0.000273267
-0.000290058
-0.000158595
-0.000571231
4.40096e-05
-2.96377e-05
-0.00077851
-0.000130182
0.000378104
0.000520385
-0.000911241
0.000287237
0.000212596
-0.000297603
-0.000316054
-0.000104781
-0.000282738
0.000197622
-7.98962e-05
2.83142e-06
0.00039885
4.19747e-05
-0.000368991
-0.000707698
-0.000456065
-0.000385615
-0.000747759
-0.00121655
0.000141164
0.000117744
-0.000585059
-0.000375247
6.58949e-05
-0.000222621
-1.48247e-05
-0.00048205
2.44924e-05
-3.31521e-05
-6.30873e-05
0.000117384
-0.000848327
-0.000569708
0.000572853
0.000625996
0.000375239
-0.000601868
0.000840742
0.000368792
-0.000362367
-0.000999004
0.00036343
-0.00150853
0.000229843
-5.22409e-05
0.000247495
0.00145748
-0.000318864
-0.000216122
0.000166066
-2.08212e-05
-4.68208e-05
0.000321124
-0.000132774
-1.72003e-05
-0.000536285
0.000766153
0.000831609
0.000283286
0.000148771
0.000290823
-0.000744619
9.39847e-05
0.000437434
0.00111287
-0.000116235
-0.000146712
-0.000392054
5.55607e-05
-0.000710847
-0.000230491
-0.0002052
0.00032201
5.03558e-05
-7.7092e-05
-0.000210149
0.00100896
-0.00044492
-0.000466438
-0.00050218
6.83011e-05
0.000391753
-0.000100492
0.000178123
0.000390034
0.000239788
-0.000127956
-0.000189633
9.62896e-05
-0.000506988
-0.000410817
5.76198e-05
0.000271121
0.000664392
-0.000382402
-0.000125017
0.000302136
-0.000626587
-0.000278087
-7.19089e-05
-0.000393138
-7.08315e-05
8.98062e-05
-0.000560226
0.00118736
-0.000113854
0.000442885
0.000799626
0.00047794
-2.68448e-06
0.000580859
-0.00025521
5.9695e-05
-0.000463043
-0.000243133
0.000948812
-0.000362262
5.67482e-05
0.00074152
0.000550718
-0.00074928
-0.000471758
0.000522053
-0.00118975
0.000494005
-0.00029009
-0.000571193
-0.00028055
-0.000591603
-0.000530993
0.000517171
-0.00074265
-1
-0.000173617
0.000183225
0.000562794
-0.000619547
0.000118375
5.17504e-05
-0.000414962
0.000519996
0.000298009
0.000358007
2.00271e-05
-0.000117496
-0.000160169
0.000481967
-0.000358162
0.000131212
0.00086895
0.000214108
0.000135601
-0.000987815
0.000357399
-0.000177272
0.000636914
0.000741855
0.00095692
0.00037957
-0.000479745
0.000472157
-0.00086494
0.000688222
0.000138859
0.000351237
0.000535545
-0.000334666
-0.000219565
9.69208e-05
-0.000868988
0.000238913
0.00117319
-0.000145256
-5.28026e-05
0.000706025
-1
0.000202179
0.000329483
0.000101649
-0.000469139
-0.000728769
-8.32436e-05
-0.000690073
-0.000430691
0.000419906
-0.000535289
-0.000385446
-0.000438182
3.39716e-05
-5.35082e-06
-0.000630977
3.25408e-05
2.95825e-05
0.000517117
-0.000218774
0.000420158
6.00217e-05
-0.000931728
0.000491864
3.62639e-05
-0.000201257
7.1362e-05
-0.00105021
-0.000292915
0.000752739
0.000588737
-0.00045512
0.000633647
7.35755e-06
-0.000795883
0.000130186
0.000848979
-0.000433392
0.000506478
-0.000220112
-0.00012108
0.000183911
0.000132792
0.000323191
-0.000116528
0.000258753
-0.000686693
0.000437089
-0.00023937
-0.000314681
0.000308624
0.000231579
-0.000370125
-0.000282804
0.00035879
0.000246415
-0.000401379
0.000338529
-0.000189593
0.000483805
7.30234e-05
-0.000176817
0.000530868
-0.000329861
0.000504957
-0.000101056
-1
0.000150497
-0.000513474
0.00028652
0.000135234
5.89197e-05
3.87473e-05
0.000114377
-0.000186332
0.00033481
-0.000495252
-0.000194159
0.000226363
0.000469797
-0.000296647
-0.000143876
-0.00024428
-0.00045475
0.000478288
0.000177294
0.000594818
-0.000550902
0.000808179
0.000950918
-0.000364883
0.000348521
-0.000139277
-0.000416499
0.000258609
0.000511147
0.000211703
-0.000116733
0.000174353
-0.000203814
0.000310084
-3.14193e-05
-0.00038842
0.000160438
0.000191318
0.000308874
-0.000596633
0.000711375
-0.000389257
-0.000157492
-0.000217943
0.000813173
0.000657612
-0.000612201
-0.000718398
-0.00067248
-0.000193014
0.000187873
-1
-0.000123621
0.000237776
0.000476332
3.96992e-05
0.000173906
-0.000535714
0.000255093
0.000403067
0.000573146
-0.000305454
0.000113399
0.000482612
0.0007583
0.000357018
0.00119665
-0.000715129
-0.000114995
0.000159481
-0.000485914
-0.000911151
0.000263296
-0.00082893
-0.000828486
-0.000284741
-0.000679298
3.74861e-05
-0.000908609
0.000486476
0.000107432
0.000370937
5.66984e-05
-0.000229295
0.000556225
0.000258952
-0.000758022
-1
-0.00013828
0.00042268
-0.000340394
-0.000370009
-0.000269133
2.41357e-05
-0.000287951
-7.8223e-07
0.00037913
0.000179741
-0.000593721
0.0005095
0.000129889
-1.40784e-05
-0.000501295
-0.000108895
0.00068948
0.000573322
-0.000564887
0.000431379
0.000175759
-0.000120877
0.000466174
0.000398996
-0.000410293
-0.000939399
0.000582109
-1
0.000176264
-0.000626619
0.000169085
0.00033587
-0.000490426
-0.000694673
-0.000190693
-0.000224675
0.00036894
-0.00033414
3.36837e-05
-1.67114e-05
-0.00015031
-0.000572418
-0.000156224
0.000258521
-0.00060456
-9.93686e-05
0.000442986
-0.000326795
-5.36504e-05
-0.000313029
0.000380604
-0.000388462
0.000711764
-0.000350404
0.000433418
0.000386993
-0.000436711
-9.05025e-05
6.71815e-05
0.000282344
0.000526524
-1.79753e-05
0.000414056
-5.31308e-05
0.000146779
-0.00081503
-0.000131087
0.000888011
-4.22505e-06
-0.000235685
0.000579315
3.96919e-05
-0.000628905
-5.31634e-05
-0.0009748
0.000578838
0.000108263
-7.17292e-05
0.000626624
0.000505895
-2.971e-05
-0.000175579
-0.000304736
-0.000669289
0.00016911
0.000452218
-0.000306877
-7.54094e-05
-0.000863774
0.000231131
0.000568032
0.000124114
-0.000208002
5.9677e-06
-2.45622e-06
0.000288552
0.00072469
-0.000104457
0.000208358
0.000211702
0.000693717
-0.000142987
0.00038702
-0.000857856
-0.000242506
-0.000280126
-0.000225118
0.000399942
-0.000127705
-0.000151271
-0.000518189
0.00033264
-8.16394e-05
2.63577e-05
-0.000441444
-0.000179575
-0.000190744
-0.000416699
-0.000126427
0.000292426
0.000113834
-0.000201237
-0.000482438
-0.000721241
0.000343653
0.000446056
-0.000422626
0.000229495
0.000103823
8.77443e-05
-0.000161914
-0.000789953
0.000191675
-0.000266906
0.000146637
0.000223153
0.000822434
0.00020558
-0.000612322
-0.000567732
-0.000145863
-0.000103425
-0.000382897
-3.43404e-05
0.000332129
-0.000832719
0.000524698
0.000695256
0.00112503
-0.000232905
4.53645e-06
-0.000590535
-0.000515496
0.000157581
-0.000640055
-0.000680718
-0.000262324
0.000359021
-0.000382129
0.000564833
0.000102249
8.70775e-05
-0.000603963
-0.000374461
-0.000703075
-1
-4.8328e-05
0.000405761
0.000667499
-0.00050104
0.000509197
-0.000377343
0.000280968
-9.785e-05
0.000118707
-0.000724284
0.00118334
9.10908e-05
0.000200049
-0.000286679
-1.39206e-05
-0.000227401
0.000191532
0.000156505
-0.000272557
-4.38055e-05
5.35615e-05
-0.000398962
0.000270268
0.000465653
0.000206533
0.000138583
-0.000200783
4.85987e-05
9.08788e-05
-0.000126529
0.000106058
-2.16544e-05
-0.000644699
-0.000585677
-4.1265e-05
-0.000213737
-0.00022327
-0.000249557
-0.000339203
-0.000250919
0.000609432
0.000140326
0.000450001
0.000357647
-0.000331376
-0.000488741
0.000160429
6.31404e-05
-0.000150713
-1
-0.000567452
0.000944383
-0.000755033
-0.000194745
-0.00047835
0.000633797
-3.54886e-05
0.00012867
0.000202754
-0.000256031
-0.000344435
-0.000184076
-0.000787037
0.000202267
0.000100338
-0.000267783
-3.34587e-05
0.000694757
0.000434917
0.000304597
0.000168416
5.11932e-05
-0.000692706
0.00012124
0.000596224
-0.000288075
0.000209508
-0.00026532
-9.06609e-05
0.000510801
-0.000435563
-0.000557859
0.000170729
0.000404239
8.00543e-05
-4.81562e-05
0.000492881
-0.000141591
-0.000404745
0.000182713
-1.36053e-05
0.000170972
-0.000146723
-3.51596e-05
-4.90732e-05
4.45857e-05
0.000537695
0.000101725
3.23057e-05
7.77213e-05
0.000624467
-0.000752249
0.000348329
0.000105304
-0.000130684
6.69107e-05
-0.000700047
5.81338e-05
-0.000350741
0.00089896
0.000156845
-0.00037204
-0.000187838
-0.000341502
-0.000239873
-0.000150442
0.000426425
0.000639124
-0.000592607
0.000391718
-8.32671e-05
-0.000619179
0.000208114
-0.000365081
-0.00084856
-0.000978221
-0.000771601
3.31467e-05
0.000586406
0.000244632
0.000241963
-9.33229e-05
-8.96981e-05
-0.000455397
-0.000437603
-0.000656059
0.000892891
-0.000496365
9.37381e-05
6.67595e-05
-0.000552672
-0.000372848
6.10831e-05
-0.000432493
0.000869217
0.000270321
-0.000372641
0.000250682
0.000469357
-0.000316699
-0.000137179
0.000451242
-0.000552208
0.000185136
-0.000705335
-0.000588545
0.000278418
0.000692563
0.000108136
-8.34764e-05
0.000364695
0.000827372
0.000220888
0.000467126
-0.000219836
-0.000478766
5.66548e-05
-0.000131961
2.54028e-05
0.000228557
0.00031705
5.23819e-05
0.000732924
-0.000166588
-0.000601301
-0.000976029
0.000504077
-0.000522759
-3.20851e-05
0.00085135
-0.000599668
0.000653251
-8.44864e-05
-0.000130324
-0.00032239
0.000242432
0.000418963
-0.000381705
-0.000249908
-0.000806836
-1.40597e-05
0.000494822
0.000140842
0.000818986
-0.000373176
0.00102533
7.48951e-05
8.15297e-05
0.0002503
0.00120032
-1
-0.000191121
0.00125268
-9.04287e-05
-0.000256055
0.000231608
0.000135638
-0.000662372
0.000319753
-4.58905e-05
-0.000870653
8.55895e-05
-0.000812181
-0.00062448
0.000232206
-0.000503385
0.000140878
-0.000232522
-0.000375738
3.97834e-06
-8.17455e-06
0.000659285
0.000228445
0.000172134
0.000227882
-0.000318398
0.000131671
0.00044828
0.000370624
8.50414e-05
-0.000434481
7.17537e-05
0.000352548
0.00028968
0.000587396
-0.000175731
-0.00027616
7.0541e-05
-0.000295972
2.60567e-05
0.000556403
2.28428e-05
-0.000550441
-0.000112947
0.000401338
-0.000117118
0.000137226
0.000624566
0.00018142
-2.0404e-05
0.00016799
-0.000863118
-0.00077259
0.000569417
-0.000152347
-6.81302e-05
-0.000220848
0.000119743
0.000681484
0.00125086
-0.000490395
-6.62018e-05
0.000325287
-0.000722086
-0.000158584
-0.000777369
-0.000569046
0.000492118
-0.000371966
0.000152602
0.000181573
0.00113566
-0.000525433
0.000343889
-0.000495848
-5.86002e-05
-0.000285174
-0.000544426
0.00103838
3.67558e-05
-0.000100313
-0.000142737
-0.00032314
0.000484091
0.00051498
-0.000342024
0.000380606
0.000179362
-0.00011064
0.000508084
-0.000115023
-0.000960234
-6.63672e-05
-0.000177334
-0.000145348
-0.000238192
-0.000305206
-0.000617197
0.000453768
-0.000123022
0.000231866
-0.000388507
-0.000248013
0.000361407
-0.000444932
0.000589337
-0.000508474
0.000217399
-0.000971067
0.000516769
-0.000458365
-6.8524e-05
-0.000606758
-0.000186612
-0.000135305
-0.000684336
-0.000115048
0.000272435
0.000844434
0.00071962
-8.91903e-05
-0.000109029
-0.000302281
0.000159316
0.000110781
-0.00072268
-0.000148699
-0.000611164
-0.000193516
-0.000148502
0.000125777
0.000256273
0.00131543
0.000208919
-4.08131e-06
-9.96761e-05
0.000291641
-0.000270469
2.93225e-05
-0.000585461
0.000318264
0.000819793
-0.000412412
-0.000618126
-5.08278e-05
-0.000345759
-0.000251574
-0.000245653
-0.000295063
-0.00072038
0.000801334
0.000609673
-0.000339977
-4.27193e-05
-0.000588231
0.000590976
-0.000572781
0.000670503
-0.000109511
0.000260181
0.000211943
3.98242e-06
2.70425e-05
-2.54278e-05
-1
-0.000217074
0.000139592
0.00121031
-0.0010068
-0.000140074
0.000266095
0.000865452
-0.000198765
-0.000671754
0.000876842
-0.000254765
0.0014964
-0.000501546
-0.000215349
0.000469545
-0.00064579
-0.000195197
-0.000208575
0.000454717
-0.000391565
0.000421747
0.000179074
0.000936069
-0.000454027
0.000211631
-0.000221904
0.000314312
0.000194442
0.000377843
0.000246565
0.000366866
-0.000421933
0.000837524
5.92734e-05
-0.000326152
-0.000244674
4.75163e-05
0.000456966
-0.000180011
-0.000281681
-0.000714864
-0.000200561
7.39687e-05
0.000368054
-0.000197303
-0.000149396
0.000822165
0.000177055
-2.42366e-05
-0.000146713
0.000734892
-0.000397703
-0.000174105
0.000812837
0.000307365
3.96948e-05
0.000347828
0.000770801
0.000657316
-0.000514728
-0.000474939
0.000366199
0.000470526
-0.000929632
-0.000558715
-0.00107804
0.000394854
-0.000295907
-5.91241e-05
9.95895e-05
0.000186829
0.000352524
-0.000354533
0.000303758
-0.000191546
-0.000140111
0.000141263
7.42965e-05
-0.000308257
0.00045265
-0.000535874
-0.000144528
0.000225405
-1.01712e-05
0.000685947
0.000120956
0.000465605
4.40334e-05
-0.000538663
-2.18404e-05
-0.000340193
-0.000182169
0.000792981
0.000768495
-0.000430292
0.000396467
0.000406309
0.000270122
-0.000142352
8.90981e-05
0.000536165
-0.000550981
0.000386031
-0.000223867
3.65915e-05
-0.000330495
0.000421861
-4.97246e-05
9.98175e-05
0.00020202
0.00024829
0.000120002
0.000764056
0.000533215
-0.000509066
-0.000143597
-0.00019592
-9.68449e-06
-0.000124879
0.000208952
0.000238748
6.57793e-05
-0.000157418
0.000396175
-0.00047442
0.000464451
0.000782967
-6.24412e-05
-0.000543443
-0.000562158
3.16246e-06
0.000970792
-0.00012496
-0.000389618
-0.000373644
0.000157927
0.000174511
-7.114e-05
-0.00065492
-0.000101284
0.000349916
0.000100713
0.000438571
0.00011702
-0.000577158
0.000455174
0.000505351
-0.000654347
0.000102303
-0.000834862
0.000571446
-7.83656e-07
0.000452236
0.000369861
0.000139602
0.000268513
6.13577e-05
0.000190602
0.000909164
-0.000617091
-0.000778226
6.19802e-05
0.000108147
-0.000718934
-0.000207646
0.000298914
4.40557e-05
0.000551654
0.000851067
0.000401244
0.000450126
-0.00065252
0.000351452
0.00122729
-0.000377914
0.000372442
-2.4352e-05
-0.000511114
0.000368513
0.00047104
0.000108589
8.2292e-05
0.000167055
0.000975438
-0.000220022
-0.000335185
-0.000276625
0.000630116
0.000233366
-0.000451083
0.00013348
0.00023015
-0.000872176
0.000381607
-0.000464341
-0.00038513
0.000200068
0.000546015
0.000633265
-4.72455e-05
0.000481245
-0.000770645
0.00112993
-0.000342708
0.00042355
-0.000156177
5.43404e-05
0.000223421
0.000824274
-0.000760276
0.000467625
0.000449231
-0.00057755
-5.57286e-05
0.000908694
0.000951003
0.000170556
-0.000151012
-0.000264231
-0.000451982
-0.00036188
0.000352043
-4.4645e-05
0.00021843
0.00015014
-0.00125419
-0.00156852
-0.000476299
-0.000403998
0.000312889
0.000210582
-0.000321332
-0.00157143
0.00047875
-0.00107635
-0.000210478
-0.000521323
-0.000230632
-0.000380287
4.96439e-05
0.000492035
-0.000659819
5.34753e-05
0.000493449
0.00071792
-0.000379774
-0.000452591
-0.000148201
-0.000200849
-9.69831e-06
-0.000274292
0.000187542
0.000289135
8.11491e-05
0.000538807
-0.000643173
-9.58345e-05
0.00068734
-2.99025e-05
-0.000324815
0.000107132
-4.46133e-05
-0.000292721
0.000174572
-0.000180248
0.000403682
-0.00052022
0.000677873
0.000320513
0.000556624
-5.17972e-05
-0.000367329
-0.0004725
0.00076005
-0.000382083
0.000189041
0.00021607
-1
0.000344775
-1
-0.000525073
-0.000591011
0.000159562
-0.000184343
-8.01789e-05
0.000360765
0.000329295
0.00033545
-1.6451e-05
-0.00113783
0.000206361
-0.000472167
-0.000473359
0.000173405
-1
-0.000239398
5.49397e-05
0.000242981
0.000404131
0.000388964
-1
0.000353093
0.00031364
-0.000458457
-0.000226101
0.000299478
-0.000314019
0.000121216
-0.000428973
0.000548784
0.000333213
0.000504618
-3.85085e-05
0.0004715
0.000465352
-0.000305568
0.000142141
0.0003946
0.000487081
-0.000721446
0.000647288
0.000631881
-0.000187336
0.000615797
-0.000334746
-8.7789e-05
-0.000191535
0.000264539
-0.000343472
-0.000564553
0.000834929
0.000126324
0.000543371
0.000174478
-0.000813906
0.000142484
0.000100819
-0.00022516
-0.000643747
-0.00081396
0.000211198
0.000200887
0.000584592
-0.000440879
-0.000615975
-8.03486e-05
-8.47069e-05
0.000473415
-0.000196066
0.000793167
0.000503993
-0.000876237
-0.000105573
-0.000527512
0.000192793
0.000424986
0.000873658
-0.000445137
0.000915378
6.32302e-05
0.000465571
0.000401636
-1
-0.000276603
-0.000337117
-0.000358171
2.96882e-06
0.000218344
0.000205846
0.000141403
0.000367234
0.000314702
0.0002435
0.000166244
-0.000656965
0.000479096
0.000517845
0.000597891
-4.16736e-05
7.0871e-05
-0.000293606
-0.00053008
0.000375333
-0.000141271
0.000708834
-0.000227771
-0.00044207
-0.00113955
-0.000537741
-1.70833e-05
7.65634e-05
-0.000603262
0.000272018
-0.000487754
0.000162381
0.000357669
-0.000120382
-0.00041429
-0.000463843
0.000475439
-0.000769865
6.50793e-05
-0.000252276
0.00088133
-8.78087e-05
0.00119808
-0.000308048
-0.000115354
-0.000817168
-0.000249654
-0.000749207
-0.000172729
-0.000136916
-0.000372308
4.39941e-05
-7.51279e-05
-0.000120163
0.000336057
0.000717538
-0.000422293
-0.000375043
-0.000468459
0.000341276
-0.000120119
0.000132734
-0.000139361
-2.82664e-05
0.000203873
0.00108923
-0.000111523
8.35379e-05
-0.000122216
0.000436093
0.000251313
0.000238939
0.000137334
0.000423081
0.000123425
-0.00102089
-4.81235e-05
-1.58237e-05
-0.000269906
8.51956e-05
-3.18242e-05
7.46546e-05
-0.000153469
-2.55691e-05
0.000116442
0.000301546
-0.000319822
-0.000135612
0.000234797
-0.000580465
0.000928593
-0.000509327
-0.000373642
-0.000413592
0.000154966
-0.000383378
0.000133358
0.000442435
0.000650898
0.000322213
0.000848667
-0.000420555
8.43817e-05
-3.36392e-05
-8.60978e-05
0.000675766
-0.000293895
-0.000346048
0.000785994
-9.60089e-05
0.000108953
0.000541959
-0.000268203
-0.000431378
-0.000451319
-0.000109256
0.00110508
-0.000354797
-0.000341738
-0.000102454
2.56736e-05
-0.000509558
-0.000106285
0.000114576
-0.000574787
-0.000581886
-5.4081e-05
0.000658483
5.14741e-05
-0.000237642
0.000638824
0.000396925
-0.000701498
0.000107112
-0.000193136
0.000204389
-0.000111603
0.000159201
0.000191137
-0.000252349
0.000905909
0.000317202
-9.38139e-05
0.000284209
-0.000431739
-4.59787e-06
-0.000263709
-0.000165123
-0.000117018
-0.000582674
5.82569e-06
-0.000583735
-0.000283213
-4.3211e-05
0.00057569
-0.000106465
-0.00050204
-0.000126245
-3.46614e-05
-0.000387117
-0.000269608
0.000971042
-0.000155644
4.08916e-05
-0.000648659
0.000125535
-0.000323303
-0.000278381
0.000637275
0.000300407
0.000442413
0.000988011
-0.000974392
-8.92318e-05
-0.000570758
-0.000267071
0.000877905
0.000340213
-0.000743277
-0.000279832
7.05213e-05
-1.12425e-06
-0.000417961
-0.000403233
-0.000642028
0.00044681
-2.5616e-05
0.000438817
-0.000307409
0.000253578
-0.000463842
0.000355201
-0.000138693
0.000417165
-0.000371437
-0.000208714
-0.000149683
0.000237247
-0.000835392
0.000317978
-0.000167529
-0.000681607
-0.000275835
-9.37843e-05
0.000311785
0.00056231
0.000100573
0.000321829
-2.77529e-05
-0.00036144
-8.76627e-05
7.59904e-05
8.54432e-05
-0.000676847
5.41926e-06
0.000498176
2.91648e-05
-0.000738564
0.000796214
0.00018547
-1
0.000245667
0.00105485
0.000285897
0.000659276
0.000136269
0.000911912
0.000329224
0.000381265
-0.00046111
0.000341077
0.000458021
0.000532909
-0.000248959
0.000650982
-2.552e-05
-0.000775075
-0.000635304
0.000184046
0.000254216
0.00045295
0.000215852
0.000351282
-0.000128216
-0.000481771
-0.000112372
0.000585595
-0.000115265
-0.000115775
0.000250357
-5.38751e-05
0.000224615
0.000174761
-0.0001526
0.000123436
0.00028526
0.000543832
-7.47851e-05
0.000192348
0.000522666
-0.000395906
0.000904301
-0.000105038
-0.000281437
-0.0004968
-0.00046841
6.37208e-05
-9.84788e-05
-0.000166284
0.000598631
-0.000242785
0.000187757
0.00117262
-0.000166503
0.000178781
0.000218314
-0.000342668
-0.000517737
-0.000804922
-0.00113125
8.21528e-05
-0.000147647
0.000351076
0.000852537
-0.000174417
0.000725434
0.000641604
-0.000102289
-1
-0.000162411
-0.000318542
-0.000325016
-0.000563426
-0.00018535
0.000137734
-0.000402752
0.00057878
0.000141494
-9.38086e-05
-9.5995e-05
8.54554e-05
-0.000147807
0.000218593
-0.000435651
0.000186063
-0.000454949
1
-0.000142257
0.00025182
0.000278973
9.30138e-05
0.000222514
-0.000800469
-0.000145221
-0.00048766
0.000636534
-0.000453723
-4.73334e-06
0.00111934
0.000137454
-0.000500488
0.000213521
-2.22706e-05
-0.000261136
-0.000216635
0.000197512
-0.000129604
-0.000390911
-0.000190332
-0.000380404
0.000103885
-8.38596e-05
0.000279433
-0.00077542
0.000205154
0.000216456
0.000555577
-0.000471671
-0.000356708
-0.000536034
0.000355563
0.000239664
-0.000217634
0.000146942
-0.000116545
-0.000227013
-0.00043948
-0.000702324
0.000200559
-7.80096e-05
-0.000484601
-0.000220898
-0.000284493
6.76567e-05
-0.00036594
-0.000431146
0.00028447
-0.00108148
-0.000344713
0.00117661
-0.000574769
-0.000113554
0.000346027
-0.000417968
0.000182383
0.000308058
7.81903e-05
0.000191237
0.000471999
-0.000394707
0.000733838
0.000462436
0.000289103
-1
-1.65607e-05
-0.000275007
-7.16486e-05
0.000168158
-0.000307658
0.000144867
-0.000423407
-0.000451323
-0.00017649
-0.0011406
-6.26068e-05
-0.000560974
0.000581446
-0.0005371
-0.000667536
0.000603717
-0.0002193
6.03147e-05
-0.000491804
-0.000126092
0.00129391
7.00015e-06
-0.000808201
0.000239899
-0.00050267
-0.00011007
0.00097371
7.1922e-05
-2.75932e-05
-9.45265e-06
0.000766062
0.000127345
-0.000562727
0.000291728
0.000212273
-4.72616e-05
0.000160363
-0.000145033
8.944e-05
-0.000198076
0.000897389
-0.000248207
-0.000466841
-0.000131648
-0.00056669
0.000764755
-4.38792e-05
-0.000352725
0.00043213
-0.000218339
-9.47396e-05
-0.000168149
0.000381943
3.76032e-05
0.000641632
0.000780589
0.000328885
0.000924278
-0.000319906
-1.38004e-05
0.000460346
6.57883e-05
-0.000674617
-9.42662e-05
-0.000384421
6.57442e-07
0.000445607
0.000322919
-0.00107972
-0.000470884
-5.00878e-05
0.000284103
0.000118611
-1
-0.000184628
0.000543416
-0.00053342
0.000301031
0.000627838
-0.000235755
0.000616369
-0.000320244
-0.000794102
0.000274895
0.000570616
-0.000726845
0.000145503
-0.000255544
0.000696142
-0.000457737
-0.000669678
0.000622525
0.000498841
-0.000177821
0.000713403
-9.06422e-05
0.000109814
4.4109e-05
0.000150334
-0.00072423
-0.000702028
0.000725668
-0.000108299
-0.000311123
-0.000248633
0.000123994
9.90011e-05
0.000353532
0.000475798
-0.000871454
0.000574306
-6.37834e-05
0.000337751
0.000232688
0.000656373
-9.19309e-05
0.00036692
-0.000646487
0.000402029
0.000134361
0.000374926
0.000641334
-0.000338976
0.00012269
0.000556895
-0.000448181
-9.15433e-05
0.000573635
0.000112735
0.000559681
-0.000256115
-0.000551307
0.000384157
-0.000479344
0.000372016
-2.98435e-05
-0.000248104
0.000328476
6.75411e-05
-0.000886328
7.41815e-05
-0.000221921
6.61843e-05
8.75749e-05
0.000563592
-9.49367e-05
-0.000104294
-8.81688e-05
0.000123504
-1
0.00013825
-0.000345872
-0.000142321
0.000215151
0.000503931
-0.000395394
0.000336818
-1
-0.000183746
-0.000943992
0.00034334
-0.000820471
0.000378481
0.000108485
6.40765e-05
0.00035509
-0.000229316
-9.59343e-05
-0.000267467
-0.000235761
-0.000602537
-0.000594127
0.00038326
0.000482447
0.000279017
0.000435452
-1.35957e-05
-0.000403996
-0.000270826
0.000800645
0.00105543
-0.000188437
0.000167625
0.000348863
-0.000104383
0.000311441
0.00068401
0.000383543
-0.000553543
0.000273444
0.000472065
0.000583962
0.000248325
-0.000368556
-0.000128612
-0.000295657
0.000203009
-0.000134444
-0.000113261
0.000136832
-0.000577007
-0.000228158
0.000760732
0.000161041
0.000122875
0.000658958
-0.000371246
-2.17172e-05
-2.89302e-05
0.000549633
5.10137e-05
-0.000374967
0.00037757
-0.00015046
4.21361e-06
-0.000750589
0.000433848
4.8276e-05
-4.52352e-05
0.000112282
0.000572285
-0.000116094
0.000112035
0.000770499
-0.000308451
4.92909e-05
0.000221709
2.83613e-05
-0.000263857
0.000125189
-0.000354827
-0.0013027
0.000581534
0.00085521
-0.00016979
0.000181919
0.000504963
0.00044308
-0.000734329
0.00041758
0.000404045
-3.57069e-05
-2.63515e-05
6.07257e-05
-0.000774986
-0.000402101
0.000167987
0.000191115
-0.000508124
2.2476e-05
0.000541081
0.000678725
0.000467669
0.00050182
-0.000141489
0.000149861
-0.000320953
-0.000901516
0.00103932
0.000109731
-0.000370539
0.000247258
-0.000564958
0.000216118
-0.000148854
5.50352e-05
-0.00057028
-0.000369572
-0.000303849
-0.000356081
-0.000392737
-0.000272277
-0.000368134
0.000233571
-0.000444434
-0.000376468
0.000314792
0.000268047
0.000506548
0.000239514
-0.000213308
0.000817645
0.000431981
-0.000433694
2.79191e-05
0.000484757
-0.00024406
-0.000231314
0.000269734
7.33711e-05
0.000428996
-0.00134269
-0.000945728
-0.000446085
0.000574412
0.000256765
-0.000280754
0.000127955
-6.93791e-05
0.00042939
0.00021692
-1.57545e-05
-0.000680958
0.000281091
-2.44705e-05
0.000601562
-0.000231055
-0.000514374
-2.70404e-05
0.000303152
0.000486121
7.57327e-06
-0.000992179
-0.000147891
-0.000679756
-6.09619e-05
-0.000416168
-6.59206e-05
0.000710076
-0.000167171
-6.0692e-05
-0.000265795
-0.0005703
-0.000123448
0.000312823
0.000131206
-8.24017e-05
0.000380408
-0.000143684
0.00018452
-0.000343471
0.000608328
-0.00076394
0.000254901
-0.000264543
6.33095e-05
0.000668378
-0.00028816
0.000224168
-0.000208005
0.000361497
0.000166969
-8.29132e-05
-0.000300215
0.000587382
0.00050831
0.000184032
0.000347266
-0.000827721
0.000507378
0.000121029
-0.00042178
0.0002401
0.000595807
0.000630337
0.000573356
-0.000506271
-0.00097703
-0.00021491
0.000216035
-0.000195812
-1.68519e-05
-0.000331962
-9.06471e-05
0.000165683
0.000236853
-0.000820623
-7.00701e-05
0.000314998
-0.000696599
0.000323737
0.000459066
-0.000102202
0.000152397
0.000984059
0.000107925
0.000340904
-0.000633794
0.000565384
0.00101359
0.00099236
-5.34262e-05
0.00107663
-0.0005678
-0.000359077
-0.000607487
-0.000339095
-0.00134822
0.00102137
0.000924431
-0.000782076
-0.000574989
-0.000401327
0.000500631
0.000418484
0.000276571
0.000453212
-0.000103205
-0.000781485
5.40457e-06
0.000162553
-0.000775117
-0.000647948
-0.000605037
-5.80065e-05
-0.000480073
-0.00033577
-0.000246811
-0.000173691
-0.000197075
-0.00018667
-0.000319316
0.000253337
-0.000127545
0.000118284
9.50074e-07
-5.94831e-05
-0.00041099
9.90253e-05
-0.000938929
-0.000337209
-0.00070849
-2.88951e-06
0.00065951
-0.00014592
-0.000253136
0.000262148
0.000508032
-1.82622e-05
-0.000637072
-0.000642016
0.000693721
0.000236938
-7.54292e-05
-0.000865124
0.000111506
-0.000478276
-0.000605865
-0.000443009
-7.219e-06
5.62369e-05
0.000236933
0.00053789
0.000615736
0.000461039
-0.000300331
-0.000127703
0.000373309
0.000111229
-0.000216257
0.000215302
-0.000414251
0.000378475
-0.000164699
-0.000263409
-0.000432562
-0.000338357
0.000105561
3.37828e-05
7.60879e-05
0.000384339
-0.000129449
-0.000243403
0.000178321
0.000680966
-0.000189232
0.000741752
-0.000617799
0.000635952
0.000397322
-0.000392325
0.000448619
-0.000413425
0.000494561
0.00032351
-8.97878e-05
-0.000551949
-0.000305206
-1.41678e-05
1
-0.00037268
-7.92538e-05
-0.000289471
-0.000131857
0.000154592
-9.21852e-05
0.000439418
0.000194151
-0.000843696
-0.000438707
-7.02121e-05
-0.00137493
-0.000178478
-0.000371232
-0.00044593
-0.000695498
0.000244662
0.000610232
-1
-4.31927e-06
-3.00637e-05
-0.00038974
0.000477761
-0.000550171
-0.000815233
-0.000476803
-0.00023196
0.000199864
0.000373884
-0.000113827
0.000681593
-0.000148595
0.000552392
-0.000370832
-0.000635235
-0.000167969
0.000461749
0.000794995
-2.537e-07
0.000902575
0.000343893
0.000527289
0.000789253
0.000154761
-0.000138722
0.000365502
0.000509873
7.14537e-05
-0.000733055
2.00062e-05
8.11562e-05
0.000653317
5.68372e-05
-6.67339e-05
0.000491959
-0.000109066
-0.000331144
-0.000546272
0.000243381
0.000397613
-0.000479027
-0.000425136
-0.000680889
0.00023622
-0.000240827
0.000794402
-4.89321e-05
0.000563678
-0.000957201
-0.000447526
-0.000130301
0.000409693
-0.0002431
-0.000106955
-5.35095e-05
0.000259288
0.000215461
-8.75309e-07
0.000205839
0.000336309
-0.000603689
0.00030717
-6.21453e-05
-0.000265213
0.000633154
-0.000748388
-9.69843e-05
-0.000338259
0.000336004
0.000421883
0.000348457
0.000315076
0.000195477
-3.52307e-05
0.000401274
0.000135974
0.000499182
0.000600036
0.000124852
0.00023748
0.000176349
8.5247e-05
-0.000317526
0.000179123
-2.33016e-05
-0.000885591
0.000204199
-0.000845445
-1.31449e-05
0.000318531
-0.000307512
0.000171898
-0.000715259
-0.000438378
9.8303e-06
0.000184003
0.000117867
0.000635994
-0.000171092
3.82379e-05
-0.000603116
-0.00049407
3.21216e-05
-0.000234221
5.49662e-05
0.000200648
0.00015119
0.000878481
-0.000374932
-0.00059717
-0.000164057
-0.000522963
0.000283846
-0.000504411
-0.000202005
-0.000574995
-0.00084752
-0.000864031
0.000117497
-0.00056972
-0.000406624
-0.000245162
0.000614671
-0.00049716
-0.000729935
0.000574136
0.000409707
-0.000654256
0.00017879
-0.000319844
-0.000244398
-4.16181e-05
-0.000124705
0.000120734
0.000290978
0.000412013
0.000262044
-0.000338743
0.000420242
-3.00331e-05
0.000315831
0.000475024
-0.000319533
0.000102899
0.000708165
-9.4236e-05
-0.000364391
-0.000436767
5.67627e-05
0.000636755
0.000791922
-0.000465117
8.45316e-05
-0.000490754
0.000329619
5.36022e-05
-0.00023165
0.000377971
0.000211642
0.000354357
5.62502e-05
0.000183664
0.00032478
0.000140321
-0.000525859
-0.000176495
0.000139185
-0.000105312
-0.000155078
0.000204216
-2.64819e-05
0.000640435
0.00016337
0.000199539
0.00034008
0.000354135
-0.000104264
-0.000340339
-0.000603926
0.00019707
-0.000553242
0.000369476
-0.000464758
0.000273304
-6.58788e-05
8.69465e-05
0.000307695
-0.000279642
5.41889e-05
0.000252167
-0.000131175
0.000162626
-0.000529196
0.000450236
-8.97481e-05
0.000107949
0.000371164
-0.000671811
3.24626e-05
-0.00105488
-0.00080664
0.000121248
-0.000424395
-0.000108672
0.000770701
-0.000269308
0.000368781
-0.000489694
0.000269945
0.000709054
0.000385824
0.000872928
0.000546597
-7.6811e-05
0.000922901
-0.000307451
-0.000233215
-0.00040148
0.000637908
9.32947e-05
-0.00049338
0.00021271
-5.05183e-05
0.00016381
-0.000261876
0.000100654
-0.000376856
0.000170489
-0.000513862
0.000133792
0.00060248
-0.000445647
0.00078547
-0.000158995
0.000567877
-0.000356327
-0.000209598
0.000149784
0.00023085
-0.000492103
0.000611031
-0.000275574
-0.000176529
-0.000248512
-0.00083607
-0.000260865
3.28622e-05
0.00039807
0.000705004
5.11819e-06
3.16345e-05
6.83204e-06
-6.66414e-05
-0.000246006
-2.958e-05
-0.000330317
-0.000199241
-0.000423542
0.000570098
4.88743e-05
0.000618263
-6.70567e-06
-8.59092e-05
-0.000770344
-1
0.000938552
-0.000197462
-0.000129312
0.000432344
-0.000315713
-0.00010847
0.000346305
-5.56803e-05
0.000414599
0.000640483
0.000183424
-0.00059579
0.00105553
0.000302753
-4.80492e-05
-0.000204246
0.000115265
-8.56941e-06
0.000132917
-0.00046696
-0.000712765
6.06015e-05
-0.000223242
-0.00019491
9.18464e-05
-0.000635463
-0.000269747
0.000688563
-0.000761923
0.000524366
-1
0.000278028
0.000462527
0.00013823
9.2134e-05
-0.000146732
-0.000505635
0.000259292
-0.000124262
-0.000287864
0.00124266
0.00101815
-0.000962298
0.000354585
-0.000194723
5.83266e-05
-5.63147e-05
0.000231608
-0.000513618
-0.000644104
-0.000431454
-0.000485767
-1
0.00020191
-3.04362e-05
0.000693056
0.00048752
0.000104283
0.000580915
0.000153822
0.000335691
-0.00140998
-0.00054147
-0.000808926
0.000229522
-0.00105729
0.000635108
-0.000816584
8.70821e-05
4.96533e-05
-0.000236183
0.000797651
0.000934681
0.000875404
0.000786706
-0.000405362
-0.000806924
0.000418886
-3.15261e-05
-0.000608127
0.000251153
-0.000137888
0.000314059
0.000101851
0.00060186
0.000181811
5.08394e-05
-0.000452743
-0.000511066
4.65896e-05
3.67609e-05
-0.000403707
0.000327207
8.90243e-05
-0.000557594
9.92894e-05
0.000234444
0.000153185
-0.000186527
0.000471562
0.00026166
-0.000133353
6.85996e-05
0.00026484
-4.56173e-05
-0.000938105
0.000222752
0.000727802
-1
0.000285548
-0.00094272
0.000273893
-0.000838378
-0.000854231
-0.000902556
0.000338766
4.4197e-05
-0.000317221
0.000153896
-8.9821e-06
-0.000224112
3.50644e-05
0.000148529
-0.000157707
-0.000138317
-0.000589884
-0.000686362
2.60401e-05
0.000121509
-0.000191655
-3.71329e-05
-0.00016754
-7.69821e-05
0.000623284
0.000124891
-0.000780051
0.000465732
5.55188e-05
0.000268018
0.000508116
0.000464403
7.58847e-05
-9.39203e-05
-0.000222892
0.00040032
0.000338874
0.000439056
0.000269208
-8.59026e-05
0.000689078
0.000190376
-0.0008155
0.00110586
-0.000363626
0.000233934
-0.000167816
-0.000158107
0.000297561
4.87301e-05
0.000552272
-5.27883e-05
0.000179929
-0.00055973
-0.000471427
0.000105419
-0.000116467
-8.36286e-05
-9.71445e-05
-1.69287e-05
6.1464e-05
-0.000186747
-1
0.000237513
-0.000150856
-0.000471704
-0.000139699
-0.00028462
-1
-0.000667782
-0.000264262
-0.000480049
-0.000449141
0.000229246
0.0007434
0.000256847
-0.000296408
0.00018145
0.000542669
-6.15955e-05
-0.000170515
0.000213913
0.000473773
0.000317078
0.000523848
-2.41711e-05
-0.000606648
0.000212319
-0.000379091
-0.000569186
0.000371303
0.000427201
0.000140736
-0.000659295
0.000211627
0.000223505
0.000196645
0.000124943
-7.31582e-05
-0.000739184
0.000829092
4.33843e-05
-0.000535945
-0.00098957
-0.000154043
-0.000678381
-0.000298549
0.000268214
0.000366002
0.000417591
0.000277809
-8.02478e-06
0.000190027
-0.000241392
0.000286723
7.40913e-05
-0.00026033
0.000215869
-0.000712612
0.000830252
0.000119582
-5.91989e-05
0.000448823
-0.000350168
0.000525817
0.000488502
-0.00026421
0.000324309
0.000131006
0.000575203
0.00018427
-0.000144372
-0.000400217
-0.000443325
-0.000262497
-0.000237486
0.000504216
-0.000853095
-5.77903e-05
-4.90012e-08
-6.81408e-05
0.000561429
-1.87216e-05
0.00018815
-0.00011698
-0.000188649
0.000963666
-0.000237611
2.4162e-05
0.000639981
0.000240628
0.000113749
0.000286234
-0.0014046
0.000372609
-0.000638349
-1.52454e-05
-0.00054429
0.000115886
4.14541e-05
-0.000873724
0.000474193
0.000102142
-0.000682451
-0.000156855
-7.04976e-05
-0.000117261
0.000311113
0.000398165
0.000257994
-0.000246563
-0.00070212
6.05296e-05
-0.000370226
-0.000104871
0.000610775
8.06889e-05
0.00052458
0.000195922
-1
6.21319e-05
-0.00048436
0.000196692
0.000691294
-0.000424758
0.000211104
7.2145e-05
-0.000199885
0.000112995
-0.000711216
-0.000616204
-0.000432369
-0.000306893
-0.000534276
6.82585e-05
0.00010765
0.000870715
-0.000190139
3.3333e-05
0.000325322
-5.13774e-05
0.000615699
-0.000571009
-0.00032825
0.000844588
0.000420983
0.000872799
0.000187713
0.000401026
0.000165557
-0.000352034
2.69054e-05
0.000917712
0.000306836
0.000104394
-0.000426645
-0.0001529
-0.00057525
-0.000212597
0.000107558
0.000203564
-0.00125644
0.000456806
0.000304155
0.000294543
-0.000112341
0.00036313
-0.000588749
0.000341736
3.26212e-05
1
-0.000354251
-0.00035619
0.000283681
0.000683266
-0.000400602
-0.000154514
-0.000260279
-0.000175339
0.000309491
-0.000900655
0.000373046
-8.80742e-07
9.35306e-05
0.000569338
0.000414751
-0.000893102
-0.000468263
-0.000220721
0.000640179
0.000188106
7.76594e-05
-0.00018481
-0.00031425
-0.000583708
0.000496763
2.29901e-05
0.000557854
0.000663113
-0.0003629
0.000292098
0.000208613
0.000261446
-0.000184119
0.00125696
-0.000326435
-0.00047864
0.000395872
-0.00112532
0.000798952
-0.000719435
0.000584385
0.000105963
-0.00235061
-1
2.58757e-05
0.0032822
-0.00591181
0.000160254
-0.000738038
0.000361754
-0.000596099
0.000412814
0.000179558
-7.66495e-05
-0.000292696
-8.16812e-05
-0.00666446
-0.000160949
-2.05536e-05
-0.000493318
0.000702642
-0.00164508
0.000596251
0.00061266
-0.00192254
0.000361898
0.000645715
0.00950069
-0.0016398
0.000330713
-0.000397536
0.000152634
-0.000102599
-0.00265782
-0.000397537
-0.00502518
-0.000569468
-0.0025563
0.000167181
-0.000653768
-0.000262797
-0.000300177
0.000309854
0.000373209
-0.000321233
-0.000142479
0.00462861
9.0129e-05
-0.00127252
-0.00291477
-0.000205183
0.000611977
0.000709863
0.00028719
-0.000339167
-0.000690238
-0.000823354
-0.0031902
0.000700939
-4.79517e-05
-0.000275825
-7.23713e-05
0.000667672
0.000536196
0.00274218
0.000286139
0.00547289
9.12436e-05
-0.000380358
-0.000457652
0.000187317
-0.000255805
0.000430907
0.000212652
0.000814415
0.000153408
-0.000600701
-0.000198521
-0.00013437
0.00056313
-0.00026789
-0.000372814
0.000761845
-0.00016662
-0.000138897
-0.00150323
0.000590826
0.00124948
0.000168537
0.000722413
0.0002995
0.000422738
-0.000175045
-0.000297865
-0.000190043
-0.000324476
-0.000244404
-0.000291406
0.00464247
0.000216714
9.78544e-05
0.00190775
-0.00845153
9.94689e-05
0.000888156
0.00420158
0.000159801
-0.000833413
-0.0040516
-0.000168827
0.000415188
0.00385646
0.000760818
-0.00536213
-0.00054288
-0.00297847
0.000271063
-0.00325009
0.000682813
0.00281307
0.000870859
0.000417457
4.49668e-05
-6.7263e-05
0.00033732
0.00256163
0.000123421
-0.000173539
-1
0.000930943
-0.00187195
-0.00234661
-0.000220573
-3.97835e-05
-0.000331409
0.000241616
0.00117795
0.000132411
-0.000546182
0.000578023
0.000669592
-0.000234568
0.00228585
6.5702e-05
-5.8968e-05
-6.18623e-05
0.00189464
-0.000148079
-0.000553707
0.00208371
-0.00012548
-0.000496208
0.000601755
0.000560279
-7.72579e-05
0.000318797
0.00043573
0.000427417
-0.00132184
-0.000280837
0.000308005
-0.000569337
-0.000365917
-3.20557e-05
-0.000613696
-0.00128099
-0.000606059
-0.00252897
-0.000826425
0.00145001
-0.00426725
0.000980185
0.000530668
0.000400292
-0.000446054
0.00025029
0.000578559
-0.000320177
0.00046379
-0.000533758
-0.00077127
0.00426511
6.19531e-05
-0.000345448
-0.000593761
-0.00272763
0.000969699
-0.000487502
-9.10266e-05
-0.000393759
0.000272175
0.0011344
-0.00165573
0.00271686
-0.000172485
-0.000601862
4.23946e-05
-0.00222525
0.000198748
-0.00218302
0.00067276
0.00172369
-0.0053325
-0.00016434
6.24178e-05
0.00669739
-0.0119224
0.000902329
-0.000389441
0.000169713
-0.000432233
0.00139358
0.00206631
0.00017039
0.000269529
0.0014812
-0.013613
-0.000838815
-0.000631089
-0.000696912
-0.000152644
-0.00213333
0.000558739
-0.000852472
-0.00266163
-0.00074403
0.000373183
0.0182567
-0.0030067
-0.000227521
7.87362e-05
0.00114094
0.000208118
-0.00406951
-0.000520688
-0.00881361
0.000115427
-0.00444289
0.000300878
-9.18193e-05
-0.000432814
7.20349e-05
-0.000195295
0.000152719
0.000196435
-0.000858225
0.00899163
0.000566857
-0.00195703
-0.00676605
-0.000264743
0.0002234
0.00241252
-0.000493624
-0.000333476
-0.000489006
-0.000145483
-0.00646045
0.00183623
-4.11728e-05
-7.43236e-05
-0.000591938
0.00181797
-0.000184378
0.00380344
0.00121138
0.0104254
-0.000540968
-2.00471e-05
0.000190834
0.000689442
-0.000162561
0.00169239
0.000470803
0.00179896
3.23111e-05
0.00103254
-0.000166537
5.03406e-05
0.000118376
-4.77649e-05
0.000682605
0.00090749
9.32279e-05
0.00017369
-0.0033377
-0.000787364
0.000317837
-0.000137694
0.000191239
-0.000972129
-0.000593701
-9.62476e-05
-9.34311e-05
0.000602205
0.000143125
-0.000265064
-4.32696e-05
0.00933262
0.000118536
-1.52401e-05
0.00360243
-0.0156617
0.00023414
0.0009651
0.00776897
-0.000393974
0.000248751
-0.00795466
0.000604519
-0.000705978
0.00541457
0.00163979
-0.00879198
0.000283864
-0.00422099
0.000195529
-0.00594772
0.000276582
0.00543662
-0.000823521
0.000901371
-0.000871741
-0.000485381
0.00124971
0.00492985
-0.000393692
3.21782e-05
-0.000435262
0.00326971
-0.00331475
-0.00368335
-0.00133684
-0.00020398
0.000175697
-0.000381741
-0.000647252
3.25952e-05
0.000530369
-0.000963293
-6.81139e-05
0.000240488
0.0050352
-0.000342416
0.000846519
-0.00159609
0.00239615
-0.000166933
0.0012365
0.00295791
0.000161274
-0.000863267
0.0024284
-0.000731695
-0.000610899
9.99459e-05
0.00037023
0.00044542
-0.00242797
-0.00109234
0.00116782
0.000460345
0.000636779
0.000147555
-0.000182639
-0.0025396
-0.000667029
-0.00427472
-0.0025881
0.0028173
-0.00839587
0.00343008
-8.61785e-05
0.000613576
-6.8581e-05
0.00028085
-0.000359684
0.000415864
0.000396199
-0.000208173
0.000319771
0.00699358
0.000373845
0.000544
0.000816185
-0.00585813
0.000703921
-0.000208718
0.000104991
-0.000803278
-0.000332122
0.000407561
-0.00372147
0.00425749
-0.000146603
-0.000694222
-6.81422e-05
-0.00223597
0.000957918
-0.00331035
0.00234078
0.0012425
-0.00445888
6.8484e-05
-0.000810786
0.0059204
-0.00888451
0.000610816
-0.000610924
0.000112395
-0.00137209
0.000277629
0.00155142
0.000436742
0.00162331
0.000933907
-0.0110826
-0.000946471
-0.000766499
-7.00311e-05
0.000565072
-0.00241355
0.000984367
-0.00307788
-0.00175251
-0.000708667
-0.000345227
0.0178821
-0.00416127
-0.000380216
-0.000165147
0.000132835
-0.000525849
-0.00316443
-0.000535725
-0.0075456
-0.00103878
-0.00385983
3.61715e-06
-0.00105602
-0.000223054
-0.000214387
0.000325277
-0.000799255
-0.000157018
-0.000704563
0.00573816
-0.000110994
-0.00142923
-0.00545059
-0.000741268
0.00040114
0.00362459
0.000178218
-0.00121091
7.28732e-05
-0.00102996
-0.00486276
0.00144914
0.000159492
-0.000249467
-0.000609771
0.00258836
-0.000422018
0.00373232
0.00116675
0.010961
-0.000306523
-0.0004965
0.00118001
0.000205253
-0.00147887
0.00187009
-0.000731315
0.00267404
-0.00128183
0.000179057
0.000587242
-0.000309501
-0.000918026
-0.00123298
-0.000162199
0.00210235
-0.00169052
0.000257125
-0.0017916
-0.000892649
0.000505882
-0.00109709
0.000711359
-0.0012143
0.000161031
-0.000395921
0.000980971
-0.000782996
0.000315982
-0.000232542
-0.000310467
0.00902618
0.000284711
0.000270124
0.00266846
-0.0133772
0.000839362
0.000452993
0.00848
-0.000672801
-0.000546798
-0.00489322
0.00026186
-0.00063891
0.00461104
0.00139148
-0.00865006
-0.000117216
-0.00576386
-0.000259865
-0.00473136
-0.00105291
0.00626067
-5.3107e-05
0.00146391
-0.000180315
0.000274397
0.000113931
0.00568001
0.000139324
-0.000671432
-0.00014626
0.00185173
-0.00298729
-0.00392965
-0.00141146
-0.000403536
0.000256506
8.4668e-05
-0.000814604
0.000608833
-7.18399e-05
-0.000291008
-0.00120814
0.000989471
0.00310425
-0.000750094
-0.000128513
-0.00277192
0.00253202
0.000201699
0.000368171
0.00359249
0.00105158
-0.000616181
0.00241587
9.89469e-06
0.00107267
0.00113231
-8.29126e-05
-0.000368384
-0.00224435
-0.00136755
0.0016991
-0.000141532
0.000190377
-4.11329e-05
-0.00062889
-0.00304728
-0.00156345
-0.00169426
-0.00189069
0.00388771
-0.0059707
0.00426102
-6.39704e-05
-0.000430497
-9.94583e-05
-0.000960354
-0.001406
-0.000164559
-0.000415667
-0.000474541
-0.000646528
0.00689799
0.00099056
-0.000475276
-2.10381e-05
-0.0044894
-0.00112698
4.52735e-05
-0.00120489
0.00106043
-0.000812565
0.000118041
-0.00292603
0.00111256
2.44799e-05
-0.000258158
3.24402e-06
-0.00134459
-0.000152465
-0.00187203
0.000792938
0.00153506
-0.00110926
-0.000292382
-0.000713745
0.00228133
-0.00357788
0.000277527
-0.000478743
0.000580935
-0.00113609
0.000665718
0.000438057
0.000193061
0.000567705
0.000642451
-0.00393422
-0.000683537
-0.000623258
-0.000719518
0.000901645
-0.00187016
0.000412104
-0.000194003
-0.000655288
-0.000712052
0.000438437
0.00694576
-0.00146416
-0.00037574
-0.00149236
0.000155504
-0.000221937
-0.000980904
-0.000633047
-0.0033456
-0.000162409
-0.00185465
0.000602907
-0.00101311
-0.000107805
-0.000191521
-0.000264813
-0.000544731
0.000307504
-0.000485493
0.00198087
-0.000995221
-0.000257911
-0.00242215
0.0003618
0.000672645
0.00343533
-0.000136421
-0.000393331
-1.11997e-05
0.00117156
-0.00195509
0.00139256
-0.000371713
-0.000904118
0.000611317
0.000671435
-0.00107029
0.00250836
-4.7863e-05
0.00449013
-0.000704106
-0.00053506
0.000340237
0.000201977
-0.000664807
0.000867282
-0.000467206
0.00128927
-0.00137434
-0.000245569
0.000232155
0.000269312
-0.000657247
-0.00106251
-0.000273922
0.00151226
0.000108311
1
-0.00058945
0.000849746
2.85355e-06
0.000304363
0.00080181
-0.000760554
-0.000336474
-0.000693921
-0.00044532
-0.00102962
-0.000377617
-0.00113868
2.72925e-05
0.00412913
-0.000206606
-0.000598459
0.00113597
-0.00486834
-0.000238208
0.000265042
0.0032993
-1.75183e-05
-0.000994769
-0.00240651
-0.000580895
-0.000381309
0.00361197
0.00094523
-0.00255966
0.000781966
-0.00256708
0.000119954
-0.00205439
-0.00022746
0.00297027
-0.000992853
0.000510661
-0.00020365
0.000607154
-0.000239134
0.00315811
-0.000333672
-5.97642e-06
0.000245702
0.000218047
-0.00170532
-0.00171213
-0.00117692
-0.000245464
-0.0012211
0.000508403
-0.00048398
0.000802484
-0.000486456
0.00052452
-0.000381944
0.000377551
0.0004254
-0.00120318
-0.000786372
-0.000362683
0.00113949
-0.000936973
-0.000296625
0.00152802
0.0010776
-0.00104928
0.00109583
-9.73598e-05
0.000954317
0.00121298
-0.00010124
-0.000427885
-0.000862188
0.000118832
0.00112939
0.000768099
0.00124045
-0.000521347
-0.000704915
-0.00210458
-0.00151975
-0.00125965
-0.000447952
0.00285832
-0.0028923
0.00296848
-0.000435845
0.000624954
-0.000519845
-0.00149978
-0.000706175
-0.000203725
-0.000369006
-0.000610018
-0.000115415
0.00316952
0.000600938
0.000340978
-0.000168161
-0.000851194
-0.000525984
0.000385081
-0.000469933
0.00116595
-0.000189268
-0.000281874
-0.00163839
0.00268656
0.000319501
-0.000536421
-0.000820761
-0.0010091
-0.000413364
-0.000801826
0.0010327
0.00239598
-0.00148145
0.0003993
-0.000459677
0.00283426
-0.000425898
0.000722375
-0.0011473
0.000314098
-0.00135725
0.00165972
-0.00018522
0.000249528
-0.000407594
0.000688
-0.00168391
3.42441e-05
-0.000275517
-0.000344247
0.00153889
-0.00165403
0.00129312
-0.00272423
-0.0014667
0.000272975
0.0001655
0.00387929
-0.00247767
-0.000284276
-0.00101416
0.000383154
-0.000825887
-0.00155835
-0.000357186
-0.00162915
-0.000506982
-0.000856372
0.000759925
-0.000525393
-0.00124695
-0.00104476
0.000231902
-0.000169847
0.00109087
-0.00118949
0.00179919
-0.00120406
-0.000626847
-0.00231561
4.76894e-05
0.000468511
0.00349214
-0.000645128
-0.000963311
-0.000561222
0.00325217
-0.00189788
0.0017322
-0.00118184
-0.00167172
-0.00122273
0.00108812
-0.00186412
0.00195938
-0.000764797
0.00408567
-0.00113021
-0.00149448
-0.00038414
-0.000195641
-0.000215895
0.00204363
0.000207213
0.00154854
-1
0.000629948
0.000317175
-0.000804989
-0.000408463
-0.000750234
-0.00146795
0.00183373
-0.000517343
0.000197494
-0.000692121
0.000461107
-0.000689134
0.00101633
0.000574852
-0.000772756
0.000900706
-0.000506594
0.000390739
-0.000328818
-0.000347687
-0.000295174
-0.00094327
0.00279875
-4.84431e-05
-0.00109146
0.000582564
-0.00188326
-0.00039477
-0.000217916
0.00325328
-0.00126653
-0.000717474
-0.00160892
0.000447757
-0.00132451
0.00246995
0.000709887
-0.00151426
0.000205104
-0.00219339
0.000294612
-0.00193043
0.000519739
0.00292054
-0.000475425
-9.71002e-06
-0.00117428
0.00220346
-0.00050282
0.00318136
-0.000983379
-0.000386026
0.000812443
0.00161545
-0.00109497
-0.000805654
-0.001726
-0.000552332
-0.000138871
-0.000239553
-0.00130778
0.00015312
-0.000260387
-0.000632985
-0.000333084
0.000701166
0.00214279
-8.58085e-05
-0.000624704
-0.00227709
0.0014008
-0.000968754
-0.00115349
0.0025162
0.00182994
-0.000233942
0.00199446
-0.000904243
0.000688305
0.00312323
-0.000299712
3.5869e-05
-0.00110171
-0.000699468
0.000978
-0.0010962
0.0024598
-0.00175971
-0.00241797
-0.00127594
-0.0015075
-0.00108365
-0.000764562
0.00289083
-0.00211477
0.00425771
0.000326949
0.000196842
0.000181644
4.00225e-05
-0.00198584
-0.0012833
-0.000451284
-0.00115497
-0.000520616
0.00200939
0.00168022
-0.00109226
0.000456112
-0.00117263
-0.0004607
0.00213339
-0.000721814
0.00143304
-0.000827829
-0.000363832
-0.00169871
0.00634042
-0.00126395
-0.000572617
-0.00273132
-0.00134855
0.000904331
-0.000889872
0.00154793
0.00200728
-0.00284847
0.00218051
-0.00148899
0.00446077
-0.00124729
0.000442368
-0.000409794
-0.000407775
-0.0024813
0.00498189
0.00036738
-0.000421056
-0.00196613
0.00178187
-0.000820373
8.13954e-05
-0.00089286
-0.000290559
0.00215909
-0.00105233
0.00161572
-0.0083925
-0.00130909
0.00062997
-0.000827958
0.0069949
-0.0111873
-0.00109258
-0.00160767
8.28514e-05
-0.00135218
-0.00323932
-0.000745888
-0.00332306
-0.00297085
-0.00172127
0.000702745
-0.00101335
-0.000516795
0.00024545
0.000131044
-0.000826472
-0.000400191
-0.00105703
0.00434002
-0.000897539
-0.000899877
-0.00271933
-0.00128381
-0.000204378
0.00428059
-0.00460963
-0.000762999
-0.00322931
0.0033213
-0.00200232
0.00210276
-0.000539199
-0.00130322
-0.00547236
0.000654286
-0.00694956
0.005347
-0.00199005
0.0077895
-0.000658342
-0.00124575
-0.000482352
-0.00102139
-0.000477445
0.00304546
-0.00124971
0.00194962
-0.00256614
0.00155928
0.00113853
-0.00316883
-0.000142577
0.000209705
-0.0028946
0.003416
0.00038013
-0.000117153
-0.00190147
-0.000117577
-0.000474096
0.000761851
0.00145405
0.000465762
0.000566889
-0.00101575
8.25563e-06
-7.44892e-05
3.57929e-05
-0.00051904
0.000156847
0.00564371
-0.000850098
0.000647427
0.00175108
-0.00129489
-0.00126011
-0.000672197
0.00787539
-0.0051393
-0.00090172
-0.000992718
0.000768353
-0.00151627
0.00365649
0.00208682
-0.00242452
-0.00069944
-0.00314486
-0.00216489
-0.00321655
-0.000738723
0.00478615
-0.00335232
-0.000338465
-0.00318653
0.00358522
-0.000205029
0.00430509
-0.00634891
-0.00147021
0.000317275
0.00426777
-0.00280167
-0.00224337
-0.00221762
-0.000397084
-0.000622409
0.000140201
-0.00528325
0.000337192
-0.00180487
-0.000465187
-0.000888504
0.000241568
0.00368413
6.03707e-06
-0.0015742
-0.00751036
0.00279809
-0.00109426
-0.00271216
0.00472372
0.00181485
-0.000292969
0.00349384
-0.000659446
0.000294706
0.00436289
-0.00074625
-0.000784066
-0.00298482
-0.00254801
0.00209539
-0.00105101
0.00175692
-0.00320546
-0.00892729
-0.00180051
-0.00189404
-0.0022971
7.26753e-05
0.0049651
-0.00319437
0.00416102
-0.000432238
-0.000294475
-0.000488575
0.000275722
-0.00403458
-0.00284159
-0.000534203
0.00036544
-0.000289261
0.00360768
0.00314598
0.000683716
-0.000209287
-0.000921091
-0.00181328
0.00185981
-0.00341807
0.00176031
-0.000978255
-0.00061339
-0.00228875
0.00537953
-0.00133572
-0.001278
-0.000333119
-0.00447708
0.00261324
-0.00239996
0.00169264
0.00373052
-0.00449658
0.00171133
-0.000531984
0.00515027
-0.00643352
9.38734e-05
-0.00072628
0.000602691
-0.00150374
0.000953874
0.000149476
0.000555594
-1
0.00117281
-0.00748223
-0.0002287
-0.000853862
-0.00101452
0.00162926
-0.00341393
0.0012653
-0.00242237
-0.00408645
-0.000788035
-0.00033934
0.0136349
-0.00453989
-0.000554839
-0.000111411
-0.000125001
-0.000580579
-0.00574189
-0.000514348
-0.00710689
-0.000884492
-0.00333912
0.00119709
-0.000464113
-0.00120461
-0.00140485
-0.000331464
-0.000252705
0.000236
-0.00261592
0.00548693
-0.000944791
-0.00140486
-0.00575654
-0.000298024
-0.000109451
0.00667089
-0.00198676
-0.000688957
0.000241366
0.000731451
-0.00480687
0.00423756
-0.000831108
-0.00171819
-0.00148218
0.00306907
-0.00154016
0.00404931
0.000532474
0.0103255
-0.00140229
-0.00124713
0.000100677
-0.0001758
-0.000474577
0.00189675
-0.000452136
0.00261913
-0.000732978
0.00168454
0.00199641
-0.00193481
-3.30559e-05
-0.0010877
-0.0029146
0.00494188
-0.000354973
0.00091901
-0.00314141
0.000610612
-0.00083851
-0.00028316
0.00296689
-0.00221292
0.000231607
-0.000483274
-0.000214726
-0.00022008
0.000727655
-0.00116114
-0.000916171
0.0076712
-0.000500284
0.00134708
0.0036645
-0.00897079
0.00133152
0.00091759
0.00656118
-0.000448087
-0.00160385
-0.0061774
0.000847696
-0.000910678
0.004627
0.00291726
-0.00471394
-0.000893319
-0.00604765
-0.000469602
-0.0057881
-0.00148609
0.00621974
-0.000198473
0.00154934
-0.000448157
0.0010921
0.000702051
0.00825408
-0.00239262
-0.000977827
-0.000404554
0.00398678
-0.00527199
-0.00344969
-0.000650457
0.000149361
-0.000815565
0.000859734
-0.00318956
0.000614636
-0.000664779
0.000809188
-0.000712038
0.00107508
0.00206266
-0.0005131
-0.000871526
-0.00172552
0.0033136
-0.00107952
-4.99881e-05
0.00571515
0.00101553
-0.000752579
0.00485408
0.000282113
-5.67141e-05
0.00246387
-0.000210161
-0.000457235
-0.00429787
-0.000727882
0.00222852
-0.000161541
0.00318811
-0.00148628
-0.00314619
-0.00360043
-0.00469193
-0.00410441
-0.00202407
0.00709426
-0.0063417
