0.317909
-0.711745
-0.107505
0.321022
-0.536555
-0.908009
0.517221
-1.25576
0.29676
0.246315
0.167689
-0.325561
-0.0339913
0.200813
-0.391391
0.579047
0.266939
-0.425578
-0.0639088
0.0263649
-0.247559
0.233766
-0.0967608
0.105604
-0.279647
0.0358114
-0.184822
0.0387279
0.236506
0.235163
-0.337668
0.3101
-0.283569
0.169321
-0.222608
0.210503
-0.17673
-0.0391174
0.181282
0.198347
0.871557
-0.744898
0.255908
0.163787
0.604152
0.235113
0.388622
0.421705
-0.242837
0.0330178
0.143814
-0.142765
0.0936554
0.00708957
0.222287
-0.0120519
-0.0822533
0.143212
-0.275474
0.185479
-0.264068
0.148516
-0.350812
0.0677488
0.091852
0.101012
-0.303543
0.176769
0.172448
0.158122
-0.633073
-0.0972031
-0.679988
0.185296
0.43967
0.27828
0.915784
0.434524
0.53608
0.447009
0.530978
0.628065
0.488659
0.86526
0.516364
0.856902
0.53617
-0.104204
0.364753
0.216865
-0.675239
0.187277
-0.423446
-0.0820247
0.658387
-0.440459
-0.151834
-0.0639609
-0.136381
0.239066
0.558414
-0.416864
0.143666
-0.398102
0.170521
0.0793928
0.614215
-0.655936
0.542237
-0.139753
-0.406148
0.300725
-0.313186
-0.329438
0.110871
0.394155
-0.168097
0.176104
0.318944
-0.0738463
0.207355
0.0255232
0.516745
0.818108
-0.0811385
-0.00379614
0.40786
8.27836e-05
-0.312838
-0.507953
-0.421588
0.301865
-0.516636
0.223645
0.0155204
-0.477133
-0.209699
-0.0355309
-0.057519
0.260156
0.494402
-0.492699
0.0240606
0.451935
-0.71768
-0.518758
-0.343207
0.532034
-0.793434
0.333282
-0.39788
0.440497
0.788269
0.512385
0.134303
-0.24635
-0.414541
0.346256
0.0864351
-0.982525
-0.181754
-0.0422449
0.128691
-0.339614
-0.36552
-0.499607
0.655251
-0.332311
0.123024
-0.239075
-0.187647
0.198888
0.510987
0.197813
-0.0423917
-0.0656299
0.136911
0.0969654
-0.229884
-0.34075
1
-0.875062
0.25396
-0.549703
0.265756
-0.155657
1
-1.50393
1
-0.073
0.967946
-0.765751
0.297435
0.274896
-0.586801
0.101926
0.489788
0.424389
-0.327838
0.103415
0.371194
0.31112
0.907271
0.079663
0.14765
-0.014167
0.107123
0.24535
-0.408131
-0.51862
0.334163
0.278014
-0.289985
0.228363
-0.271713
-0.0875196
-0.214009
-0.0800001
0.341319
0.252812
0.696943
-0.441637
-0.36695
0.115679
0.999665
0.0136081
-0.763209
0.535948
0.0986342
0.535474
-0.0775884
0.107364
0.0109449
0.137297
-0.203489
0.121986
-0.0435779
0.226729
-0.252987
0.204919
-0.141748
0.184651
0.292429
0.00983597
-0.0356605
0.0390209
-0.0493909
0.120823
-0.17985
-0.233491
-0.404992
0.712212
0.988018
-0.143433
-0.286962
-0.322754
-0.228486
0.539484
0.396755
-1.2476
-0.188104
0.502401
0.433208
0.0795029
-0.164943
-0.470679
0.161969
0.299124
0.223239
-0.557326
-0.16418
0.596949
-0.199361
-0.619956
0.556136
-0.49092
0.236231
-0.124812
0.0232443
0.191271
-0.495626
0.32727
0.321132
0.35958
0.519435
-0.3653
-0.395056
-0.0317226
0.417749
0.377055
0.630372
-0.179558
-0.414076
-0.0257602
0.748096
-0.10093
-0.550201
0.407116
0.204185
0.336453
-0.281916
0.291462
0.681614
0.161541
-0.106128
-0.0537895
-0.152571
0.200496
-0.267582
-0.480471
-0.375817
-0.0263442
0.0713366
-0.352898
0.263807
-1.20843
1.00237
0.995363
-0.0281992
0.916596
-0.419447
0.437971
-0.439923
-0.4545
0.597475
-0.360743
-1
-0.52136
-0.225932
-0.344424
-0.662767
0.316332
-0.895293
0.315073
0.138547
-0.549149
-0.636611
0.154634
0.385754
0.336164
-0.00266757
0.205321
-0.0156493
-0.2224
-0.0309007
0.0963291
0.00134496
0.277798
-0.0471495
-0.268142
-0.414799
0.542807
0.0865579
0.576594
0.435265
0.405145
-0.419065
-0.1241
0.298667
0.296897
0.214291
-0.159318
0.274234
-0.25238
1
0.169832
-0.089466
-0.351777
-0.669197
0.552192
-0.26951
-0.727412
-0.24393
0.587548
0.796535
1
0.336527
-0.782556
-0.146703
0.202296
-0.428908
-0.337127
0.0737145
0.212653
-0.326704
-0.131339
0.25776
0.248947
-0.275092
0.105909
0.108328
-0.062951
0.0219819
0.899246
0.0306113
0.0109145
0.208485
0.00524987
-0.418743
-0.324846
-0.19957
-0.0310699
0.237149
-0.298278
1
-0.0440445
0.164608
-0.360219
-0.744386
0.238115
-0.0917134
0.163556
0.0746757
-0.175761
0.166703
-0.0239761
0.209473
0.00675019
-0.1449
-0.179473
-0.183445
0.204395
0.0787328
0.354931
-0.132458
-0.199414
-0.178021
-0.0885584
0.0621205
0.0832424
-0.129151
0.277137
0.0520277
-0.270098
-0.506227
-0.142843
-0.491897
-0.236976
-0.448711
-0.100992
-0.224226
0.29616
0.426329
0.125263
-0.0828113
-0.0399269
-0.195594
0.195374
-0.00590551
-0.502025
-0.330436
0.319372
0.116184
0.23311
-0.461308
-0.43059
-0.325002
0.0577635
0.490882
0.342239
-0.184641
-0.0144286
-0.138051
-0.0243051
0.115696
-0.13578
0.1807
0.214404
0.0428742
0.0374736
-0.0277463
-0.134252
0.255928
-0.305044
-0.111072
0.115208
-0.19332
0.654598
-0.585116
0.107653
-0.645761
0.621102
-0.635183
0.288723
-0.359897
0.434582
0.360894
-0.0646501
0.398269
0.330076
0.346738
-0.619702
-0.0505672
0.195521
-0.530165
0.816604
0.49449
-1.10207
0.252733
0.193731
