0.215217
0.0765496
-0.00776887
-0.00916062
0.0249719
0.0415788
-0.0132067
0.0543739
0.00727639
0.0970273
0.119793
-0.0157877
0.120614
0.00355081
-0.0191958
0.0451416
0.0810215
0.0505012
0.269144
0.0330987
0.101924
-0.00210625
0.117556
-0.0205211
-0.00921817
-0.0223742
-0.02941
-0.0303114
0.0509808
0.0485742
0.0580162
0.0950581
0.0667518
-0.0128285
-0.106009
0.00943281
-0.177355
0.102623
0.0109181
0.0281395
-0.184978
0.0124889
0.00189024
0.043953
-0.0075142
0.0155996
-0.0105425
0.0176149
-0.0050534
-0.200264
0.112272
0.0859384
0.0228379
0.0756295
-0.0866962
0.00613676
0.0407514
0.0800849
-0.244
-0.172828
-0.00683076
0.0712136
-0.146281
0.0898751
0.0866831
-0.237244
-0.0121581
-0.13237
-0.0374693
-0.120474
-0.162844
0.0546964
-0.00345228
0.00515213
-0.0506968
-0.275697
-0.16483
0.0443566
-0.0806647
0.0347618
-0.157343
0.0271446
-0.233903
0.0646815
0.0152031
-0.103806
-0.0202228
0.169781
-0.015631
-0.0529688
0.0249207
-0.0222119
-0.0608608
0.0290485
-0.125692
-0.0529223
0.0228732
0.0498421
-0.143723
0.0948238
-0.0453515
-0.0247312
0.0275316
0.0209219
-0.0335879
0.0291171
0.0371122
0.0872418
0.0677122
0.0407271
-0.00357133
0.0260653
0.000682105
0.0163908
-0.00287518
0.000559278
0.0154924
-0.0127987
0.00522562
-0.0248075
-0.0350149
0.0325211
0.0984286
0.0213525
-0.0168653
0.00435717
0.0232805
0.0661817
0.0466574
0.0760483
-0.0198581
0.130733
0.0130276
0.0644448
-0.0123512
0.0579837
0.0722487
-0.0447822
-0.0106606
-0.00143582
0.0508011
0.000331143
0.0175626
0.00658708
-0.00764121
0.0567302
0.0118328
0.00336684
0.0490664
-0.0405209
-0.134786
-0.00685685
-0.0238694
-0.0135571
0.0935766
0.0164357
-0.0360116
-0.0471395
0.0603504
0.0176067
-0.145262
-0.0235879
-0.164415
-0.0101846
0.096853
0.170215
-0.077026
0.11862
-0.277361
0.11042
-0.192194
-0.0392646
-0.0127541
0.00178676
0.0714813
0.145325
0.0617924
-0.0453367
0.024302
-0.0384458
-0.154196
0.0441325
-0.0690032
-0.0968319
0.0131177
0.018277
0.0580488
0.0155816
0.0706632
0.0656247
0.0414173
0.0110501
0.0214015
0.016794
0.0953161
-0.0155064
-0.00476019
0.0429448
-0.0383128
-0.119581
0.116044
0.0646889
0.0113042
0.0117572
0.10409
0.0575517
0.00953968
0.0570938
0.0592724
0.0365889
-0.00949289
-0.0366822
0.0482239
0.0226226
0.174653
-0.0619119
-0.0190604
0.00250911
0.0128728
0.122131
0.0146366
0.0163603
0.117347
0.0457532
-0.0124552
-0.132577
-0.0736374
-0.0106118
0.0483258
0.0620642
0.0021778
0.0879866
-0.0109302
0.0357846
-0.0432149
0.0402561
-0.184688
0.156515
0.0772361
0.0111412
-0.145502
-0.0116898
0.0255911
0.0343897
-0.0367561
0.0176961
0.0129791
0.0722399
0.0164768
0.0995648
-0.0574925
-0.0507099
0.0376954
-0.0107654
-0.318423
-0.0139513
-0.0300747
-0.00403209
0.0353171
-0.100635
0.0892678
-0.0711026
-0.101964
-0.0930498
0.196852
-0.0907523
-0.00992012
-0.0388623
0.19603
-0.366539
-0.108383
0.0027325
-0.00175193
-0.00468662
-0.027838
-0.111402
-0.0608852
-0.131888
0.0956338
-0.00608464
-0.0470499
0.379025
-0.296634
-0.133482
0.0290954
0.0564731
-0.139342
-0.162334
-0.16296
-0.00667129
-0.163766
-0.0805283
0.0144478
-0.155764
-0.0411821
0.091163
-0.0149257
0.0548526
-0.105292
-0.0163653
0.0154462
-0.0173921
0.00253357
-0.0121717
0.0583217
0.0120546
0.00664804
0.036268
0.0287982
-0.0149122
0.0269975
-0.00667337
0.0428659
-0.0281461
0.0240295
0.031243
0.0128637
-0.0120482
0.0594011
0.0747179
-0.0417997
0.00828925
0.0494035
0.00973166
-0.0213353
0.0307226
0.0120163
0.0271691
0.00888673
0.0267446
-0.0205538
0.102464
-0.0319586
0.0163823
-0.00458284
0.0161287
0.0526074
-0.0336801
0.0332898
0.0413024
0.0641997
-0.00466004
0.00809755
0.00622464
0.0120479
0.0199808
0.00114536
0.0175825
-0.0183162
0.00901132
0.0402252
0.0194922
-0.00941419
-0.0233926
0.0721438
-0.0479584
-0.0230667
-0.0380318
0.0203511
-0.0747909
-0.143918
0.00198073
-0.0193498
-0.0514292
-0.0748796
0.0698576
0.0805061
-0.0129949
0.255535
0.0617743
-0.00158865
-0.0118582
-0.0494899
-0.0396214
-0.0133395
0.178805
0.0869961
0.0215111
-0.00396764
-0.0348491
0.00660981
0.0284549
-0.0270724
-0.0579135
0.000491231
-0.0146604
-0.087789
-0.00427875
0.0052679
-0.0389296
-0.0634663
-0.00833052
-0.0124435
-0.0313916
0.041964
0.036018
-0.00706208
-0.104122
-0.0403508
0.0476726
0.0473376
0.0155082
0.00622021
0.00674309
0.0295034
-0.0054245
0.006955
0.0399957
0.0277382
0.0500119
0.0522438
0.000639261
0.0432258
-0.0148711
-0.0190741
0.0499986
0.0343494
-0.000771279
0.100684
0.0328039
0.0176285
0.0109155
0.060992
-0.0253697
-0.00532632
0.101268
0.0487575
-0.0117902
0.0204587
0.0342435
0.0060671
0.0483478
0.00195208
0.0139852
-0.0387922
0.0233011
-0.0026824
0.0499562
0.00969407
-0.0273342
0.0139962
0.00189872
0.0104555
-0.00758669
0.0324086
0.0136518
0.00837358
-0.0341128
0.0188648
0.0421937
0.0873051
0.0054462
0.0262918
0.0245034
0.0550034
0.0161469
0.0466608
0.185284
0.0029627
0.064514
0.0281282
0.0800975
0.0114345
0.00510068
0.0134272
0.0265886
-0.028971
-0.00313368
0.0734938
0.0425263
-0.0136181
0.0460291
-0.178417
-0.0133227
-0.00202207
0.0723602
-0.00585607
-0.00956594
0.031328
-0.151091
0.00332849
0.0555368
-0.0685141
0.077339
-0.00439725
0.0175676
0.051125
0.0304167
0.0122885
-0.00238509
0.0514959
-0.0161644
0.00534482
-0.0262723
0.0245796
0.0263447
0.0479304
0.0557653
0.0269661
0.0572294
0.0158422
-0.00490165
0.0730362
0.0778272
-0.146484
-0.0180151
0.0417538
0.020316
-0.0159065
0.0612731
0.0929367
0.1155
-0.163093
0.0506349
-0.103377
-0.133707
0.0621811
-0.0544709
0.165452
-0.176306
-0.027727
0.0776483
-0.0576155
-0.0163188
-0.00254445
-0.0243908
-0.018006
-0.182905
0.0587734
0.0141821
-0.0561175
0.0551007
-0.206154
0.0541595
0.0194878
0.046865
-0.0172713
-0.0302749
-0.0841032
-0.102036
0.0103732
0.0174834
-0.0138179
0.0371786
-0.0402061
0.0740918
0.00504982
-0.0317213
-0.154905
0.036969
-0.254442
-0.0784378
-0.0108469
-0.0283037
-0.0732836
-0.0165497
-0.0339827
-0.117503
0.0964337
-0.0268609
-0.0695335
0.0256883
-0.0595783
-0.0180431
-0.128222
0.172841
0.0313424
0.132592
-0.178382
-0.0841861
-0.255347
-0.0438902
-0.079946
0.0265006
0.108357
0.399732
-0.160674
0.0277669
0.0314878
-0.0531452
-0.208801
0.0208401
-0.00147433
-0.0961723
0.0829946
0.0259482
-0.108926
-0.21295
-0.0622238
-0.136301
-0.0992023
0.0253053
0.010386
-0.0006427
-0.165346
0.0205075
-0.00303728
0.0463383
-0.0395706
-0.207334
0.0889624
0.0836126
-0.0888454
-0.0954967
-0.00243597
-0.00462111
-0.0695046
-0.23229
-0.102202
-0.0964745
0.127159
-0.0364864
0.0455501
-0.0580297
0.0182837
0.0466913
-0.151052
0.0331726
0.184364
-0.0223055
0.108107
-0.120776
-0.226613
0.0193521
0.00996337
0.124486
0.0473807
-0.0377855
-0.121677
-0.219621
0.0534145
-0.181289
-0.1983
-0.189646
0.00272293
-0.123024
-0.104593
0.027696
-0.020189
0.0536511
-0.00716429
0.0712074
-0.0434681
0.114382
0.0171471
-0.0871413
-0.043869
0.0767527
-0.168562
0.109096
-0.115209
-0.0598233
-0.0271117
-0.0342035
0.0349231
0.0761709
0.0712782
0.188237
-0.27427
-0.228823
-0.0580964
0.123901
-0.35432
-0.00853965
0.10165
-0.469192
-0.0162576
-0.176765
-0.1201
0.0159895
-0.254609
-0.0180818
-0.277007
0.0207649
-0.00777042
-0.445029
-0.317152
0.0342912
-0.119175
-0.248827
-0.220058
0.310834
-0.222921
0.0322087
0.086695
-0.131653
-0.151129
-0.107193
0.0330088
-0.286509
0.11484
-0.0286392
-0.0789118
0.0607856
-0.167341
-0.0955994
0.0752857
-0.223981
-0.0543299
-0.100697
0.12749
0.129228
-0.0732898
-0.0105581
0.0724337
-0.00990468
-0.0286995
-0.172307
-0.264043
0.0178474
0.017557
0.0257843
0.0192066
0.0255327
0.159729
0.00400272
0.00144817
0.0262916
-0.0407662
0.0386237
0.0829119
-0.0521234
-0.234035
-0.0612992
0.0425131
0.0380639
-0.0429922
-0.103727
-0.208923
-0.133165
0.0394746
-0.722439
-0.172366
-0.0084355
0.0132139
-0.177984
-0.155695
0.262749
0.0424796
0.0336284
-0.0778551
-0.0195815
-0.0677251
-0.0182611
0.0453375
-0.226597
-0.0120397
0.0151805
-0.00868752
0.119381
-0.0376602
-0.0192806
0.0240441
0.0328572
-0.0189961
0.0230797
0.0832795
0.20043
0.00288692
0.0673063
0.00127492
0.0811603
-0.0132222
0.040975
-0.0346521
0.0235386
0.00338549
-0.0485576
0.00188716
-0.0177368
-0.0862708
0.0438412
-0.164954
0.0187909
-0.0388647
0.0365453
0.00646262
0.0807109
-0.00338568
-0.145169
-0.0536636
0.137062
0.0537163
0.166163
0.0075431
0.0238561
0.0670105
-0.0102506
-0.0164072
0.0401628
0.0455786
0.0039633
-0.00591816
0.0150159
-0.00029267
0.0482899
0.0429107
-0.0161637
0.0948151
-0.0412052
0.0573948
0.0411406
-0.0469613
-0.0714801
-0.202334
-0.0358148
-0.0742459
-0.198633
-0.0848277
-0.0865601
-0.172548
-0.0410605
-0.064559
-0.123436
0.0782476
-0.0438945
0.0478213
-0.0122085
0.296991
-0.213534
-0.0147749
-0.0757697
-0.140292
-0.0471982
-0.000478338
0.0227422
-0.00922697
-0.0103149
-0.0566324
-0.106808
-0.0128623
-0.0053193
-0.0300825
-0.177815
0.0199624
-0.077591
-0.0966906
0.0361651
0.0868359
-0.0117559
-0.0968408
-0.00130181
-0.0349024
-0.015188
-0.00718638
-0.0515314
-0.0347883
-0.00967414
-0.151332
0.0746357
0.190626
0.0977072
0.116807
-0.14993
0.0538484
0.0185336
0.103462
0.171967
0.143035
0.0139846
0.039928
0.0560343
-0.0215706
-0.148817
0.156368
-0.00322727
-0.0276358
-0.0241259
0.107093
0.0581409
-0.075495
-0.166845
-0.0162812
0.0518712
-0.0177937
0.0349075
0.0227192
0.0572922
0.135782
-0.0264389
-0.0277116
0.0628248
0.0798504
0.254331
0.03572
-0.174548
0.0773158
0.211692
0.0509609
0.0820401
0.0179538
-0.0413515
0.0539021
-0.0382274
0.0112095
-0.145019
0.0157988
0.000809401
-0.293565
-0.181239
0.00178664
0.0619554
-0.0781496
-0.0600008
0.09562
0.0365782
-0.113658
-0.264789
-0.149759
0.0171415
-0.052812
-0.144663
-0.149887
-0.0500712
0.191156
-0.134052
0.0840112
-0.0203404
-0.115749
-0.1441
-0.00349883
-0.087705
-0.10699
0.0251453
-0.0305978
-0.30448
-0.0736371
0.134263
-0.170353
-0.147138
-0.0433113
0.224232
-0.13938
-0.327695
-0.000628547
-0.118184
-0.169678
0.166573
0.104026
-0.190105
-0.221423
0.0610863
-0.0409715
-0.188856
-0.0948867
-0.129403
-0.0324142
0.129555
-0.0997903
0.00300469
0.163923
0.0800318
0.0598474
0.0921469
0.0190985
-0.0314666
0.0541545
0.105488
0.0924574
0.0574961
0.0134933
0.04074
0.00122959
0.095687
0.0551436
-0.00975808
-0.0465596
-0.0297942
0.0480322
0.0129656
-0.0782113
0.105839
0.0229227
-0.0055485
-0.00630022
-0.0462115
-0.0328508
-0.0286268
0.0912498
0.0337413
-0.0509954
-0.148118
0.0132501
0.170358
-0.0300778
0.112571
-0.12492
0.200183
0.0208783
-0.00569553
-0.132533
-0.0369767
0.0479001
-0.069421
-0.0104092
0.056544
0.0117649
-0.0864698
-0.175669
0.135107
-0.231491
0.0199321
-0.0903337
-0.054772
-0.238663
0.0278249
-0.025757
-0.118479
-0.386252
-0.102072
-0.174671
-0.0471881
-0.0402128
0.0012911
0.362076
-0.213899
-0.0601214
-0.0145492
-0.420465
-0.252607
0.0173145
-0.111475
-0.0783627
0.0025247
0.0465193
-0.234857
-0.219169
-0.140144
-0.287235
-0.0761883
-0.00162023
-0.153705
-0.00900301
-0.0846317
0.0662732
-0.215065
-0.172606
0.104496
-0.164326
-0.0436481
-0.102606
-0.0172517
-0.0784182
-0.0117943
-0.0205727
-0.295746
0.00906715
-0.143924
-0.106704
-0.199625
0.214661
-0.145694
0.00210193
0.0299548
-0.162259
-0.0307291
0.011799
0.0392759
0.0485248
0.043621
0.0593279
0.0208185
0.113247
0.0741675
0.178759
0.0766851
-0.0614847
0.0410015
0.121746
-0.169422
0.0282192
0.0247285
0.010061
-0.0460959
0.0125896
0.00299286
0.00605404
-0.144246
0.0375022
0.0219968
0.0369955
-0.0871548
0.00435647
0.0819054
-0.0297309
0.0268203
-0.134311
0.307697
0.10017
-0.161994
-0.177325
-0.0380853
0.0196168
-0.122335
0.0224724
-0.0143325
0.00880685
-0.0775254
0.0621022
-0.199053
0.0224696
0.00577785
-0.00519361
-0.0142321
0.0287875
-0.00628586
-0.00833101
-0.0282533
-0.00667673
-0.0369922
0.0498337
-0.0317459
-0.0421916
-0.0250623
0.0233356
-0.0336193
0.0410343
-0.0241492
0.0955558
0.0377997
-0.0363591
-0.00652655
-0.0217574
0.0200501
-0.0179671
-0.0495155
-0.0175669
0.00286377
0.000349171
-0.0236346
-0.0288028
0.100394
0.0187391
-0.0341042
-0.00827756
0.00149968
0.0136829
-0.0365661
0.0176877
-0.0390856
0.0228231
0.00877069
-0.00233573
0.0264706
-0.0306476
0.0125325
-0.0125429
-0.00060404
-0.027059
0.0238815
-0.236527
-0.11786
-0.0278842
-0.0757623
0.0392731
0.0437745
0.0134116
0.0171172
-0.156479
0.0526009
-0.0566304
0.0795781
-0.166901
-0.0601975
0.0416658
-0.307319
0.0187174
-0.0527166
-0.145028
0.0283074
0.123054
-0.0937777
0.13461
0.0551975
0.0621064
-0.21828
-0.125832
-0.159372
-0.0621942
0.122139
-0.0167735
0.392531
0.0185339
-0.0935298
-0.147288
-0.13847
0.0307845
-0.30354
0.0272926
-0.0725634
0.0629931
0.0584394
-0.0701091
0.0611189
-0.063876
-0.0286503
0.0530796
-0.267904
-0.141619
-0.207304
-0.189337
-0.029516
-0.0302008
-0.0693395
0.0770393
-0.00489473
-0.0632821
-0.147375
0.0617106
-0.0428691
-0.00308462
-0.0334596
0.0368987
-0.0792559
0.0125529
0.175654
0.0511381
0.116642
-0.0453694
0.0804579
-0.218013
-0.0814206
-0.0489684
0.030197
0.0785326
0.282016
0.129655
-0.0291036
0.0335964
-0.040283
-0.163078
0.114417
-0.0166767
-0.166643
0.035392
-0.0142843
-0.0603348
-0.0973065
0.0223183
-0.0810777
-0.0406987
0.0300728
-0.0029844
0.0270062
0.108732
0.00946361
0.000246325
0.0368216
-0.141733
-0.148824
-0.363453
-0.122253
0.0196599
-0.00885152
-0.0538677
-0.0233674
0.00896214
-0.0151571
0.124066
-0.0957835
-0.124334
0.0592861
-0.0715432
-0.0534921
-0.127555
0.162126
0.0243347
0.106658
-0.296807
-0.0692625
-0.226034
-0.012939
-0.00330926
0.0335057
0.102437
0.431113
-0.182952
0.033053
0.0923392
0.0135181
-0.195725
0.138988
-0.0947602
-0.0300244
0.106066
0.0533323
-0.16436
-0.280319
-0.0609276
-0.132315
-0.147651
0.0144549
0.0133343
-0.022805
-0.167219
0.0923686
0.0182351
0.0538795
0.00301457
-0.306363
0.0632003
0.0133891
0.053616
0.0891644
-0.0482929
0.0335368
0.0931708
0.196552
0.112196
0.116316
-0.0306097
0.0752043
0.0224314
0.134884
0.0234292
0.00647822
-0.0161753
0.00604737
-0.00988764
-0.0395614
-0.0110573
0.0937594
-0.162596
0.0251288
-0.00696154
-0.0363206
0.00725846
0.101923
0.065584
0.129251
-0.00230555
0.127434
0.0538225
0.230486
-0.00455641
0.10587
0.129035
0.0525623
-0.00413412
0.0721843
0.0566923
0.00590751
0.0395517
0.000923067
-0.00514694
0.0779265
0.0314122
-0.0169108
-0.177213
0.0511292
0.0127804
-0.00495797
0.00306928
0.00432777
-0.00723159
0.00671096
0.000249686
0.0387821
0.000961104
0.036904
0.0351615
0.0188713
0.0230071
-0.0243228
-0.0388707
0.0318963
0.0292197
0.00588546
0.0649474
-0.00517907
0.0189629
0.00563443
0.0481051
-0.0175973
9.00951e-05
0.0598654
0.0240376
-0.0045001
0.014977
0.0347094
0.00705063
0.0176532
0.0213859
-0.00114778
-0.0189194
0.00314093
0.0393413
-0.00462645
-0.0120119
-0.0036311
0.0528382
0.00491283
-0.00218271
0.0157271
0.0170149
0.0112678
0.00702444
0.00229029
0.00483371
0.0121064
0.0873832
0.016252
0.026005
0.0303337
0.021068
0.0562139
0.0672914
0.208823
0.0246066
-0.15791
-0.0377716
0.0504088
0.0229928
0.0830861
0.0789192
0.0475845
-0.0307927
-0.00176507
-0.0319564
0.0191637
-0.0143811
0.0414444
-0.253197
0.0322625
-0.0257147
0.0293695
0.00690092
-0.0263559
0.0699564
-0.190925
-0.00710639
0.120951
0.00515573
0.161922
-0.04272
0.0526378
0.0446762
0.0856447
0.0154008
-0.0327014
0.0379398
-0.000632664
0.0220525
-0.0140878
0.0192868
0.0380655
0.0476806
0.0448691
0.0692182
0.067807
-0.0102839
0.00515132
-0.0109456
-0.00386096
0.0054087
0.0138002
-0.0100522
-0.00791205
-0.00610475
0.0360134
0.00384922
0.0051452
0.0440405
-0.00634009
-0.0057427
0.0462803
0.0222077
0.0301514
0.00369164
0.00641388
0.0659272
-0.0114062
0.0156309
-0.00886776
0.0166912
0.0550174
0.0163383
0.00912722
-0.00412219
0.00329892
0.0400869
0.00895772
0.046922
-0.0179891
-0.0117265
-0.00864515
0.0560359
0.0114362
0.000220146
-0.00233239
0.0768456
0.0140715
-0.00436062
0.0353121
0.0254093
-0.0130487
-0.000357706
0.024384
-0.00437571
-0.0066547
-0.0635305
0.0505067
-0.040155
-0.0574915
-0.237735
0.00195196
-0.025674
0.0111854
0.0451793
-0.0175284
-0.0626967
-0.0077933
-0.180573
-0.0317977
0.14922
0.313707
-0.103539
-0.179858
-0.177793
-0.24646
-0.3035
-0.0851983
0.0381241
0.0143793
0.111188
0.36143
-0.14777
-0.187981
0.0276055
0.0057406
-0.240451
0.0471901
-0.173292
-0.0553003
0.0226571
-0.0302181
-0.0884438
0.0849731
0.118276
0.0538194
-0.0515662
0.00140426
-0.000800439
-0.0649516
-0.171656
-0.0153999
0.0177592
0.0434334
-0.0937775
-0.0635574
0.033351
-0.00826367
0.00131036
0.0200247
0.0603802
-0.0165807
0.0663588
0.195325
-0.0744214
0.0300805
0.0381686
0.132657
-0.0599573
0.0260596
-0.0150323
-0.0189215
-0.0328856
-0.0444254
0.0568343
0.0265025
-0.0594675
0.0271362
-0.141637
-0.0232241
-0.0169962
0.142094
-0.0046444
0.0236556
-0.0530765
0.135785
-0.0360642
0.0465822
-0.0570893
0.146337
0.0329998
-0.0383433
-0.0437638
0.0126914
-0.00251755
-0.0193741
-0.0334685
0.00121718
-0.0209573
-0.0359678
0.035246
-0.0172197
0.0563335
0.0126745
0.0448122
0.00872736
0.0746019
0.0480794
-0.00352857
0.0285914
-0.00407247
0.00464067
0.0254615
0.0745969
-0.0312454
0.0916659
-0.0339335
0.058216
0.0350309
0.067138
0.0208692
-0.00296761
-0.0410822
-0.0113171
-0.0593624
-0.0197222
-0.00977238
0.0183934
0.0525612
-0.01172
-0.0030265
-0.0376601
-0.0383811
0.00267778
-0.0270423
0.0605123
-0.0109637
-0.11016
0.0632405
0.0918953
0.000597582
-0.0178413
0.0303586
0.132955
0.00173126
0.0250278
0.0433454
0.00483413
-0.00347224
0.017408
-0.00147905
-0.0356539
0.0246506
-0.00856005
0.0669391
0.0588229
-0.165416
-0.0690226
-0.0120766
-0.0481106
-0.0240506
-0.0294118
-0.0201051
-0.0664023
-0.0383429
-0.0632957
0.0794893
0.0566166
-0.0667636
-0.151504
-0.122289
0.0475065
0.119059
0.0111727
0.0779506
-0.039938
0.0657035
-0.044335
-0.0600273
-0.0240931
0.0301237
0.245242
0.132616
0.115192
-0.0270058
-0.00086447
0.0443676
0.107777
0.0774132
-0.11627
0.0650547
-0.0493806
-0.0873008
-0.184072
-0.0431914
-0.130345
-0.0344207
0.0439438
-0.0386253
0.0902291
0.0408885
0.0218632
0.00495703
0.0220217
-0.0793655
-0.133498
0.314768
0.134675
-0.0189128
0.0418934
0.0231814
-0.0749115
0.00501793
-0.0872759
0.0750162
-0.126877
-0.192433
-0.034577
0.111764
0.0637446
0.0948664
0.1044
0.121967
-0.00621489
0.365076
0.0487652
-0.0372189
0.030058
-0.2515
-0.0593505
-0.0081061
-0.0309906
0.0374215
-0.0363862
0.0255243
-0.198153
-0.00459365
-0.232992
-0.197967
0.0626689
-0.0133482
0.075815
-0.184389
0.0434153
0.037286
0.0435479
-0.0346226
0.0388813
0.0500455
0.0805102
0.00300238
-0.00914669
-0.0454146
-0.113644
0.0875821
-0.294629
-0.242453
-0.0639843
-0.0491412
-0.0437048
0.0854912
0.0274153
-0.0338939
-0.0987478
-0.000165492
0.0530063
-0.0918259
0.0302598
-0.236434
-0.0258358
0.00355782
0.3499
0.0236528
-0.184956
-0.247526
0.0808192
-0.349923
-0.0792629
-0.0304808
-0.0243143
0.123845
0.464739
-0.175535
0.0282343
-0.0327662
-0.0240565
-0.261627
-0.174749
0.0577071
-0.0721219
0.0313532
-0.0536019
0.0475893
-0.131445
0.0199766
0.0169785
-0.159938
0.0778916
-0.00150795
0.11345
-0.216638
-0.0577885
0.00410062
0.132494
-0.0751786
-0.213179
-0.141567
-0.00702524
0.0101577
-0.00843617
0.11084
-0.0057251
-0.0127821
-0.0244973
0.106539
-0.0640426
-0.0536285
-0.0200951
0.0663108
-0.0338932
0.0663638
0.167994
-0.0186083
0.0774462
-0.125592
0.112563
0.121825
-0.00761392
0.0147195
0.0313248
0.0464421
0.21351
0.111425
-0.0323333
0.065954
0.00516322
0.115185
0.0861894
-0.111596
-0.0297202
0.0294735
0.0459662
-0.0806347
-0.0133674
0.0458196
-0.084008
-0.0691915
-0.00122298
0.0210167
-0.0338546
0.0905499
0.0559691
0.00542689
0.00563332
-0.0111606
-0.106979
-0.271155
-0.0869831
-0.00784498
-0.0204238
-0.065709
-0.0249136
-0.00585162
-0.0969749
0.012369
-0.00948852
-0.0413361
0.0515676
-0.0191621
-0.096908
-0.0805595
0.0467313
0.101921
0.0213439
-0.154622
-0.0772781
0.0803948
-0.0282102
-0.0467854
-0.00665403
0.0336103
0.237493
-0.142685
-0.138602
-0.0354464
-0.0081087
0.0648762
0.0724314
-0.167344
-0.0856944
0.0855199
0.00337593
-0.0724261
-0.219321
-0.036465
-0.0915702
-0.0223651
0.0616519
-0.00685765
-0.139535
0.0554204
0.0118644
0.00301203
0.0318341
-0.0264469
-0.226725
0.181403
0.10973
-0.0241896
0.00881717
0.078678
-0.0416481
-0.00393488
-0.0482483
0.0201534
-0.018389
0.123259
0.0145568
0.0644695
0.03825
0.0827358
0.0513466
0.012398
-0.0060224
0.219184
0.0874138
-0.031446
-0.00409479
-0.10237
-0.0467137
-0.000950849
0.0540378
0.0499332
-0.050862
-0.0166891
-0.0608913
-0.0102211
-0.097585
0.0526563
0.0366086
0.0199738
0.0041183
-0.149098
0.183535
0.0587212
0.115484
-0.124143
-0.0138368
0.00725778
-0.0515285
0.0241853
-0.0343045
-0.0091854
-0.0653418
0.034374
-0.174132
-0.0113222
-0.0163836
0.0258372
0.00254344
-0.00794988
-0.0251148
-0.00511719
-0.00936981
0.138464
-0.0755858
0.0412554
-0.00550648
-0.0105923
-0.0179576
-0.0891458
0.13263
0.0272235
0.0377989
0.0937335
-0.0102791
0.053265
0.0228823
-0.0272357
0.00927587
0.0190802
0.175656
0.102806
0.012633
0.0822168
-0.0132977
0.0587153
0.0715998
-0.0683996
-0.0314904
0.0134204
0.0781198
-0.0647907
-0.0562463
-0.0274934
-0.0533288
-0.0572202
-0.0100281
0.0297637
-0.0179929
0.0718497
0.0939118
-0.00985242
-0.0426445
0.00262112
-0.00811498
0.0579553
0.0138179
0.0310223
0.0238038
0.053222
0.0600287
0.0594782
0.208985
0.0962049
0.112772
-0.0512157
0.0226811
0.0898875
0.0672765
0.083217
0.0551084
-0.0366626
0.0273098
-0.0586592
0.0533028
0.0199477
0.0421841
-0.277363
0.0358627
-0.0267161
0.0208607
0.00661045
0.00535268
0.091861
-0.19845
0.0361516
0.141808
-0.0190196
0.143251
-0.0463536
0.059422
-0.140454
0.107691
0.031377
-0.00379846
0.123226
0.00339845
0.0386519
0.0211108
0.0173725
0.0558275
0.0483181
0.0588139
0.0582397
0.0380119
-0.00759098
0.0490469
0.0239623
0.118929
0.0299644
0.0517326
0.108264
0.203269
-0.168727
-0.242734
-0.255582
-0.179787
-0.0141373
-0.24358
0.254789
-0.0789849
-0.246955
-0.00138264
-0.516234
0.00853018
0.0324262
0.0644318
0.130327
0.0385925
0.0409515
-0.107914
-0.0570127
-0.0447614
-0.0790936
0.135678
0.00338283
-0.0885902
0.0797072
0.307484
0.0295986
-0.0362716
-0.0244148
0.170988
0.0592039
0.000129497
-0.0407256
0.00645148
-0.0282992
-0.0570993
-0.00582693
-0.0915304
0.0823933
0.0767946
-0.245167
-0.0200552
-0.0740611
-0.0647707
0.0119997
-0.0185504
0.0899803
0.0691756
-0.00462872
0.0379468
0.024799
0.0351281
-0.050703
-0.0193637
-0.0287567
-0.0387478
0.154403
-0.120539
0.0376831
-0.0151982
-0.0977256
0.116284
-0.0168085
-0.00585742
0.129345
0.0583533
-0.00368992
-0.0935188
-0.100251
0.0634703
0.0298839
0.076925
-0.0208653
0.253983
0.0829742
-0.0365616
0.003616
0.0233235
-0.198317
-0.181344
0.0729983
-0.0190982
-0.158326
0.0116476
0.00589929
0.0793596
-0.0174282
0.0202134
0.0140643
-0.148549
-0.0412119
-0.0759578
-0.274414
-0.0580291
0.0128847
0.0215863
-0.0790037
-0.0146893
-0.00385982
-0.129132
0.110972
0.0542599
-0.172272
0.0563651
0.0753454
0.0115478
0.0170873
0.14632
0.0133587
0.103153
-0.396755
-0.0771181
-0.201892
-0.00690744
-0.11239
0.0191876
0.0874333
0.259799
-0.15482
-0.147753
0.0356818
-0.0525214
-0.154506
-0.00772102
-0.184786
-0.0328152
0.0736873
0.077405
-0.0297785
-0.124115
-0.0146596
-0.00402409
0.02214
0.0723093
0.0359005
-0.15311
0.111614
0.0210674
-5.21656e-05
0.00478655
0.0411969
-0.236797
0.0461923
-0.00227045
0.022903
0.0235727
0.0107125
0.0402104
0.0166598
0.0568068
0.0655028
0.0443601
-0.0434161
0.00154877
0.0413479
0.00548455
0.0802835
-0.031722
-0.0143225
0.00635922
-0.0630289
0.0187243
0.0111874
0.0377317
0.0930517
0.0235178
-0.00691201
-0.0590577
-0.0351357
-0.000886679
0.0516677
0.0595786
0.00996497
0.0416099
0.0438582
0.0186347
-0.0221336
0.0570983
0.109515
-0.00943418
0.0225762
0.0198299
0.0910242
0.00366078
0.0256824
0.0314516
-0.0139815
0.0349463
0.0132291
0.055158
0.0326816
0.030366
0.0451535
0.0179753
-0.0015699
0.0414705
-0.0556119
-0.0418796
0.0278523
0.0517981
0.000449928
0.0922439
0.0381689
0.0907174
0.0480076
0.0394348
-0.1298
0.0844302
0.0294565
0.0139759
0.0524524
-0.0898131
0.0172651
0.0358615
-0.0104788
-0.0790017
0.0194369
0.174188
0.0645057
0.0538038
-0.0203054
0.0347713
0.00968209
-0.232975
0.0965349
0.0893801
0.0152775
0.0108938
-0.0848656
0.0497507
-0.0554104
0.0392792
-0.00125479
0.0191752
0.00767868
0.0353837
0.0664427
-0.0232255
0.0162893
-0.0862938
0.102237
0.0341702
-0.113843
-0.0371815
-0.0757506
-0.0737531
-0.0483542
0.0592914
-0.0154463
-0.00385939
-0.12595
0.0949344
-0.0304556
-0.00183452
-0.0780524
-0.0261502
-0.0587237
-0.138416
0.0896616
-0.0415393
-0.0791325
-0.0411962
-0.00532383
-0.0951167
-0.159708
-0.0164146
-0.00993197
-0.0234458
-0.0664426
0.0557443
-0.130764
0.111478
-0.028564
0.077795
-0.140744
-0.0681624
0.0143697
-0.119671
-0.150776
-0.0978032
-0.0267183
-0.0627957
-0.173473
0.0488641
-0.0376812
0.108711
-0.0314803
-0.118769
0.0172052
0.0916337
-0.125795
-0.107512
-0.131495
-0.0224191
0.0487681
0.0486729
0.0194486
-0.00799642
0.0265505
-0.000949695
0.369448
0.0111829
-0.17899
-0.0165912
-0.271992
0.0360244
0.0873854
0.264942
-0.0209914
-0.147761
-0.356827
0.0543067
-0.210379
0.0495613
-0.0709428
0.0599763
0.0824924
0.207934
-0.179982
0.032107
-0.151348
-0.0274677
-0.184892
-0.0279065
-0.000358912
0.0505605
0.0157008
-0.235821
-0.00265156
-0.0251775
0.0471301
-0.210767
0.0210215
0.0448312
0.126907
0.0794049
0.128697
0.104296
-0.000571236
-0.084105
0.0822417
-0.135042
-0.173708
-0.0343406
0.0534559
0.0825759
0.0408128
-0.00432581
0.0131437
-0.0947184
0.484876
0.0229996
-0.279932
-0.0761778
-0.389499
0.0991776
0.13638
0.249241
-0.0607603
-0.159827
-0.534382
0.107796
-0.235395
0.0721782
-0.150341
0.0603108
0.088519
0.0755335
0.127023
0.105816
-0.18229
-0.114749
-0.190722
-0.179077
0.0257797
0.0702923
0.0102455
-0.318794
0.00874234
-0.0287544
0.071125
-0.334394
0.0731944
0.0463682
-0.178752
0.093552
0.121412
0.0906804
-0.0296012
-0.117371
-0.136622
-0.183562
0.111349
0.0283133
0.0146136
0.0460741
-0.0617009
0.0161922
0.0483905
0.134842
0.0257691
0.116462
0.0023327
0.0436911
0.0180023
0.0792361
-0.0175992
-0.016505
-0.00229409
-0.0195812
0.0426193
-0.0679246
-0.0422137
0.0488766
-0.142685
-0.0102612
-0.0197239
-0.0587023
-0.025493
0.0340703
0.0159342
0.11051
-0.0420161
-0.00247384
0.0460041
0.139233
-0.0375086
0.0350254
0.0871587
0.0837156
-0.0241339
0.03065
0.0574254
-0.00974439
0.0175351
-0.00943161
-0.018436
0.00827071
0.0207411
-0.0213892
0.0960237
0.0892761
0.0821139
0.041629
0.108241
0.119195
0.0245393
0.0133621
0.0760805
0.11217
0.106034
0.00958044
-0.000879369
0.0660451
-0.0859557
0.106152
0.102106
-0.0645886
-0.0303343
-0.00617431
0.00852325
0.0238682
-0.0242931
0.133223
-0.037246
0.0586587
0.00557085
-0.0754446
-0.0175959
0.0684609
0.12393
-0.0116126
-0.0022509
0.0925572
0.0378986
0.18449
0.0190292
-0.139336
0.0518234
0.10227
0.0272585
-0.0449314
0.0183697
-0.0260201
0.0319248
0.0123148
-0.0257619
-0.137268
0.010656
0.024108
-0.230818
0.0784791
0.133379
0.116105
-0.0230003
-0.00214287
0.130203
0.0533144
-0.0261401
-0.0633866
-0.0526627
0.0431654
-0.129276
-0.0637292
0.119411
0.0651672
0.32219
-0.0202882
-0.123709
0.0339182
-0.232221
-0.169257
0.047225
-0.0293858
-0.00649246
0.0502382
0.0207319
-0.215214
-0.105109
-0.0826739
-0.0555147
-0.0252766
0.0240035
-0.01386
-0.03597
-0.0196571
-0.0384733
-0.0212119
0.0400831
0.2746
0.125865
0.134301
0.010396
-0.0248688
0.000798261
-0.0335229
-0.0242131
-0.0725533
0.00107915
0.071852
-0.0209846
0.113428
0.0738044
0.0261723
0.0297448
0.0565552
0.00153078
0.0664893
0.100246
0.293951
0.00481219
-0.16044
-0.067279
0.0702734
0.0581402
0.112136
0.0583228
0.0301103
-0.0798601
-0.00971286
-0.0941815
-0.00681452
-0.0190142
0.0525353
-0.319587
0.0495253
-0.0182145
0.015412
-0.0414064
0.0108065
0.0552682
-0.239801
-0.00736033
0.146713
-0.00991846
0.229266
-0.0167571
0.0405052
-0.143032
0.125444
0.00358271
0.0861236
0.0942459
-0.00269641
0.0181825
0.00215834
0.0242583
0.028652
0.0724149
0.0615174
0.110744
0.0475757
0.288185
0.133408
0.00400671
0.00984484
0.107374
-0.065783
-0.0156435
0.0184198
0.0862113
-0.0369958
-0.184756
0.0068081
0.026435
0.0215988
-0.0417638
0.077396
0.0566303
0.00153845
0.365594
0.0871158
0.00623105
0.027412
-0.0248609
-0.0489574
-0.00931204
0.10622
0.025332
-0.0336888
0.0260083
-0.0122488
0.0128698
-0.161737
0.00127627
0.0206755
-0.0271049
0.0383066
-0.121753
0.251202
0.0214084
-0.0336901
-0.0862761
-0.0188423
0.0252347
-0.0491418
0.0364509
0.0372476
-0.00553257
-0.177395
0.0253181
-0.258661
-0.0516511
-0.100124
0.0541412
0.0511213
-0.131205
0.0460579
0.0925973
0.23427
0.420357
-0.166947
-0.0340594
-0.0313765
-0.170506
0.0454706
-0.179486
0.0848488
-0.146371
0.00821642
-0.0149778
-0.0821364
-0.0202683
0.0996563
-0.287803
0.0310875
-0.00828858
0.0389537
0.0988144
-0.187501
-0.190352
-0.205865
-0.00628089
0.157834
0.0324629
0.190034
-0.0252041
-0.265185
-0.205172
-0.172591
-0.0426089
0.0961826
-0.193688
0.0440695
-0.142638
0.110287
0.0363064
-0.165668
0.020294
-0.083997
0.115754
-0.0836396
0.0330927
-0.00535421
0.000536542
-0.00681997
0.0353921
0.00478791
0.0121878
0.0509924
-0.0087367
-0.0048059
0.028932
0.0145027
-4.46676e-05
-0.00936109
0.0065241
0.0168818
-0.00056564
-0.00472147
0.065339
0.0353414
-0.01016
0.00277088
0.0550338
-0.00688871
-0.00400354
0.0317429
0.00836097
-0.00584071
0.00292898
0.0407311
-0.00211064
0.0418125
-0.0504142
0.0145909
0.00480474
-0.00455711
0.0129769
-0.0140835
0.0124427
0.00633198
0.0105272
-0.00583788
0.000175089
-0.0143387
0.00875574
0.00346489
0.0121855
0.0244422
-0.0192958
0.0230422
0.141288
0.0595803
-0.00211438
0.0275181
-0.173565
0.0676068
0.0169335
0.134518
-0.0410861
0.0886299
-0.0931771
0.030027
0.11123
0.0324772
0.256591
0.00551445
-0.0931647
0.0267169
-0.129192
-0.183844
0.0467778
0.0246959
-0.189858
0.0239442
0.0167251
-0.081008
-0.0705546
-0.0387984
-0.0404841
-0.14237
0.0353539
0.0615405
-0.0356328
0.046178
-0.00178378
-0.025207
-0.217166
0.162535
0.112393
0.0394253
-0.188227
-0.00611985
-0.000808564
0.0362165
-0.00234466
-0.0517978
0.0404228
-0.151835
0.0374333
0.0986221
-0.0822948
-0.0432339
0.015574
0.0132554
-0.0153766
-0.0123936
0.0402515
0.07079
-0.0456977
-0.0224216
0.0459681
0.0507109
-0.0519188
-0.0209364
-0.0544343
-0.0196321
0.0383809
-0.0595495
0.0609149
-0.0190875
-0.0966517
0.0238464
0.0442342
0.00184681
-0.0284044
0.0580988
0.0327666
0.0848308
-0.0443287
0.0343826
-0.0661069
0.122
0.0281706
0.0642142
0.0209484
-0.00241243
-0.0477469
-0.0918078
-0.0195586
0.000596519
-0.0533685
0.000962491
-0.0207555
-0.00398406
-0.015427
0.0303213
0.0120648
-0.0146334
0.0409172
-0.0747044
0.231869
-0.161438
-0.0313765
-0.0440397
-0.242955
0.0314068
-0.0599777
-0.098687
-0.00737699
-0.0112474
0.0565988
-0.0823149
-0.00479423
-0.0124295
0.32922
-0.101922
-0.0688785
0.0168749
0.101052
-0.264734
0.0697234
-0.0513643
-0.0331681
0.015045
-0.00772558
0.00087943
-0.0885487
-0.339296
0.0184006
-0.0197713
0.0416023
-0.0897993
-0.1718
-0.101058
-0.0335904
-0.0511366
-0.299168
0.339638
-0.150287
0.031973
-0.298343
-0.101523
-0.0118281
-0.24894
-0.00798411
-0.0241077
-0.0112136
0.0520048
-0.0711676
-0.197957
0.13687
0.0748033
-0.00871404
0.0212931
-0.00256962
-0.0124394
0.0295762
0.162542
0.142352
0.1246
0.113129
0.0977884
0.105206
0.00169505
-0.146337
0.0993523
0.0694408
0.0217651
0.215225
-0.023752
0.0723733
0.0238574
-0.203692
-0.0726299
-0.00348108
0.217034
0.0577971
0.0156994
0.0520887
-0.169997
0.0316274
-0.0449975
0.0610896
0.0858641
-0.0663845
0.0548906
0.0571433
0.198538
-0.032497
0.0297427
0.0748948
0.00288475
0.0335108
-0.00861644
0.0657172
0.0475257
0.0417053
-0.100034
0.0613301
0.122799
0.0446831
0.00601263
0.0541778
0.0468946
0.054013
-0.00469401
0.0633964
0.176421
0.106878
0.00520616
0.0416361
0.0301437
-0.0281845
0.0578649
0.010825
0.0104139
-0.016706
-0.0187097
0.0933415
0.0572891
-0.0461243
0.0701009
0.0844286
0.00853868
-0.010845
0.0392426
0.0390646
-0.0853413
0.113795
0.0622424
-0.0264851
0.138887
-0.106003
0.155362
0.0031171
0.0834814
-0.0744909
0.0259145
0.0253508
-0.0266993
-0.105807
-0.0212864
0.0241529
-0.0911816
-0.00760986
0.114217
0.020368
-0.0320343
0.110558
0.0327142
0.0913086
0.0693117
0.0735306
0.083583
0.0605027
0.00887346
0.0343532
0.0447027
0.260495
-0.037928
-0.0212911
-0.0288298
0.033924
0.0719916
0.132934
0.0395195
-0.0219998
0.0364704
-0.0082676
0.077184
0.0415243
0.101308
-0.0273752
0.0620493
0.0323785
-0.0150048
-0.00111371
-0.00615052
-0.156774
-0.0399742
0.0552672
0.00472042
-0.0690983
0.0950163
0.0142791
-0.187367
-0.0720543
0.146664
0.0540422
-0.0309446
-0.0856093
-0.0215706
0.0892483
-0.0312084
0.0340484
0.131305
0.00115036
0.023705
-0.156536
0.0727047
-0.0517807
-0.00779061
0.00138363
-0.000266201
-0.01935
-0.00740475
-0.0108772
-0.0358951
0.111711
-0.013425
-0.0342948
-0.0336036
0.0898492
-0.00566603
-0.0144169
0.101103
0.0106525
0.0564626
-0.0656492
-0.00391736
0.0795031
-0.00149851
-0.0359586
0.00325428
0.0313306
0.0918577
0.0592386
-0.0390103
0.0416959
-0.0357455
0.0716863
-0.0297756
-0.00101017
-0.0272657
-0.00310223
0.0642205
7.16578e-05
-0.0287211
-0.000328778
0.0568773
0.0126039
0.021499
0.0390352
0.0350598
0.0499581
0.0243533
-0.0105872
-0.0279486
-0.00765588
-0.0517499
0.0144422
-0.00326553
0.0115087
0.0288861
-0.192261
0.0204927
0.0154971
0.149168
0.143969
-0.156751
0.00640322
0.0406111
-0.147975
0.0173047
-0.177904
0.10065
0.089973
0.0504151
0.0336371
-0.194211
0.0679582
0.0462864
0.12858
-0.0492311
0.0204332
0.0936371
0.0408562
0.0955156
0.0523909
0.0922149
0.0522459
-0.088374
-0.237418
0.0100116
-0.0259313
0.0780262
-0.146657
0.0538296
-0.0975079
0.0399666
-0.17117
0.0303575
0.0487888
0.101308
0.0435664
0.0375072
0.00719867
-0.0193181
0.0734509
-0.0148966
-0.118249
-0.0947462
-0.0213481
-0.0669226
0.0479181
0.0632715
-0.0592618
-0.0890311
0.0238202
-0.0478658
-0.035538
-0.0903516
-0.0077764
-0.123485
0.0933823
-0.0384245
0.114498
0.00468621
-0.0542973
0.0822989
-0.00197959
-0.0544766
0.0478787
0.0432588
-0.00520414
-0.0519253
-0.0496501
0.0776463
-0.0343615
0.0220023
-0.00736933
0.186074
0.100898
-0.18832
-0.019304
0.0256771
-0.158355
-0.285226
0.0412055
0.080354
-0.169964
0.0344386
0.017276
0.122767
-0.0129665
-0.00772823
-0.0253909
0.108463
-0.191633
-0.0975441
0.0313453
0.0116692
0.00645438
0.00745183
-0.00565625
-0.00377375
0.00894335
0.0355125
0.0319861
0.0467357
0.0339435
0.0027623
0.0367959
-0.00426926
-0.048537
0.0628137
0.0340369
0.00997858
0.0749923
-0.000681742
0.0217752
0.0110113
0.0370436
-0.0129284
0.00428828
0.0628367
0.0319963
0.00150345
0.0259741
0.0109361
0.0136624
0.0103511
0.0332815
0.021893
-0.0364505
0.0268527
0.0167134
0.0148253
-0.0103271
-0.0228421
0.0620148
0.0150266
0.0108677
0.0241719
0.0299501
0.0181201
0.0061368
-0.0434791
0.0193616
0.0280175
0.143362
0.0618591
0.0560728
0.0682994
0.0753544
0.0416254
0.0668227
0.159864
0.0748818
-0.0303084
-0.0141239
0.0654645
0.0728873
0.0864488
0.0910157
0.223287
-0.102159
0.071228
0.023963
0.0589086
0.107677
0.0621593
0.117291
0.014105
0.0561693
0.172516
0.0994151
-0.0195094
0.08185
0.0645156
0.0952016
-0.0298761
-0.201738
0.168948
0.0350102
0.0531936
0.0534035
0.161905
0.0344711
-0.0681937
0.0416953
-0.0541827
0.0335988
-0.0846259
0.103259
0.0553476
0.0391307
-0.159721
0.112691
-0.140681
0.200174
0.0443199
0.106282
0.0525261
0.0956757
0.0289874
-0.011108
-0.0566588
0.178989
-0.0779617
0.102445
-0.0963979
-0.128669
-0.024328
0.100592
-0.0846221
0.00819708
0.00290799
0.242238
0.108367
-0.0163851
0.0988505
-0.0472652
0.12937
-0.0063493
-0.017547
-0.024268
0.0810269
-0.212806
-0.0795709
-0.00590795
0.31815
-0.114287
-0.0444477
-0.0484109
-0.156571
-0.0221574
0.0301413
0.0503918
-0.212505
-0.0990843
-0.0456731
0.0416518
-0.0869694
-0.02171
-0.197231
-0.04384
0.0279087
0.0576643
-0.183714
-0.0500438
0.0205962
-0.0104528
-0.0258643
-0.174049
-0.00117458
-0.00413193
0.0286277
0.0600271
-0.0502307
-0.0530714
-0.0125553
0.120355
-0.0289022
0.139454
0.207003
-0.080896
0.107401
-0.138386
-0.178862
-0.181716
-0.0308332
0.0266106
0.0126516
0.0650917
0.251821
0.0955195
-0.150243
0.0332478
0.0136333
-0.145961
0.0877967
-0.162039
-0.016569
0.017829
0.00682357
-0.118007
0.0440583
0.0867892
0.0865703
-0.105135
-0.0127758
0.00429919
-0.0839256
0.112991
0.027712
0.0217631
0.0450247
-0.0435886
-0.0493357
0.0276498
0.0126807
0.00402205
0.00763902
0.00790353
-0.00719094
0.00772917
0.0209921
0.0122093
0.015526
0.0221842
-0.00862642
0.0297652
0.00125904
-0.0154046
0.0413932
0.0210934
0.00214027
0.0433216
0.0161935
0.003571
0.00898334
0.0103419
-0.00390129
-0.00235528
0.0259953
0.0196238
-0.00380014
0.00998897
-0.00893849
0.00356314
0.0159781
0.0189726
0.0151854
-0.0229173
0.0209523
0.00642523
0.00322589
0.00610628
0.00553197
0.0414159
0.00780361
0.00745646
0.0219923
0.0121534
0.00696765
0.000124341
-0.0288686
0.01064
0.0238976
-0.109087
0.0180005
0.0025878
0.0077307
0.110321
-0.00330504
-0.00566815
0.00945962
0.0952248
-0.0514857
-0.12616
-0.0398154
-0.16662
0.0124696
0.150948
0.2011
-0.0963864
0.106612
-0.261151
0.132135
-0.169013
-0.00879572
-0.03048
0.0139201
0.0603496
0.199319
0.10018
-0.150766
0.0488646
-0.0582418
-0.13835
-0.0297797
-0.101345
-0.0224514
0.0186722
0.0501181
-0.0649244
0.0535941
0.0828604
0.100785
-0.0417023
0.00396133
0.0323035
-0.0221692
0.108887
0.0198702
-0.00026865
0.0427797
0.00620739
-0.102882
-0.0483636
0.021776
-0.101859
-0.133597
0.0763665
0.0213178
-0.0960463
-0.253772
-0.105102
-0.128543
0.0769236
-0.0432393
0.0766226
-0.102757
0.0184242
0.145935
0.119809
0.102782
0.0760267
0.0642259
-0.256024
-0.161548
-0.211197
0.00682662
0.0596688
0.260696
0.0924413
-0.0545075
-0.112008
-0.203953
-0.154142
-0.0858385
0.0778455
-0.243108
0.00570563
-0.155105
-0.0186563
-0.0568798
0.00521071
-0.00566568
0.0856363
0.0771101
-0.0536066
0.107622
0.0846941
-0.103891
-0.0387481
-0.151134
-0.247713
-0.0132259
0.251121
-0.171053
-0.0010102
0.0404525
-0.223014
0.0137001
0.0317656
0.0849837
-0.0560622
0.132494
-0.0614153
0.0158611
0.0829184
0.135677
0.325807
-0.0361861
-0.157334
-0.00640783
-0.0913517
-0.235575
-0.0392548
0.0260868
0.09908
0.0170364
-0.0124645
-0.201731
-0.154505
-0.0803354
-0.0317509
0.0718806
-0.0321646
-0.127239
0.0427415
0.121118
-0.0115567
-0.0175741
-0.0235285
0.429138
-0.158056
-0.162674
-0.0601322
-0.0299597
0.001976
-0.0746535
-0.0536689
-0.066602
0.028965
0.0143941
0.0773608
-0.221242
0.28526
0.127081
0.0254472
0.0124794
-0.0106023
-0.0429889
-0.0198698
-0.0791342
0.057743
-0.0540745
-0.198802
-0.0591705
-0.082952
-0.0287723
0.0377643
-0.0421913
-0.183919
-0.0164383
0.387874
-0.0210027
0.0146877
0.0257535
-0.0998039
0.0689518
-0.0151982
-0.119875
-0.0687805
0.069092
0.0892821
-0.0903604
-0.0223129
0.0289598
-0.276169
-0.0350035
-0.0555837
0.050959
-0.0182447
0.115724
-0.00518222
-0.159528
0.077247
0.0524693
0.0113391
-0.161044
-0.0471363
0.100576
-0.034369
-0.140329
-0.00372355
-0.27785
0.11515
0.0530445
0.075818
0.0613241
0.0629702
0.0361507
0.0376503
0.0850765
0.248621
-0.0312107
0.0403454
-0.0947843
0.0341758
0.0481582
0.18989
-0.0175417
-0.0220953
0.0111572
0.145534
0.103088
-0.00597314
0.0885591
0.0532328
0.0778449
0.00392842
-0.168241
-0.0421982
-0.0242963
-0.173325
-0.000698837
0.00706037
0.105429
-0.163279
0.0800653
-0.0308106
-0.210023
0.00106719
0.108981
0.0776359
0.015396
-0.0405428
-0.0515528
0.106379
-0.0583203
-0.0405341
0.124622
-0.00923008
0.0299148
0.0724391
0.0915721
0.222344
0.0746165
0.107263
0.0664403
-0.135846
-0.00540737
0.00300108
-0.0130246
0.208999
-0.0993252
0.0864001
-0.0391367
-0.0775006
-0.0254935
0.139036
-0.0203573
-0.00195032
0.00430005
0.202028
0.133507
0.00230226
0.110125
-0.0517327
0.0868771
0.00217348
0.0112636
0.0165623
0.00953999
-0.213682
-0.0444545
0.0195932
0.16248
-0.128987
-0.0281076
-0.0170972
-0.16443
-0.0493519
0.111231
0.0682568
-0.159933
-0.112487
-0.0617276
0.0494987
-0.091673
0.011534
-0.198587
-0.0108845
0.0233481
0.0826684
-0.205897
0.1868
0.0972795
-0.00844407
0.017818
0.0894522
-0.0450184
0.023248
0.0632992
-0.0435542
0.024399
0.111891
0.0506167
0.0185188
0.0391446
0.0629345
-0.00433444
-0.0217521
-0.0275478
0.204724
0.0817454
-0.0581261
0.0132002
0.0059485
-0.0537135
-0.0222273
0.0202167
0.00619666
-0.082945
-0.0249135
0.0326268
-0.0419517
-0.104431
0.0220018
0.0932082
0.0175084
-0.036665
-0.15829
0.198333
0.0512173
0.0862432
-0.173686
-0.02573
-0.0133061
-0.116824
-0.00658068
-0.0429475
0.0122358
-0.0691879
0.0571445
-0.170213
0.0739892
0.054755
0.00512581
0.0234567
0.0544536
-0.00501711
0.0113707
0.0346082
0.0206574
0.0298176
-0.0237717
0.00521368
0.0631295
0.0428761
0.084424
0.0246026
-0.0508296
0.0136268
-0.036898
0.0608049
0.00243271
0.0202317
0.0135856
-0.00601937
0.00158107
-0.0321619
-0.0151007
-0.0436008
0.010904
0.0127972
0.0121538
-0.0536854
0.00322734
0.0447331
-0.00954059
0.0217464
-0.0268533
0.129615
0.0414532
0.0841645
-0.0403702
-0.0161672
0.0161655
-0.0385978
0.0023794
-0.00689634
0.00446412
-0.0224758
0.0400185
0.0642852
0.20691
0.0672686
0.0251994
0.062958
-0.0280879
0.0784044
0.0743393
0.21253
0.0368414
-0.164133
-0.0179702
0.000166275
0.0391504
-0.140725
0.10775
-0.0205426
-0.017511
-0.02523
0.0398971
-0.00521344
-0.0576
0.0645864
-0.231984
0.0418212
-0.0313167
-0.127098
-0.0553146
0.0139214
0.0342135
-0.149999
-0.0579071
0.129706
0.0458913
0.20189
-0.0653459
0.0572579
-0.163659
0.181088
0.0207258
0.0552889
0.105251
-0.00717462
0.0333844
0.00119095
-0.0411216
0.0169044
0.030487
0.0480327
0.116173
-0.157888
0.177109
0.103969
0.0261369
0.0443544
-0.0551878
-0.01731
0.0344353
0.110541
-0.13941
0.0917605
0.112904
0.0949831
-0.101942
0.0337242
-0.0323982
-0.18971
0.047919
-0.0794123
0.197759
-0.0974765
-0.0627116
0.0453741
0.0852218
-0.057203
-0.0241406
-0.0610086
-0.0788364
0.033038
-0.0094937
0.0832116
-0.0631318
0.0811966
0.0807599
0.0435242
0.0108029
-0.0661389
-0.0202505
0.205426
-0.0318334
-0.0732769
-0.0242095
-0.0145782
-0.0500559
0.00374415
-0.0490301
-0.00834954
0.0385706
0.0141265
0.0923937
-0.158478
-0.264745
-0.0423512
-0.0208513
-0.0385084
0.117237
-0.00775775
-0.0328551
-0.0606339
0.0219748
-0.0531655
-0.0942461
0.0221482
0.0906078
-0.0845078
0.0768851
0.221707
-0.00613384
0.0977778
-0.259592
0.117279
-0.169849
-0.0532532
0.0107513
0.0442399
0.0694529
0.321243
-0.170574
0.00296094
0.00384501
0.00108782
-0.1563
0.11985
-0.0551634
-0.084824
0.072157
-0.0181109
-0.166743
-0.0913216
0.049416
-0.102439
-0.113187
0.0255147
-0.0100573
-0.00457035
0.122406
0.00975646
0.0161872
0.0038848
-0.0662612
-0.225388
0.0365127
0.00306369
0.00225893
0.000883126
0.0193926
-0.00524185
0.00767235
0.0324805
0.00777978
0.0102851
0.0391556
-0.0216355
0.0263858
-0.0231909
-7.45213e-05
0.0231144
0.0309063
-0.0105483
0.0806125
0.032255
-0.0175059
0.00683608
0.0404082
-0.00285543
-0.0156967
0.0252342
0.0262763
-0.0239774
0.0100175
-0.000108164
-0.0113315
0.0736435
0.0114644
0.00369859
-0.0327552
0.0164615
-1
-0.0117846
0.0145182
-0.00529886
0.0301992
0.00488409
0.00880998
0.00737577
0.00438761
0.0100952
-0.00354827
-0.024846
-0.00437553
0.0319211
-0.193584
-0.0668832
-0.0273271
-0.0184449
0.0251258
0.0226222
-0.028836
-0.0424406
0.026368
0.0498652
-0.126314
-0.0496309
0.0771913
0.0363428
-0.0204912
0.119754
-0.056802
0.0926047
-0.204839
0.0592508
-0.14611
-0.0477057
0.0123843
0.00260875
0.0637832
0.158182
0.0830086
-0.0694233
-0.0149283
-0.0313551
0.117754
0.183839
-0.126756
-0.0791794
0.0289931
0.00730434
0.112867
-0.164271
0.0300784
0.0121705
0.101909
0.0268632
0.00721279
0.0169535
0.0738789
-0.0133787
-0.0126081
0.0506596
-0.0576938
-0.166529
-0.0701518
-0.0910558
0.0305573
-0.0691548
-0.208443
-0.0219185
-0.0661341
-0.177913
0.121234
-0.137949
-0.222935
-0.122704
-0.0989646
-0.27296
0.0237349
-0.0526518
0.0967771
-0.0239562
0.432654
-0.249464
-0.0519696
-0.0400425
-0.0646271
-0.0623653
-0.0168354
0.0840227
0.05248
-0.0931335
-0.137601
-0.0816231
-0.0448229
0.268568
-0.25963
-0.239546
-0.00259853
0.0593215
-0.113885
-0.290782
0.0886796
-0.0154308
-0.184555
-0.0871346
0.0158389
-0.154516
-0.00545272
0.112822
-0.0582397
0.0406367
-0.185934
-0.0311486
-0.0291172
-0.0321577
-0.0465208
-0.0784224
0.0503875
-0.0234996
-0.0637382
-0.19123
-0.0951884
-0.0954737
-0.156384
-0.0721618
-0.0826742
-0.135736
-0.0716872
-0.0643809
-0.137417
-0.0372269
0.268778
0.0615793
-0.0557181
-0.0759478
-0.117058
-0.0323352
-0.0170299
0.0053755
0.0126098
0.046334
-0.073884
-0.103792
-0.0434975
0.0330588
0.0397332
-0.181122
0.015104
-0.0835679
-0.0272401
-0.132982
0.00631549
-0.0412034
0.0166432
0.0161314
-0.0360947
0.0625422
-0.0235886
-0.0523568
-0.0398349
-0.00163005
-0.140619
-0.0142488
0.102562
0.0945469
0.00215125
0.0396596
0.0882265
0.0605788
0.0423964
0.0903497
0.118254
-0.135865
-0.178278
0.0185519
-0.255103
-0.137655
0.264043
0.148174
-0.187596
0.113602
-0.328873
0.116711
-0.145247
0.0169346
0.106213
0.0555759
0.0510958
-0.0308299
0.0119429
-0.174261
0.0525519
0.0722226
0.120227
0.0318583
-0.0495876
0.152465
-0.0658288
0.0792837
-0.00475122
0.224935
0.0930093
-0.189796
-0.0424284
-0.0161384
0.0564869
-0.0879012
0.0465114
-0.0244248
0.0360847
0.0371055
0.0699109
0.0877801
0.0241209
0.0083102
0.0136681
0.0135505
-0.00512857
0.00752874
0.00751381
-0.0234436
0.0634169
0.00554979
0.0300535
-0.00998728
-0.016395
0.0274902
-0.0233959
0.0274918
0.0401633
0.00333893
0.0675097
-0.00736309
0.0115272
0.0188974
-0.0383988
-0.000232773
0.00497364
0.0634079
0.0379636
0.0731003
0.0172651
-0.0286176
0.0105662
0.0310951
-0.0104158
0.0221166
0.0189822
0.0393717
0.00329554
0.00803889
-0.00644954
-0.0383185
0.0128039
0.00370298
0.0206748
0.0140985
0.0227273
0.0212485
-0.0125342
-0.00428558
0.0404724
0.0281499
0.0134433
-0.0294598
0.10881
0.0771469
-0.0987107
0.0238306
0.0545775
0.0806361
0.183661
-0.00343761
0.10343
0.0239933
-0.103097
-0.0160155
-0.0634106
-0.0549835
0.102811
-0.0191086
0.194719
-0.0892389
-0.0150358
0.113482
0.000788992
0.0559303
-0.00645109
0.0314312
0.0453452
-0.180478
-0.177669
0.0189924
-0.0228186
0.236155
0.0275295
0.0652469
-0.00437386
-0.173758
0.131939
-0.0893385
-0.0432049
-0.11574
0.0833182
-0.0134462
0.0420649
0.0459134
-0.0365789
-0.197522
-0.0111398
0.0361445
-0.145947
0.0192056
-0.167773
-0.0626124
0.0536028
0.0259623
-0.0266834
-0.0355255
0.030248
0.00585346
0.287034
-0.040963
-0.0101805
-0.0504819
-0.0149267
0.0575504
-0.107619
0.00247326
0.0678325
0.0236947
-0.00746912
-0.00636663
0.00283196
0.054979
-0.00436779
0.0463592
0.00661213
0.120638
0.0718958
0.0356555
-0.148958
-0.0283325
0.0281049
0.215153
-0.0765755
0.08907
0.0374219
-0.184498
-0.0629882
-0.153765
-0.0108063
0.0231927
-0.0353067
0.013804
0.0813961
0.000423371
0.0411494
-0.150485
-0.0168305
-0.111218
0.0641103
-0.149637
0.0854398
-0.000128521
0.00180383
-0.0042468
0.0345245
0.0428612
-0.0148631
0.0557618
0.00524904
0.103182
0.0919594
-0.0108012
0.118002
-0.0587657
-0.0390148
0.0717763
0.0661614
0.0346256
0.216217
0.0567401
0.0585251
0.00658195
0.128691
-0.0420827
-0.00442401
0.0452725
0.0183918
-0.0364377
0.0489381
0.0471884
0.0328488
0.153579
-0.0191506
-0.0473751
-0.0807279
0.0128388
-0.176749
-0.0237555
0.00972608
0.0310399
-0.173801
-0.0110007
-0.00179807
0.0110705
0.0151325
0.0224194
-0.0115445
0.0505617
-0.0044392
0.081739
-0.245483
-0.113533
0.0400531
0.0122866
0.0298111
0.036275
0.024093
-0.0684825
0.338931
-0.0201385
-0.164871
-0.080226
-0.204044
-0.0173833
0.0421978
0.0961639
0.0565035
0.0733646
-0.327429
0.0855838
0.125424
0.0257434
-0.00756819
0.0732793
0.0344815
-0.0112481
0.110063
-0.235419
0.112069
-0.0256267
0.124317
0.135086
0.0509585
-0.00710104
0.0225416
-0.210165
0.0493641
-0.198152
0.041857
-0.192823
0.116085
0.0900713
0.114348
-0.144642
0.035449
0.0914724
-0.0238719
-0.0795298
0.0155215
-0.236894
0.229069
-0.152406
0.0333837
0.0788615
-0.225264
-0.0326112
0.0380184
0.0525954
-0.192223
0.0725414
0.0349554
-0.179947
-0.115519
0.124728
0.244345
-0.11051
-0.212509
-0.0436158
0.0129447
-0.174207
0.0138653
0.0609134
-0.0734309
0.0281344
0.0228243
-0.037144
-0.118606
-0.0820845
-0.0524896
0.00153677
-0.0267396
-0.153585
0.0182398
0.137242
0.0640756
-0.0704771
-0.169582
0.342047
0.101546
-0.0605007
-0.191083
-0.0223007
-0.0520395
-0.11786
-0.0319429
-0.0521963
0.04249
0.07858
-0.177105
-0.21233
0.0241302
0.00860661
0.0113231
0.046045
-0.0120347
0.00271631
0.0748931
0.214734
0.00171071
0.105736
-0.0591027
0.10987
0.0530772
0.0829029
0.0147895
0.0302068
-0.0536481
-0.00914193
-0.104114
-0.0358175
-0.0236241
0.041999
-0.164405
-0.0145877
-0.0142005
0.0521246
-0.0224207
0.0292969
-0.0189952
-0.156658
-0.00388559
-0.0459086
0.0586362
0.193054
0.0175402
0.0021563
0.046569
0.0866134
-0.00785921
0.0391928
0.0447229
0.00980131
0.00445046
0.00979924
0.0287282
-0.00213238
0.0558766
-0.00602754
0.113108
-0.000679339
-0.167153
-0.00428806
-0.0331578
0.0247666
0.0891974
-0.00476437
0.0659355
0.121303
-0.0572134
0.0355706
-0.158863
-0.143421
0.121106
0.133197
0.168774
0.253205
-0.124899
0.0780642
-0.346747
0.0622693
-0.152228
-0.0336242
0.0418656
0.0115029
0.116101
0.23135
0.0820427
-0.0892597
-0.100292
0.0730356
0.117996
-0.149664
0.00530068
0.180716
-0.141584
-0.0648491
-0.180723
0.0169112
0.0504239
0.115518
-0.146024
-0.000949921
-0.0141865
-0.0589812
-0.177614
-0.0768261
0.0846772
-0.1724
0.0521847
-0.151141
0.0604983
0.00957175
0.0601409
0.0751845
-0.135726
0.0129873
0.0458328
0.0474091
-0.0589284
0.111033
0.00932866
0.0907387
-0.0822947
0.054339
0.0177565
-0.195222
0.0319636
-0.0621883
0.0177864
-0.146146
-0.0665016
0.0664517
-0.044083
0.0159217
-0.0165052
-0.262395
-0.0771406
-0.188353
-0.00698469
0.0270249
-0.0909788
0.129961
-0.227178
0.0695384
0.0240578
0.0194961
0.0901593
0.0611704
-0.033902
-0.00884213
0.123028
0.0379197
-0.0202857
0.118238
-0.0977266
0.0325176
0.0104221
0.0122219
-0.151385
0.0711871
-0.335073
-0.175197
-0.00105673
-0.0409764
-0.0599909
0.0242673
0.0203287
-0.000366616
0.207693
-0.0224704
-0.0641885
-0.0530612
0.124896
-0.0947897
-0.166186
0.13248
-0.164798
0.0198326
-0.152356
-0.0347563
0.0404616
-0.0154406
0.0848532
0.0250849
0.00402326
0.0742011
-0.142354
-0.226656
0.0368233
0.0400034
0.0552871
0.0856297
0.121782
-0.041493
0.0231073
0.117678
0.00445704
-0.34153
-0.048822
0.117612
0.108676
0.101427
0.0677837
-0.158371
0.0340264
0.0551525
-0.0170767
-0.0264622
-0.0690435
-0.310943
0.0845043
0.0360002
0.000732181
0.0271393
-0.0244131
-0.0357612
0.00320248
-0.00759297
0.0281219
0.0675508
0.0649091
0.0444751
0.0214761
0.0491312
-0.0710655
0.0663539
0.0321728
0.0383539
0.114403
-0.0460248
0.0638313
0.0132087
-0.0458389
-0.0478782
0.0326553
0.140189
0.0446762
0.0412413
0.00897913
-0.0152517
0.0444669
-0.146507
0.0512273
0.0475465
-0.00621605
0.0209451
-0.109597
0.0669832
-0.0281528
0.0109742
-0.0534816
0.0033928
0.00910333
-0.0145247
0.0613389
-0.0131933
0.00401447
-0.0927921
0.0672936
0.0836316
-0.00885327
-0.00807542
-0.106944
-0.113377
-0.0395806
-0.144519
-0.0115175
0.0624764
-0.24945
-0.180245
-0.0169913
-0.0662014
-0.0718526
-0.0398225
0.0230852
-0.277623
0.121347
-0.0653784
0.00489016
-0.00700645
-0.0785697
-0.135514
-0.371815
-0.0122283
-0.046853
-0.393367
-0.242405
-0.165852
-0.216556
-0.23301
-0.110793
0.303085
0.134182
-0.0942881
-0.0743646
-0.181789
-0.490292
-0.00960214
-0.0119874
-0.063334
-0.421701
0.0416717
-0.0767608
-0.18834
-0.158771
-0.165958
0.0260411
-0.162534
-0.216018
-0.0113555
0.168661
0.0741252
-0.00229325
-0.022247
0.0870704
-0.00372108
-0.0583411
-0.176072
0.0997192
-0.0360908
-0.158019
-0.126288
-0.0896388
0.00797518
0.0767529
-0.0817027
0.0223405
0.00377205
0.311102
0.102128
0.0340367
-0.015986
-0.170056
0.0274737
-0.0101012
0.030038
0.00581601
-0.102803
0.0636639
-0.136881
0.000748974
0.0722156
-0.222411
-0.0907843
-0.0305902
0.0292689
-0.239833
0.0919043
0.0391057
-0.0542498
-0.253161
-0.0834546
0.0226325
-0.207914
-0.0216076
0.0211367
-0.0612588
0.0358297
-0.0275076
-0.15683
0.066869
0.0207576
0.0202998
0.014715
0.0518783
0.0239801
0.018596
0.0507412
0.0388917
-0.0376952
0.00461819
0.00977704
0.0222352
0.0225544
0.0493891
0.0949748
-0.0248554
0.0342766
0.0225835
0.0514273
0.0476207
0.0197169
0.0542425
0.0216836
0.0268703
0.0540832
0.0429595
0.00617437
0.0453377
0.0231692
0.0443546
0.0444516
-0.094682
0.0463331
0.0130465
0.0304084
0.014531
0.0438004
0.0251524
-0.0310036
0.0187322
-0.0245359
0.0162061
-0.027359
0.0379844
0.0372419
0.0108866
0.0735205
0.0124291
0.0681477
0.0312112
0.0441729
0.00827659
0.0322907
0.0637314
0.0173115
0.00995174
0.0131325
0.132783
0.0497402
-0.12754
-0.0401295
-0.183184
0.064549
0.158988
0.103003
-0.0873611
0.0617332
-0.227845
0.0943916
0.0578543
0.026164
0.0139528
0.0247145
0.020815
-0.0227896
0.00951197
-0.0432685
0.0326756
-0.00411898
0.0572607
-0.0642092
0.00316097
0.0595512
-0.02417
0.0928454
-0.01853
0.119603
0.0687996
-0.177285
-0.0122043
-0.00298928
0.0623888
-0.0118355
0.038909
0.00886333
0.000172054
-0.0144581
0.0513956
0.0136489
-0.0282778
-0.0432867
0.0332829
0.0401396
-0.0250504
0.029947
0.0984199
0.226879
0.0387692
0.0462664
0.0159298
0.03498
0.0306909
0.0511789
-0.0120005
0.103514
0.0047648
-0.0389622
0.0494288
-0.0163056
-0.10173
0.0595716
-0.202818
0.0318155
-0.0470372
0.0796649
0.0733575
0.0602009
0.011538
-0.153459
-0.0567611
0.226729
-0.017866
0.193566
0.00364556
0.0656494
0.0165034
-0.0562712
-0.0072992
0.072665
-0.00310273
0.00175721
0.0214439
-0.00551791
0.00845406
0.0595646
0.0409572
0.00694614
0.09023
-0.0356101
0.0346336
0.0318851
0.0138284
0.0140263
-0.21057
-0.022666
0.00966973
0.0256749
-0.0211516
-0.0512532
-0.0159668
0.0249282
-0.0240463
0.0103535
0.196075
-0.0335621
-0.131385
-0.0280213
-0.0456631
-0.217107
-0.0437027
0.0155716
-0.0163997
0.0275989
0.00531832
-0.0342879
-0.0388112
-0.101671
-0.000670645
-0.00404743
-0.0350611
0.0610792
-0.123886
0.00563143
0.0445496
0.00777973
-0.143265
0.0609542
0.111575
0.0324447
-0.165686
-0.028526
0.000178756
-0.102787
-0.0211075
0.00424783
0.012554
0.0553744
0.0103714
0.0242787
-0.0243087
0.0189109
-0.179008
-0.171156
0.0859472
-0.00585066
0.117011
0.156472
0.242419
-0.052267
-0.0615859
0.120313
-0.13992
0.100888
0.160564
-0.0889734
-0.0740302
0.0428112
-0.152074
0.0779695
0.0850286
-0.191112
-0.0647533
0.112055
0.0614631
0.00438005
0.0117695
0.1158
-0.247958
-0.0056861
0.0729566
0.256118
-0.0437556
0.227748
0.0697219
-0.236468
0.0166235
0.0574025
0.0520894
-0.0877587
0.00128225
-0.0406188
0.0581283
0.0233824
0.0166241
-0.258413
0.0323578
0.0917458
-0.311614
-0.0161659
0.06824
0.0505618
0.0184005
0.0214933
0.113558
0.00217769
-0.00536167
-0.0203235
0.139085
-0.0183037
-0.0358317
-0.0578837
-0.160626
0.0204398
0.166412
0.138082
-0.0651935
0.0743891
-0.0573731
-0.141209
0.0931071
0.0291579
-0.0287267
0.0137626
0.0300561
0.0745122
0.050473
-0.0622943
0.0674836
-0.0390394
0.0927567
-0.0701858
-0.099167
0.0204034
-0.0162997
0.0847889
-0.0180009
0.132272
0.0836533
0.109349
-0.0466278
-0.0169122
0.0524912
-0.0362671
0.0617461
0.0302975
-0.00943969
-0.0139057
0.0340169
0.057944
0.13602
0.061493
-0.0686499
-0.00523748
-0.0123884
-0.0660311
0.01084
-0.0087245
-0.153806
-0.0222933
-0.179385
0.0926619
0.0402627
-0.0124587
-0.0345869
0.153992
-0.148878
0.0296514
0.291115
-0.0366816
0.0755057
-0.0379857
-0.0830334
-0.0687052
0.0362835
0.177993
0.0525613
0.0663313
-0.121861
-0.0296539
0.0624108
-0.283374
-0.208906
0.0864851
0.0157766
-0.111548
-0.0983936
0.038175
-0.0268766
-0.0334813
0.0311989
0.0451787
-0.043369
0.0906625
0.0861758
-0.11414
0.0102541
-0.0663278
0.0145173
-0.138088
0.109971
0.0813815
0.0390865
0.0733729
0.0338667
0.0235395
0.030205
0.0304052
0.0316779
0.0911919
-0.119204
0.0123925
0.0528673
0.126482
0.177538
-0.00204933
-0.128661
0.0286979
-0.203957
0.0392742
0.0257892
0.0577434
0.0101472
0.034198
0.020989
-0.144665
-0.0441212
-0.0592085
0.0338797
0.00950108
0.0196211
-0.032331
0.012516
0.11643
-0.0233383
0.064399
-0.000401322
0.208419
0.0523955
0.0629139
-0.0223174
-0.0211851
0.0280716
-0.0378632
-0.0148702
0.00835258
0.0107076
0.00155322
0.134528
0.0965144
0.0422918
0.0448986
-0.00477455
-0.0089358
-0.278991
-0.0304411
-0.0113113
-0.0300995
-0.114051
-0.16703
0.0682459
0.0662593
-0.0808288
0.02571
0.23791
-0.0377429
-0.0965624
-0.0115937
0.119028
-0.293787
-0.00259446
-0.0284704
-0.0926796
0.0297924
0.0362774
-0.0161161
-0.0592882
-0.0570236
-0.0530246
-0.0606378
0.00626685
0.223162
-0.198262
-0.0132987
0.0987993
-0.0512524
-0.22252
0.03377
-0.144656
-0.00392232
-0.226952
-0.0574467
-0.0348273
-0.109211
-0.0136917
-0.0272643
-0.0011355
0.124848
-0.0189839
0.0711519
0.0422857
0.0309399
-0.00458734
0.00826849
0.0156007
-0.0461475
-0.00499271
-0.0252046
0.00215696
-0.00991641
0.0829694
0.040163
-0.0108692
0.0295445
-0.0664065
0.104807
0.0327768
0.0456902
0.144887
0.000199274
0.0973442
-0.00262409
-0.0584104
-0.0253982
0.0351897
0.157865
0.0644955
0.0128243
0.0226321
-0.036299
0.0706931
-0.0153257
0.0266229
0.017427
-0.00420526
-0.00232676
-0.12354
0.0299757
-0.011112
-0.032025
-0.0742897
0.00381392
-0.00998696
-0.019183
0.0595493
0.0136833
0.00669134
-0.110035
0.0351333
0.0628622
-0.3139
-0.268466
-0.0312432
-0.128934
-0.0326084
0.0781205
-0.0341226
-0.0184961
-0.106437
0.0458482
0.0318665
0.0359412
-0.166466
-0.181673
-0.083258
-0.207777
-0.180932
-0.039329
0.0180245
-0.0104223
0.0255409
-0.11833
0.0978291
0.0274065
0.0255183
-0.0528102
-0.0964103
0.116408
0.00875184
0.121965
-0.0245124
0.386042
0.0628423
-0.234026
0.0379541
-0.0657464
0.0691555
-0.65047
-0.0223778
-0.122832
0.1313
0.0603045
-0.0459108
0.101745
-0.0510802
-0.022621
0.0209508
-0.209401
-0.278173
-0.226034
0.211354
0.102128
0.0229663
0.044372
-0.150081
-0.0662936
0.0179852
-0.0125385
0.0200477
-0.0372107
-0.152664
0.0273995
-0.0173325
0.0175062
0.0979671
0.0277973
-0.0484959
-0.0851741
0.272853
-0.152561
-0.18725
0.059684
-0.0973448
-0.0160618
-0.0660776
0.0619453
0.00985804
-0.0304163
-0.00435161
-0.0546091
-0.143632
-0.229572
0.0397273
0.061178
0.0433416
0.0416412
-0.231238
0.215103
0.0810581
0.100081
-0.236093
-0.0251208
0.0204508
-0.0876682
-0.015572
0.0118666
-0.016035
-0.0422132
0.0835406
-0.196196
0.0550689
0.0401938
-0.0113656
-0.00654826
0.101416
-0.00488559
0.00201638
-0.00412511
-0.0536226
-0.0387218
0.0282468
-0.0553517
0.00323078
0.017633
0.132601
-0.0896771
-0.00968703
-0.0376994
0.0683943
0.125495
-0.0907571
0.00377604
0.0100598
-0.00651844
-0.0216081
-0.215465
-0.0746497
-0.0347912
-0.0363673
-0.00810448
-0.0671446
0.0104039
-0.0584679
-0.0054182
0.00411459
-0.00248135
-0.0625189
0.0645962
0.07665
0.0651323
-0.0405631
-0.0224659
0.0136706
-0.0313623
-0.0819484
-0.0552849
-0.00716234
0.029014
-0.0197822
0.0467213
0.14946
0.113076
-0.0692857
-0.0458104
-0.0382693
-0.0180441
-0.0401552
-0.174206
-0.084182
-0.104675
0.135722
-0.040427
-0.0070165
-0.0055249
0.0225911
-0.0261075
-0.160207
-0.00606149
0.201991
-0.0500045
0.0570616
-0.0756124
-0.170173
-0.000974682
0.00140223
0.0583485
0.00143556
-0.00738532
-0.0930872
-0.143102
0.00781893
-0.253762
-0.27158
-0.10407
0.00593674
-0.0886139
-0.165768
0.112899
-0.02346
0.0287232
-0.0128374
0.0640476
-0.028016
0.122265
-0.0039825
-0.0901622
-0.0191647
0.0311321
-0.0941484
-0.141678
0.0541982
0.0518248
0.0371166
0.00849719
-0.139787
-0.00492375
-0.0118391
-0.00554743
0.167142
-0.0596459
-0.00414726
-0.035307
0.0949423
0.0225412
0.109452
0.158894
-0.0583562
0.089157
-0.00600812
-0.149888
0.133849
0.0188988
-0.0350107
0.0278429
0.0439534
0.154368
0.0781474
-0.118902
-0.149877
-0.0396151
0.115282
0.0794915
-0.173314
0.00546647
-0.0128187
0.0982469
-0.0492006
0.114015
0.0718278
0.0327398
-0.0823717
-0.0224013
0.0402995
-0.075453
0.07538
0.106997
-0.00361899
0.01521
-0.000287085
0.0480471
6.07344e-05
0.00338891
0.0208792
0.072084
-0.036242
0.00823996
0.135106
0.349174
-0.101828
0.126495
-0.0345364
-0.209369
-0.0518577
0.0932103
-0.0466552
0.0180296
-0.062103
-0.0834878
-0.0833122
-0.0800709
-0.130066
0.0695086
-0.258182
0.00670864
-0.0349186
0.0593876
-0.0204164
0.0869528
-0.067209
-0.248195
-0.0874992
0.0814032
0.109769
0.314522
0.0494923
-0.0357073
0.0382367
0.0810563
-0.041444
0.0312997
0.00809074
-0.00344282
-0.0430375
-0.000983376
0.00981804
0.0158965
0.090688
-0.026896
-0.17593
-0.0191251
-0.0720058
-0.00928617
0.0166123
0.0381469
0.0248715
0.0652547
0.0662478
0.153105
0.0296802
-0.146548
-0.202849
0.044946
0.0427252
0.0670733
0.141888
-0.145781
-0.113628
-0.0248514
-0.377991
0.0279594
0.04024
0.0292672
-0.215004
0.0371745
0.00109902
-0.191454
-0.121453
0.0409912
0.015182
-0.163614
-0.00913669
0.10992
0.017476
0.0825856
0.0415664
0.0161482
-0.157644
0.049772
0.0536975
0.0275922
0.119457
0.0184151
0.0169175
0.0377856
-0.0362385
0.00295097
0.0595432
-0.146393
0.0838325
-0.0978043
-0.0627979
-0.0548778
0.0243757
0.0523874
-0.169099
-0.00728288
0.0509398
0.0543204
-0.158456
-0.139671
0.0740311
-0.181399
-0.143479
0.0340578
-0.192741
-0.0886369
0.103594
-0.0760868
0.0824688
-0.202358
-0.0675042
0.0434223
-0.0108978
-0.0681348
-0.0135585
0.00221723
0.0100064
-0.262427
-0.08019
0.0703625
-0.0809005
0.0213829
-0.304069
0.114921
0.0272093
-0.0603436
-0.144748
-0.117079
-0.105186
-0.0906027
-0.153117
0.0486242
-0.0588498
0.102568
-0.0555765
-0.0111863
0.0179567
-0.00824816
0.124623
-0.0472809
-0.0429138
-0.00509152
0.026144
-0.00632113
0.101785
-0.00107399
-0.00813146
0.00376847
0.143106
-0.108981
-0.0243628
-0.0277734
0.0265941
-0.0136367
0.081555
0.181451
-0.0213524
0.0735466
-0.0176423
0.119446
0.104141
0.00701637
-0.00284744
0.0510302
0.0385047
0.180224
0.103899
-0.0290136
0.0839173
0.00439881
0.107575
0.174501
-0.170704
-0.0176095
0.0201394
0.0738315
-0.0713627
-0.00785775
0.0534916
-0.0327096
-0.0796501
-0.0364235
0.0279521
-0.0617781
0.0881488
0.0814061
-0.00200041
0.0633783
-0.0176021
-0.0249342
0.183703
0.0850885
-0.00645501
0.00762463
0.0430479
-0.0442813
8.29904e-05
0.0470183
0.0690403
-0.00183205
0.129036
0.0122769
0.0590446
0.0242806
-0.0709121
0.0755191
0.0726046
0.0144933
0.258332
0.0301567
0.0260353
0.0185836
0.0397183
-0.0491642
-0.0145481
0.0987763
0.0235397
-0.00399832
0.00708932
0.0306025
0.0234704
-0.125064
0.0401504
0.0525901
-0.0403316
0.0194423
-0.0341117
0.160901
-0.00399374
-0.0209962
-0.00568821
-0.00864493
0.0187711
-0.0136892
0.0376109
0.0130616
0.00780974
-0.119939
0.0222322
-0.164609
-0.0310997
-0.023079
-0.0484754
-0.0644404
-0.0676379
0.00412344
-0.0461631
-0.103727
-0.0363633
0.0523736
0.0586281
0.00449734
0.0475693
-0.0398302
-0.135821
0.101185
0.0945593
0.0580984
0.0955329
-0.0567941
0.11775
-0.0782571
-0.0563389
-0.0278339
0.0450056
0.127337
0.0606136
0.0435343
-0.0166175
-0.0550747
0.0761006
-0.0669313
0.0992167
-0.103563
0.0118683
-0.0517947
0.0840577
-0.12344
-0.0443781
-0.0185143
-0.140742
0.0487566
-0.020899
0.102186
0.0565081
-0.0285207
-0.0164695
0.024202
-0.091126
-0.01475
-0.158498
-0.127963
0.0183481
0.00725869
-0.0272265
0.0756401
0.0479926
0.153998
-0.00400529
0.0977888
-0.0937712
0.0445264
-0.0650073
-0.00188543
0.0186487
-0.144268
0.0233166
-0.0559993
-0.169272
-0.010449
-0.0709641
0.0118901
-0.269111
0.0385082
-0.00478926
-0.149295
-0.0683087
0.053352
-0.00387468
-0.208663
-0.065164
0.318719
0.0409678
0.0334012
0.00903783
0.0241586
-0.148408
-0.235234
0.00244588
-0.0245723
0.134293
0.0196549
0.00689964
0.06095
-0.0624364
-0.000607016
0.0550074
-0.139788
-0.00259744
-0.154087
0.0317586
0.0135388
0.0108155
0.00442639
0.00104998
0.00171098
-0.008795
-0.0262904
0.0315013
-0.00639918
0.0206142
-0.0147185
-0.0143998
0.00167806
0.00360376
-0.00760814
0.00889622
0.00471992
0.0400122
-0.000472893
0.0100594
0.00812183
-0.0218106
0.0126777
0.00424458
0.00619413
-0.00174353
0.00249938
0.0292749
-0.020436
0.00534851
0.00893097
-0.00904127
-0.0175159
-0.00682946
0.0227881
-0.0087256
0.0139502
-0.000340837
-0.0336347
-0.0144573
-0.00486461
0.00729273
-0.0119806
0.00146786
0.0218339
-0.00945246
0.00860786
0.00298472
0.0302209
0.0927687
-0.0228844
0.0134966
-0.0221146
0.107574
0.0376476
0.0288003
0.118315
0.0367678
-0.0113778
0.0735812
-0.0136333
0.0422801
-0.0529205
0.0649681
0.0375588
0.0141411
-0.0123099
0.173345
0.127775
-0.055186
0.0140364
-0.151827
0.0250721
-0.0335736
0.045404
0.0177429
0.00863107
0.0421856
0.0954802
-0.0241615
0.212852
-0.110209
0.0409814
-0.0167806
0.030559
0.0876608
-0.0694906
0.0570691
0.0379069
0.0948788
-0.0148105
0.0187345
-0.0129956
0.0109799
0.045038
0.0157012
0.0529454
-0.0609658
0.0705248
-0.0115519
-0.00453241
0.0298192
0.052295
-0.0258607
0.0167209
0.0749756
0.161256
0.0230037
0.0814919
-0.0295639
0.0581912
0.0107297
0.0676538
-0.00349576
0.031665
-0.011188
-0.0393307
-0.0442811
-0.0254315
-0.0791858
0.0606427
0.121032
0.0121844
-0.0328382
-0.0122804
0.0057277
0.0713631
0.0170667
0.106254
-0.0498975
0.0751434
0.0490672
0.169563
-0.00537104
0.0491529
0.0651718
0.0172421
-0.00998464
0.0598449
0.0473623
0.0074433
0.0136887
0.0169953
-0.00506726
0.0372593
0.0264971
-0.0368339
0.121788
-0.0188125
0.124754
0.0144152
-0.00849215
-0.0275619
-0.186754
0.0352681
0.0231811
0.0781518
-0.0539048
-0.0517506
0.0936706
-0.0160623
-0.0486465
-0.019862
0.160598
-0.0389848
0.0201233
-0.0533405
0.214276
-0.198115
-0.0801356
-0.00275279
0.116978
0.0392521
-0.0320869
-0.0743468
-0.0297639
-0.0126674
-0.0322741
0.0628239
-0.0588842
0.244082
-0.074075
0.0302267
0.00401127
-0.0319223
0.119714
-0.0524811
0.099452
-0.0160827
0.0968294
-0.0148527
-0.013825
0.0174145
-0.0470684
-0.00638376
0.0197595
0.117982
-0.0556645
0.118955
0.0599082
-0.00367991
0.0342007
0.00941468
0.0816978
-0.0054491
0.00167999
0.00639006
0.0764127
-0.0583882
0.0710676
-0.0232479
-0.0810189
-0.0530492
0.0163252
0.0175073
0.0326852
-0.00947143
0.147306
0.0813183
-0.0275186
0.0354195
-0.00258125
0.0298382
-0.00877847
0.0716711
0.0455496
0.0423485
0.065537
-0.0242799
-0.00572801
0.133026
-0.0607362
-0.0123243
-0.000564088
0.0582377
-0.0440524
-0.0280801
0.0242473
-0.105833
-0.0562009
-0.0235898
0.0146338
-0.0537118
0.016015
0.07955
-0.0155719
-0.00785215
0.0050748
0.0557997
0.13412
0.0733083
-0.0150336
-0.0141432
0.11636
-0.0334983
0.00286985
0.077982
0.0316083
-0.0235823
-0.138474
-0.018685
0.0562188
-0.0120602
-0.0279344
0.0513882
0.0855076
-0.0264114
0.264493
0.106161
-0.0200955
-0.000131589
0.0835724
-0.0279895
-0.0451167
0.0881811
0.0257482
0.0042015
-0.00486408
0.0446696
-0.0199432
0.02241
0.019222
0.00923091
-0.0487592
-0.00687647
0.00580289
0.124981
0.037346
-0.0620954
0.0503259
-0.00632569
0.00246557
-0.00641282
0.0216701
0.0181512
0.00802278
-0.0979452
-0.0179829
0.124999
-0.0149736
0.00985813
0.0570037
0.0326753
0.130536
-0.0147135
0.0102526
0.0285365
0.208867
-0.120445
-0.0256101
-0.0407232
0.0507772
-0.024252
0.0970108
0.1574
-0.0444643
0.0572386
-0.0272791
-0.135948
0.0749371
0.0557798
-0.00839622
0.049577
0.0236773
0.175726
0.105873
-0.0343362
-0.149748
-0.00849288
0.0901705
0.0909354
-0.156797
0.029312
0.00187479
0.132253
-0.0797309
0.0201269
0.0643691
-0.0669228
-0.0947268
-0.030755
0.0554426
-0.0736417
0.0846556
-0.141493
0.0013597
-0.0190974
0.0509903
-0.0118074
0.224556
0.0839345
0.020861
0.0453353
0.0140032
-0.0278851
0.0315122
0.0837186
0.10632
0.0574362
-0.158242
0.0223256
-0.0268657
0.0464258
-0.07241
-0.00797944
0.0293756
-0.0304665
0.310259
-0.000948747
-0.0720989
0.0695287
0.0518144
-0.049794
-0.0293804
0.0306812
-0.0127494
-0.0273056
0.080944
0.0324932
-0.0594987
-0.200592
-0.00149294
0.11145
-0.0302195
0.0583493
-0.124101
0.179428
-0.00877637
0.0487869
-0.128107
-0.0628038
0.0356929
-0.125598
-0.00838694
0.0294935
-0.00449067
-0.04881
0.103293
-0.193692
0.0502775
0.00952087
0.057554
0.0110508
0.113924
0.00392983
0.0108493
0.0983615
0.0989759
-0.0367378
0.0616031
0.00442097
-0.0658187
0.00874684
0.0322721
0.0113441
-0.0424078
0.00884995
0.120439
0.117177
0.0100522
0.0385974
0.0590922
0.0369517
0.0102769
0.0557223
0.0211038
-0.111471
-0.152061
0.0351623
0.00789904
0.273557
-0.175325
0.0312483
-0.00615838
0.0742294
-0.0369529
0.00850942
0.0433155
-0.067904
-0.0861778
-0.0349397
0.0081028
-0.108027
0.00214549
-0.143084
0.0044656
-0.00861489
0.0169568
0.0463762
0.096568
0.0590092
0.0513767
0.0599709
-0.171949
0.0266552
-0.00672447
0.043562
0.220046
0.12666
-0.00278779
-0.0244815
-0.169841
0.0121909
-0.13591
0.0508677
0.0754419
0.0437409
0.038114
-0.173301
0.0698014
0.0883819
0.0614808
-0.0605724
-0.0188117
-0.0267602
0.0143993
0.0913272
0.0921609
0.0394631
0.047412
-0.0336383
-0.180509
-0.0745348
-0.0781898
-0.140063
-0.229791
0.217031
-0.0874704
0.0271485
-0.227273
-0.000420397
0.0749474
0.0676833
-0.00208124
0.0886644
-0.0205614
0.00346693
0.116443
0.0746636
-0.108874
0.0086135
-0.0787861
-0.109369
-0.247491
0.0102414
-0.06152
-0.13293
-0.31684
-0.0936285
0.0509861
-0.0394824
-0.0911866
-0.132139
0.178128
-0.0862054
0.0331904
-0.0136408
0.0285752
-0.246402
0.028641
-0.14196
0.000377722
-0.0495057
0.0109774
-0.018632
-0.0499158
-0.0474944
-0.202778
0.0223438
-0.00289601
-0.166571
-0.0353649
-0.18392
0.060036
-0.237058
-0.117917
-0.000657922
0.120952
-0.0620915
-0.0736013
-0.0130403
-0.107809
-0.0183125
-0.0121078
-0.200571
0.00441155
0.0920592
-0.262835
-0.0738889
0.0331968
0.0247783
0.00839285
0.0158007
-0.00217471
-0.0147388
0.0274826
0.086959
0.0172263
0.0541894
0.0887026
0.0326552
0.0560089
-0.0233306
-0.0790125
0.125334
0.0815461
0.0235507
0.156809
0.00170063
0.064346
0.0131102
0.0551224
-0.0107991
0.0216447
0.150234
0.0689507
-0.00147325
0.0320388
0.0109443
0.0379556
0.0287825
0.100522
0.0727833
-0.0554661
0.0202701
-0.00839358
-0.0080137
-0.0146995
-0.0317254
0.098343
0.0408635
0.0020905
0.0637573
0.065535
0.0348262
0.0167716
-0.0820225
0.0342868
0.0439423
-0.0697854
0.00425641
0.0422997
0.0566673
0.06508
-0.00511206
0.0359277
0.0643055
0.283886
-0.0102461
-0.177321
-0.0436951
-0.24324
0.0644946
0.184655
0.241514
-0.081625
0.11083
-0.314181
0.103723
0.132501
0.0598704
0.00488243
0.0361409
0.0501644
0.143805
0.119273
-0.0871169
0.12536
-0.0144085
0.124305
-0.00808799
-0.0765589
0.0771882
0.00161753
-0.188219
-0.0544904
0.0640101
0.0857058
-0.214864
-0.0687368
-0.000346052
0.101929
-0.020469
0.109994
0.0869078
0.0050753
-0.00454279
0.105235
-0.0834035
0.0095124
0.0337736
-0.00432199
-0.00241128
0.116731
0.0090217
0.015051
0.0748525
0.124728
0.0146499
-0.0521901
0.0137445
-0.178824
0.0205041
0.0932605
0.20943
-0.082545
0.0998164
-0.103894
0.131885
-0.148272
-0.00477326
0.0560374
0.0122162
0.0485251
0.1916
0.0767962
-0.128309
0.0660379
0.0505157
0.121744
0.0408903
-0.105038
0.0579116
-0.00826048
0.0534717
-0.0239117
0.0822849
0.0615468
-0.148289
-0.0306335
-0.0103579
0.0360527
-0.0609028
0.102289
0.029457
0.0259006
0.0167502
0.00208074
0.00166974
0.0333923
0.0176106
0.0326304
0.0714393
-0.114764
-0.0353773
0.0690606
0.146513
-0.0933567
0.0874871
0.0454352
-0.201597
-0.10481
0.0724697
-0.101035
-0.0223118
0.0063178
-0.0601411
0.0445991
-0.172489
-0.0744562
0.0611126
0.0689775
-0.0321919
-0.0121434
0.103994
0.0263711
0.0955883
-0.0463018
0.113198
-0.0473854
-0.0299195
-0.156283
0.186642
0.0491556
-0.0353931
-0.0653201
0.046275
-0.0818172
-0.0553141
-0.0578863
0.0165413
-0.049655
0.0321243
0.00489111
0.0139689
0.0516405
-0.0308666
-0.15263
0.0363178
0.191718
0.103537
0.0105933
0.0356741
-0.0425142
-0.0258423
0.037525
0.104977
-0.111038
0.0522185
-0.149794
0.0655028
-0.0870273
0.00700992
0.0107443
-0.134971
0.0715664
-0.112429
0.269214
-0.0788831
-0.0954702
0.0312088
0.0282296
-0.0440869
-0.0484122
-0.0521414
-0.0424933
0.0113607
-0.014786
0.0621144
-0.102873
0.0450554
0.117699
0.0438365
-0.0185358
-0.0658321
-0.0668023
0.172869
-0.0174482
-0.0668496
-0.0406232
-0.0208452
-0.0429727
-0.0196018
-0.0691772
-0.00213425
0.0263072
-0.0247492
0.0721897
-0.181119
0.0141305
-0.0561676
-0.0226764
-0.0380639
0.0377543
0.0176396
0.0654881
0.229686
-0.0444615
-0.0227648
0.076778
0.0552817
-0.0456646
0.00165559
-0.0713645
0.139261
0.0349749
-0.0328063
0.154674
0.0238858
-0.0515386
-0.0139226
-0.244378
-0.0083428
-0.0293346
0.23605
0.0834358
-0.00467087
-0.0333142
-0.181909
-0.0340633
0.216054
-0.145844
0.112207
0.0327803
-0.0375893
-0.0571965
-0.0787305
-0.0235649
0.0174216
-0.0906991
-0.00408252
-0.0140223
-0.0916087
0.0607883
0.0143553
0.0547743
0.0515255
-0.0504589
-0.00975911
0.0391977
-0.030846
0.0157413
-0.00835071
0.0631714
0.0338938
-0.00334741
0.0506205
0.0536768
0.00286083
0.0373308
-0.0200539
0.0466421
-0.0557794
0.0750434
-0.00606841
0.0348108
-0.00292299
0.104394
0.0825802
-0.0380496
0.0192036
0.116275
0.0191656
-0.0239375
-0.0186613
-0.034597
0.0301732
0.046842
0.0605007
-0.0148428
0.163107
0.00129354
-0.0221654
-0.0333414
0.0472342
0.115854
-0.0768096
0.040568
0.0678015
0.0887643
-0.0200629
0.0169694
0.00170493
-0.00247707
0.0431847
-0.000803616
0.0493461
-0.024334
0.0296101
-0.152469
-0.0358302
0.00453822
-0.0294059
-0.256347
0.0215073
0.00654275
0.0295717
0.00965321
-0.17711
-0.0295454
-0.0189212
0.0210017
-0.048617
0.208825
0.167456
-0.0660164
0.0492681
-0.107706
-0.266538
0.110528
-0.0274575
-0.00465062
0.0538065
0.0517195
0.215506
0.0862406
-0.124772
0.0259946
-0.0178392
0.0883991
0.163588
-0.262423
-0.00687431
0.066276
-0.0152689
-0.103504
-0.0635549
0.122577
-0.026004
-0.101005
-0.0236891
-0.0100814
-0.0694819
0.0946005
0.0340302
0.0253136
-0.174647
-0.0597303
-0.113893
-0.0144731
-0.00385393
0.0140351
0.0276128
-0.00804141
0.0105527
0.0363547
0.082763
-0.0195953
0.0486313
-0.0202612
0.0514116
-0.014998
0.0437212
0.00390004
-0.00919078
-0.0179676
-0.00948993
-0.0438069
-0.0149149
-0.0124935
0.0241716
0.0615639
0.00423573
-0.00146015
0.000777997
-0.00758578
0.0328118
-0.00215197
0.0575846
-0.00995937
0.0376411
0.0281579
0.0848479
0.00884675
0.0028374
0.0210373
-0.00111152
-0.00454009
-0.00499521
0.00604324
0.00555448
-0.00597078
-0.00352257
-0.00364566
0.00970624
0.0215921
0.00694189
0.0590962
-0.0120902
0.145939
0.0502539
-0.159058
0.132558
0.111668
0.0351379
0.0704137
0.102838
0.383659
-0.109535
0.00310339
0.0333646
0.0131296
0.0884173
0.152017
0.195925
-0.0767268
0.114957
0.059045
0.11475
-0.18022
-0.166179
-0.0235369
0.107644
0.0815198
0.111214
-0.160898
-0.00655658
-0.28133
-0.016335
-0.16696
0.247385
-0.231632
0.141339
-0.0142934
-0.273039
0.0610659
0.0935234
0.056275
-0.0366027
-0.0344728
-0.0601827
0.099088
-0.0780734
0.0642857
-0.289424
0.0130116
0.125987
-0.217035
0.118459
0.16454
0.0469625
-0.00299215
0.0117068
-0.0357741
-0.00712494
0.011589
0.0514579
0.0614347
0.0733979
0.126803
-0.0202487
0.00683159
0.0180498
-0.0680908
0.0307294
0.0578231
-0.0118558
0.250081
-0.0445375
-0.0376182
0.0293033
0.0640771
-0.0394026
-0.0218702
0.0496775
0.011998
-0.00509119
0.0417309
0.0317286
-0.0345499
-0.150821
0.0421735
0.0480452
-0.0286527
0.025525
-0.0365207
0.0898595
-0.0234003
0.0313566
-0.0385045
-0.0230541
0.0248635
-0.0470712
-0.00300838
-0.00408704
-0.0105372
-0.0436045
0.0369926
-0.136663
0.057241
0.0683515
0.0600392
-0.167421
-0.166579
0.0351004
0.119228
0.138007
-0.0308176
-0.254704
-0.224084
-0.158465
0.0807334
-0.31445
0.158469
-0.0105026
-0.144347
0.0295753
-0.431805
-0.18868
0.0355061
0.116888
0.0810754
0.067464
0.0324467
-0.144795
-0.0560206
0.00510002
-0.0128044
0.0984279
0.0319445
-0.144792
-0.301247
0.375196
-0.0187566
0.0588124
0.0200574
0.218635
-0.0242462
0.0493119
0.0113537
0.0248194
0.02393
0.0350172
-0.00803978
-0.0345635
0.0592044
0.00636093
-0.330209
0.0259222
0.15515
0.0717766
0.037167
0.0664518
-0.0132327
-0.0612817
0.0320438
0.0373566
0.0559996
0.0342586
0.0879944
0.0544013
0.0225799
0.0688986
-0.0687755
0.0136549
0.00333174
-0.00108188
0.159617
-0.0501189
-0.0125046
0.0716838
-0.0643032
-0.0503449
0.00500678
0.0979241
0.0188639
-0.0156564
0.0600304
-0.0218468
-0.0114375
-0.289372
0.00284234
0.107033
-0.00188577
0.0620541
-0.173184
0.162236
-0.0233801
0.0228384
-0.121689
-0.0336555
0.0265842
-0.0864951
0.0366217
0.0260349
0.000631944
-0.0970597
0.135696
0.135777
0.120034
0.055189
0.0245372
0.0497413
-0.00542782
0.0120835
0.0426112
0.0929696
0.0216626
0.0848628
-0.0406968
0.0253601
0.0511343
0.0933333
0.0790076
-0.0103566
-0.0750582
-0.00807095
-0.0534652
-0.0064501
-0.0351016
0.0486781
0.0837044
0.0179445
-0.0178676
-0.112777
-0.045275
-0.0179931
0.0263209
0.0653522
-0.0247973
0.00749929
0.0210867
0.120844
-0.0262061
0.0358264
0.0333065
0.153432
0.0211765
0.0755096
-0.00842836
-0.0211405
0.0185681
-0.0335785
-0.0357056
0.00300037
0.0196207
-0.0260406
0.0979843
0.10637
0.101901
0.084243
0.0171997
0.0542649
0.0569216
0.0244589
0.0194934
0.021453
0.0424055
0.0754077
-0.116135
-0.0128247
0.118816
0.102634
0.191861
0.0187888
-0.108153
0.0339459
-0.193852
0.068487
0.0280151
0.0388779
0.00616357
0.0211407
0.012858
-0.105982
-0.0410383
-0.0502878
0.0152091
0.0026844
0.029699
-0.110117
0.019834
0.0942132
-0.0151543
0.0536236
-0.000587007
0.210857
0.0656905
0.122312
-0.010727
-0.00860793
0.0355372
-0.0216946
0.00195979
-0.0103294
0.00828547
-0.00466505
0.0947019
0.0812586
0.0679689
0.0120566
0.0174036
0.0235082
-0.0462096
0.0118319
0.0107153
-0.00384626
0.0853872
0.0392113
0.0657593
-0.0205115
-0.00353914
0.0374295
-0.061998
0.0618596
0.0802693
0.00176992
0.136747
-0.0451124
-0.00979454
0.0350254
-0.0135444
-0.00136755
-0.00607017
0.077307
0.0604793
0.0929252
0.0382178
-0.0300974
-0.00891833
0.0250995
0.0547738
0.0430599
-0.000395115
0.0672867
0.0236757
0.00440163
-0.0231197
-0.0309251
0.0315826
0.0214859
0.0295684
0.0398911
0.0150549
0.0406394
-0.0219265
-0.0460026
0.0551062
0.050536
0.3638
-0.21857
0.00537152
0.0803841
0.104311
-0.0364728
0.0522934
0.114371
-0.157072
0.126964
0.0836297
-0.163228
-0.0870463
0.135483
0.158134
-0.137845
-0.080974
-0.0789014
0.136362
0.0565821
-0.125651
0.0586331
0.00585462
-0.041524
-0.0287136
-0.168487
-0.113531
-0.0424946
-0.088939
0.0684201
-0.0881696
-0.272981
-0.167195
0.224146
0.0269541
-0.0634154
-0.129145
0.474893
0.0586863
0.0479901
-0.136329
-0.0294476
-0.0428172
-0.08027
-0.0665743
-0.0676908
0.0383933
-0.0738453
-0.166034
-0.339937
0.26915
-0.1704
-0.0195253
0.0336199
-0.0201951
-0.0168521
-0.00818279
-0.0629304
-0.174606
0.0239536
0.0767947
-0.00606147
-0.0400926
0.0637498
0.15721
-0.0571192
0.0286192
-0.0335078
0.114878
-0.0394705
-0.0141031
0.00386549
-0.129017
-0.0132811
-0.00566428
-0.099782
-0.0604891
-0.0212104
-0.0698102
-0.0888111
-0.0379293
-0.21912
-0.249301
0.00545214
-0.0164862
-0.0819557
-0.0933327
0.296491
0.0228499
0.02248
-0.0317537
-0.00989007
-0.0395899
0.0267663
-0.0457011
-0.0843143
-0.00207611
-0.00139954
0.0667419
-0.244715
0.0585212
0.0148854
0.0431307
0.0343048
-0.024855
0.0222799
0.0220128
0.0196711
0.210815
0.0127496
0.0582227
-0.0750145
-0.0290751
0.0218825
-0.0481152
0.0085278
0.0984854
-0.0122812
0.149455
-0.0122243
-0.025859
0.0671163
-0.00349008
0.0303569
-0.0202606
0.0467341
0.0511278
0.12943
0.0907221
-0.0380065
-0.0170198
0.117726
-0.0261984
0.0554432
-0.00301265
-0.141407
0.0292937
0.0148896
-0.00878132
-0.0998155
0.038954
-0.00179527
0.0692932
0.0297333
-0.00379543
0.100493
-0.0321619
-0.0310049
0.0743689
0.0410919
0.0785941
0.0571226
0.01085
0.044846
-0.0274768
0.0186528
0.0331868
0.0469584
-0.0215943
0.0890402
-0.0926469
0.0175649
0.0575153
0.101707
0.105622
-0.0159343
-0.0735354
0.00483128
-0.150643
-0.0265841
-0.0113796
0.0313617
0.0447446
0.023811
-0.004916
-0.121881
-0.0575803
-0.0115464
-0.0136616
0.0386612
-0.0079661
-0.0832304
0.075571
0.111554
-0.024253
0.0160734
0.0487421
0.130978
0.0176062
0.0590902
0.0297881
-0.00541908
0.0161239
0.007418
-0.0244184
-0.0291349
0.0178952
-0.00369763
0.080091
0.0626536
-0.0188505
0.0408017
0.0660756
0.0492408
-0.16974
-0.000805162
0.0328464
0.0720533
0.160948
-0.0531932
-0.0699019
0.0151868
-0.144617
0.0651119
0.152519
0.32067
-0.149133
-0.158765
-0.16003
-0.165591
-0.228532
0.0510091
0.0211971
0.064766
0.0978912
0.375087
-0.186016
-0.167438
-0.186669
-0.0284882
-0.221166
0.084117
-0.205555
0.113735
0.0232084
0.101446
-0.123414
0.106772
0.0850076
0.0364942
-0.118325
-0.0111433
0.0305802
-0.0837422
-0.164311
-0.145841
0.0247356
0.0701558
0.0923409
-0.0237753
0.140087
0.0655446
-0.0132639
-0.0135723
0.0484657
0.00402511
-0.0183704
1
0.0306632
0.000183515
0.0797504
-0.0313108
0.0527525
-0.00846273
-0.00300922
0.0219809
0.0458519
0.013531
0.169562
0.0517952
0.0297717
-0.00885713
0.0259026
-0.00975365
-0.0169861
0.00159483
-0.0117432
-0.00914155
0.0130712
0.00289143
0.0174323
-0.00274818
0.00819391
-0.0200966
-0.0527891
0.00153921
0.0641458
0.115959
0.0171636
-0.0106229
0.0639209
-0.000662175
0.0065854
0.00713703
-0.000822691
0.00200354
-0.00824282
-0.0188765
-0.0204019
0.12997
-0.10054
-0.00767715
-0.0182765
-0.0215645
-0.0259798
-0.0306959
-0.0220481
-0.0945796
0.0194266
0.00347825
0.0312901
0.0502395
-0.0237466
-0.00984356
-0.0991183
0.114213
0.0381538
0.0780936
0.0177298
-0.0524038
-0.165067
-0.0470685
-0.0865944
-0.0283608
0.078232
0.28298
0.115197
0.0330864
-0.00341239
-0.0353552
0.124468
-0.046279
0.0509665
-0.0311726
0.0711761
-0.0246562
-0.0896658
-0.0456287
-0.0394613
-0.0798781
-0.0792895
0.029815
-0.0154958
0.0155828
0.0998684
-0.0120827
0.00417317
-0.0373676
-0.0475635
-0.0642946
-0.112241
-0.00414668
-0.0271498
-0.0342962
0.0645334
0.00218347
-0.0309251
-0.0806325
0.0529281
-0.00660585
-0.0672266
-0.0302103
0.0956579
-0.00933349
0.073918
0.141689
-0.0155146
0.0899252
-0.150572
0.0792678
-0.159401
-0.0490108
-0.0355623
0.016067
0.0599147
0.156476
0.0796097
-0.0454347
0.00720916
-0.0435355
0.125316
0.0122444
-0.0287654
-0.0663583
0.0176282
0.00355794
-0.00583484
-0.0159479
0.0457286
0.025228
0.000176701
0.0211335
0.0119427
0.0261882
0.0804715
-0.0172254
-0.00429973
0.0200596
-0.0676919
-0.0921854
0.117733
0.0482161
-0.0113499
-0.0167975
0.0442641
0.000314774
-0.00122829
0.0582327
-0.02316
0.0272789
0.12178
0.00784201
0.0114954
-0.018679
-0.0144572
-0.0071484
0.0859983
-0.00463631
0.224342
0.0378698
0.0207309
-0.0129686
0.0728532
0.0068595
-0.0234617
0.0147765
-0.0171391
-0.02023
0.0125677
0.0482978
0.00281302
0.0939983
0.0802244
-0.00121361
-0.0476766
-0.0183972
0.0596738
0.0522205
0.0119488
-0.0499626
0.0853963
0.0177627
-0.0147784
0.0424837
-0.00781646
0.0195967
0.00580969
-0.0180182
-0.0222099
0.118163
0.0126198
0.0116525
0.0381317
0.0592602
-0.0590546
-0.0363144
0.0372725
0.0775385
0.063929
0.0550426
0.0595137
0.125495
-0.0324614
0.0735446
-0.133729
0.0288651
0.0438973
-0.00557069
0.0987353
-0.103493
0.0145705
0.065481
-0.00987271
-0.0503651
-0.0111405
0.148702
0.0837698
-0.146106
0.0140094
0.0374764
0.0093969
-0.030211
0.112448
0.101791
0.0195621
0.0532408
0.00723973
0.0493122
-0.0623018
-0.0559283
0.0330438
0.0371158
0.00981703
0.0388589
0.0452464
0.0601663
0.010312
-0.0885389
0.131869
0.0185104
0.0151467
-0.0108925
0.00607864
-0.00214621
0.0335442
0.0232673
0.0342362
0.109589
-0.00873461
0.00659714
0.0117441
0.00321722
-0.0113242
0.0211332
0.0367107
0.037745
-0.00508518
-0.00200947
0.0354906
0.0422664
-0.0146635
0.00742791
0.125859
0.0176571
-0.00196304
0.00701943
0.0136323
-0.0151458
0.00043124
0.0828761
-0.00563324
0.106227
-0.0501698
0.0644297
-0.00321598
0.00416597
0.00481034
-0.00786161
0.0199443
-0.00991149
-0.0172077
-0.00619209
0.00644001
-0.0337137
0.0025367
0.00534919
0.0227046
0.0401116
-0.0053502
0.00552259
0.0309085
0.00445197
-0.0328738
-0.0412691
-0.0316654
0.0243893
-0.0366322
-0.0939888
-0.0260409
0.0226149
0.0773239
-0.0149557
0.0595217
-0.0417438
-0.0502637
0.0821857
0.120446
0.0598197
0.136895
-0.0304239
-0.141488
-0.0519797
-0.0409109
-0.00138701
0.0299789
0.0984636
0.0229072
0.032771
-0.00518521
-0.0480663
0.0794177
-0.00777673
0.118773
-0.0820183
-0.0269699
-0.0305783
0.121289
-0.0526934
-0.0246186
-0.00280915
-0.178345
0.0466742
-0.0133271
0.124408
0.0392007
-0.0326672
-0.0241147
0.0461128
-0.0561985
0.0361267
0.0457822
0.0177628
0.0337235
0.0165667
0.0186101
-0.00407356
-0.00526877
-0.0441283
0.0822059
-0.0144287
0.0326472
0.000319738
-0.0449602
0.00855049
0.00517197
0.0331022
-0.0116163
0.0320456
0.0656845
0.00753966
0.0638253
0.0134678
-0.0639659
0.00344535
0.0286788
0.126337
0.0368001
-0.0194397
0.0889652
-0.039279
0.0463656
0.0364151
-0.0578382
-0.00674218
0.0117514
0.0498107
-0.058296
0.00929508
0.00179326
-0.0741864
-0.075732
-0.0162601
0.0149111
-0.0703137
0.0443693
0.0618091
-0.00986257
-0.00183489
0.0154341
0.0472875
0.266051
-0.202038
-0.0371325
0.0150062
-0.206111
-0.0113974
0.00607493
-0.0285037
-0.308581
0.0851253
0.015613
0.0737472
-0.00786316
0.0879848
0.302438
-0.0944721
-0.131848
-0.0176254
-0.0122931
-0.177191
-0.00669483
-0.0258364
-0.0796755
-0.0391001
0.00615091
-0.167919
-0.133084
-0.113359
-0.175903
-0.00579447
-0.0364103
-0.345781
0.0785211
0.0773228
0.0276778
-0.183535
-0.0991835
0.437905
0.120592
0.0523283
-0.0672345
-0.0208207
-0.0950862
-0.0547183
-0.0397442
-0.162869
0.024988
0.021389
0.0408223
-0.252729
0.00434947
0.0344763
-0.00309975
0.00838351
-0.0819501
0.0173998
-0.0123526
0.0387047
0.0491225
0.13083
0.0710105
0.0696094
0.118277
0.00975546
-0.161629
0.159674
0.0801239
0.0718245
0.111296
-0.104801
-0.181771
0.00123268
0.023015
-0.0395564
0.0527589
0.19525
0.0639326
0.0789003
0.0392636
0.00220856
0.108474
-0.113222
-0.249194
-0.027218
-0.0162908
0.0225499
0.0973045
0.0983588
-0.0663161
-0.0537675
-0.158002
0.0482841
0.0106747
0.0958585
0.0767282
0.0231691
-0.000325253
-0.00081742
0.0371285
0.00744164
0.0746606
0.0334086
0.0594391
0.0317371
0.0972785
0.000180698
-0.000176501
0.0034655
0.148942
-0.081777
0.0189681
-0.0383844
-0.00795382
-0.0189937
0.098105
0.0354819
-0.0221452
0.0189101
0.0618844
0.105964
0.0249449
0.0542896
-0.0144474
0.0510404
0.00410118
0.0392406
0.0234915
0.0028216
0.131636
-0.0195404
0.0318049
0.113719
-0.103052
-0.0136278
-0.012859
0.104645
-0.0171535
0.0578494
0.052718
-0.0614759
-0.0526278
-0.032091
0.0381398
-0.0539643
0.0211795
0.119504
-0.00421892
0.000225251
0.0399481
0.0587665
0.0883497
0.0628231
0.020778
0.0458438
0.0682355
0.0132794
0.0178839
0.0319312
0.155315
0.0517276
-0.101685
-0.042167
-0.184071
0.0796483
0.167903
0.109001
-0.0809711
0.0659508
-0.160994
0.0947878
0.0560957
0.0454788
0.0230614
0.0245168
0.0206341
-0.0150861
0.0120458
-0.0598659
0.0538635
0.00499113
0.0637422
-0.0874088
-0.00653399
0.0817442
-0.0253747
0.108383
-0.0352252
0.172434
0.0718963
-0.15091
-0.0401151
-0.00699691
0.0696286
-0.0255547
0.0414481
0.0247006
0.0020648
-0.0190301
0.0768104
0.0621344
0.0352213
0.0208478
0.000851356
0.00100926
0.0626834
0.0464611
0.0296634
0.101954
0.0269391
0.0562242
-0.033776
-0.00282536
0.0713141
0.0346317
0.0990338
0.0061927
-0.0181389
0.020414
-0.0396211
0.0711052
0.0265557
0.00539947
-0.155875
0.0270086
-0.0102026
-0.0218744
-0.0123511
-0.00169274
0.0208833
0.104435
0.0278931
0.0680655
-0.00224037
0.0634158
-0.0283622
0.0095057
-0.14067
0.0819801
0.0423946
0.0225678
0.11783
0.00548707
0.0148122
0.025892
0.00366406
0.000125515
0.025892
0.0634516
0.0157883
0.0250353
-0.0870711
0.0415686
-0.0112289
0.0228383
-0.0831222
-0.0112468
-0.00761621
0.0538115
0.0400347
-0.0169021
-0.0751241
0.0830217
-0.0297098
0.0545134
-0.11584
0.308706
-0.0318275
-0.180339
-0.151945
-0.127178
-0.314313
-0.01539
0.107156
0.0177587
0.135183
0.431499
-0.177334
-0.020293
0.027786
0.0914125
-0.25651
-0.103138
-0.032919
0.0537994
0.0575047
-0.0145781
-0.133665
0.0836899
-0.0834885
-0.228044
-0.104429
-0.00773824
-0.00942398
-0.0586099
-0.205289
-0.00368477
0.0280229
-0.00895744
0.0403492
-0.0377475
0.0506685
0.0161316
0.00031047
0.00135661
0.0243511
0.00115626
0.00560213
0.0480081
0.0246357
0.040917
0.0455833
0.00536369
0.038758
-0.0184762
-0.0201542
0.0283871
0.0290066
0.00116132
0.0922692
0.0282298
0.0167955
0.00776227
0.0740085
-0.0213643
-0.0062138
0.0662495
0.0282574
-0.014833
0.0165014
0.0461009
0.00456247
0.0459939
-0.00861839
0.00154349
-0.0333279
0.0146104
0.0149056
0.0530987
0.00728628
-0.0173379
0.0262247
-0.00453229
0.00624791
-0.0148663
0.0189466
0.00764472
0.0106288
-0.0186712
0.00708475
0.0440251
-0.0442614
0.00339281
0.0111405
-0.00239819
0.133869
0.0136832
0.00616505
0.0367514
0.214649
-0.0222863
-0.0803729
-0.0475428
-0.195497
5.62924e-05
0.130425
0.216692
-0.0389731
0.105564
-0.176559
-0.166916
-0.142414
0.00178361
0.0546429
0.0411158
0.0520423
0.163156
0.11214
-0.0584246
0.0896484
0.0291476
0.129005
0.0780587
-0.0972422
0.0142832
0.015668
0.111195
-0.0290502
0.0234214
0.0892108
-0.175893
-0.0282735
0.00161937
0.0678312
-0.0213551
0.0994658
0.0664571
0.010367
-0.00973157
-0.0075491
-0.0532332
0.0548731
0.00833205
-0.0153008
-0.0168835
0.0455548
0.0484084
-0.028251
0.0250415
0.0144992
0.0904035
0.0553863
-0.0299351
-0.138279
-0.0543595
-0.00182485
0.078518
0.0700757
0.0526407
0.13018
0.0637994
0.0883368
-0.0160115
0.115367
-0.0416118
0.00860566
0.0618044
0.0195341
-0.0188905
0.0164262
0.0449269
0.0547438
0.125545
0.0197318
-0.0660029
-0.0600821
-0.00537829
-0.171721
0.0335721
0.0245239
0.0600961
-0.171147
-0.00887164
0.00286087
0.0164772
0.031404
-0.00434524
-0.0103251
0.0679698
-0.0192378
0.0482353
0.019072
0.0219819
0.039091
0.0214976
0.100225
0.00242896
0.0157792
0.0669287
0.245319
-0.00897404
-0.0422647
-0.0451649
0.104067
0.0381542
0.0754032
0.140824
-0.0504878
0.0844975
-0.0707957
0.12618
0.114659
0.0357048
0.0491649
0.044203
0.0450044
0.125506
0.0747035
-0.120996
-0.152443
0.018076
0.0986942
0.107741
-0.133249
0.0483466
-0.00287196
-0.143405
-0.0607033
0.0601571
0.0658259
0.0887418
-0.0776947
-0.0158367
0.0709826
-0.0574126
0.0659466
0.115531
0.00702964
-0.0149765
0.042164
-0.00271214
-0.150434
0.0105627
0.0145924
0.0690267
-0.0171265
-0.0367246
0.0013991
-0.0216689
0.131834
0.0199966
-0.180816
-0.0544704
-0.168794
0.0888077
0.123049
0.0740816
-0.0797689
0.0480236
-0.34086
0.0390514
0.0340644
0.0489633
-0.132403
-0.0057026
0.0318145
-0.00862593
0.0486005
-0.0667906
0.013941
-0.121396
0.0483687
-0.114231
0.0743503
0.0220347
0.0230932
0.116553
-0.0546716
0.0305932
0.0684552
-0.243894
-0.0272313
0.0406185
0.0708747
0.0656889
0.0283216
0.00471568
-0.0249314
-0.0621338
0.123973
-0.144039
0.0740375
-0.00890444
-0.0159626
-0.0176092
0.111855
-0.00784665
0.0436143
0.139758
-0.0599411
-0.0199215
0.0659131
0.0478855
-0.0342072
0.0060588
0.00609948
0.0396967
-0.0102094
-0.0403439
0.132178
0.100215
-0.0584582
-0.0028072
0.132655
-0.0178215
-0.0222432
0.116183
0.0212004
-0.0208258
-0.044941
0.102561
-0.0404508
0.117172
-0.145766
0.0772302
0.0230467
-0.0419433
-0.0476677
-0.014644
0.0306011
0.0315668
-0.0555766
-0.00763486
-0.0118984
-0.0596553
0.0348498
-0.0221419
0.0386317
0.0367659
-0.0324492
0.0454367
0.111062
0.0484912
0.0400027
0.0403756
0.0737352
0.0647988
0.0578436
0.182493
0.0430092
0.109928
-0.0239132
0.00541581
0.0201876
0.0729916
0.166903
-0.0190369
-0.0398516
-0.00419232
-0.00241446
0.0831038
-0.0326375
0.0474189
-0.212995
0.0558651
-0.0209667
-0.0871842
-0.0282446
-0.0244716
0.0868726
-0.14812
-0.0125826
0.183278
-0.0235447
0.137033
-0.0441219
0.0548019
0.109865
0.136279
0.0604651
-0.0233526
0.0631722
-0.0252105
0.0188525
-0.0257304
-0.0239714
0.0624316
0.0368091
0.0473769
0.0804344
0.0843761
0.150297
0.0338344
0.0387071
0.0608274
0.00809366
0.054438
0.0137136
0.0747994
0.0476527
0.118976
-0.0792832
0.00641211
0.118287
0.0362389
0.134374
-0.0208502
-0.0561363
0.0112513
-0.0954403
0.0189287
0.00625608
0.0728425
0.117659
0.00682143
-0.0051111
-0.133591
-0.0707391
-0.00204531
0.0526353
0.075375
0.017723
0.000101822
0.0388505
0.0104225
-0.0428689
0.0715685
-0.191883
0.0982835
0.0382904
0.0729186
-0.137285
-0.00697436
0.0316263
0.0285197
-0.0336046
0.0175766
0.013933
0.0643581
0.0916639
0.110806
-0.249737
-0.0613939
-0.0408548
-0.0679375
-0.0393452
0.0728259
0.00568764
-0.0162644
-0.176006
0.0235759
-0.0956966
0.0147879
-0.0984685
-0.0245933
0.0501837
-0.217248
0.0158944
-0.0109752
-0.204093
-0.0393729
0.0225217
-0.085461
0.134963
0.0582762
0.0265188
-0.074005
-0.160527
-0.165704
-0.139373
0.103262
-0.00438854
0.338456
0.0407093
-0.0697236
0.0399888
-0.10135
-0.173987
-0.106311
-0.0160165
-0.0424932
-0.140438
0.0395107
-0.0681477
0.0832796
-0.0288953
-0.0537982
0.0333193
-0.196114
-0.109205
-0.205341
0.0838281
0.0143701
0.0151194
0.0132943
0.0400324
-0.0161363
0.0175118
0.085971
0.039344
0.0546646
0.0737268
-0.0350105
0.106186
-0.0448637
-0.0441121
0.0938026
0.0589188
-0.0197251
0.159079
0.0685046
-0.0431308
0.0341944
0.0866166
-0.0262514
-0.0321682
0.0712631
0.0630394
-0.0215834
0.019594
-0.00378266
-0.028006
0.0980481
0.0204466
0.011148
-0.0783939
0.0572466
0.0479522
0.0101459
0.024868
0.0130969
0.124047
0.00985435
0.0284994
0.0334588
0.0206868
0.0228669
-0.00534908
-0.0647565
0.016491
0.0715154
0.148787
0.0157318
0.0354398
0.0145547
0.0970284
0.051495
0.0139067
0.100689
0.025639
0.0126632
0.0499035
0.0223502
0.0977953
-0.055316
0.136529
0.0338661
-0.00646106
0.00737304
0.130859
0.11095
-0.00543199
0.0475537
-0.153881
0.0332304
-0.0205852
0.0284781
-0.0171952
0.0245137
0.0752539
0.102159
0.00859053
0.161659
-0.0225879
0.0124933
-0.0424962
0.0429425
-0.219246
0.0104062
0.0638169
0.0518674
-0.187776
-0.0144458
0.00891829
0.0160437
0.0153745
0.0468776
0.015706
0.0960358
-0.00591303
0.121356
0.127615
0.0286676
-0.00246729
-0.00538103
0.0288013
-0.00474202
0.0130449
0.0869206
-0.000808018
0.064852
0.102799
-0.00134435
0.028163
-0.0244997
-0.0326387
0.0123257
0.0676669
-0.00596767
0.205098
0.0372475
0.0204477
0.00446519
-0.139483
-0.010537
-0.0128246
0.0711018
0.0151974
-0.0629494
0.0234674
0.068436
6.04976e-05
0.0787026
0.0190914
0.0193683
-0.0660899
0.0101538
-0.0188502
0.0456186
0.00787429
-0.0996816
0.0298959
0.00333532
0.00957171
-0.00729447
0.0118016
0.0005504
0.0178814
-0.0322503
-0.00916641
0.104469
0.0910462
0.014269
0.00442507
0.0224073
-0.082592
0.0109039
0.0291564
0.0754966
0.0348513
0.0885174
0.0226124
0.0124896
0.0448546
0.0385239
-0.0528992
0.038371
0.0286841
-0.00535379
0.0685599
-0.083601
-0.0234538
0.0254862
0.0766619
-0.00716701
-0.0101576
-0.0107369
0.00644195
0.0312963
0.0086654
0.0505611
-0.0226067
-0.0461525
0.0811241
0.0831187
-0.0353553
0.0270118
0.077756
0.0361681
-0.0349325
0.0221404
0.0663728
0.00675696
0.0190882
0.0219166
0.000178151
0.00118713
0.00941996
-0.0388017
0.047446
0.0650714
0.173065
0.0761039
0.0180484
0.0548516
0.087142
-0.0683966
0.00587693
-0.0504288
0.0781664
-0.0300809
0.116231
-0.0244995
0.0757505
0.0188742
0.0649235
0.0427924
-0.00182358
-0.0108932
0.232948
0.110576
-0.0498382
0.0554966
-0.108571
-0.075957
-0.00492519
0.0119216
0.0459881
-0.0508276
0.042202
-0.100418
-0.0221166
-0.0826798
-0.0404701
0.0232001
0.014294
0.0654857
-0.166301
0.129311
0.0704488
0.128281
-0.157631
-0.0509291
0.0420479
-0.090932
-0.00389299
0.0168627
-0.0204719
-0.109998
0.092691
-0.156323
-0.107603
-0.0179695
0.00458391
-0.00145492
0.0816594
0.0124426
-0.00522537
-0.0354119
0.155173
-0.00727298
-0.114528
-0.0394391
-0.148654
0.0092386
0.103699
0.132801
-0.0102673
0.0842898
-0.239257
0.104714
0.134235
-0.00898635
-0.0146209
0.0405453
0.0496883
0.0884025
0.078708
0.0421705
0.048091
-0.0161514
0.110605
0.0319267
0.0106837
-0.0227507
0.0217183
0.0853626
0.0193042
-0.0229645
0.0600572
0.119084
0.055914
0.0321376
0.0546945
0.0553493
0.066717
0.0243677
-0.00171158
-0.0257546
-0.012371
-0.107281
0.059623
-0.00880623
0.032712
0.0371455
-0.0976098
0.0291849
0.0389108
0.0837898
0.157784
0.0588057
0.0584341
-0.018774
0.0412837
0.0536971
-0.063939
0.118441
0.0835642
0.0217084
0.146684
-0.0898065
0.030541
0.0517922
0.0629337
0.0152929
0.00813898
0.120244
0.0840758
0.0777021
0.0791153
0.0205498
0.021902
0.073533
0.0494758
0.110995
-0.0138484
0.100823
0.083153
-0.034667
-0.0390989
-0.0104963
0.0577126
0.0140801
0.04641
0.029665
0.0387077
0.0734865
-0.00516688
-0.0510407
0.078819
0.0378189
-0.00941231
0.0111115
0.0284793
0.000466269
-0.191758
0.00173429
-0.00638381
-0.00151082
0.189298
-0.122613
0.0193507
-0.0661876
-0.165267
-0.0397313
0.165969
0.209466
-0.0410822
0.119268
0.0417269
-0.216228
-0.176652
0.0183345
-0.0357059
0.0191393
0.0507612
0.25408
0.131216
-0.0762186
0.124839
-0.054563
-0.154122
0.0252459
-0.258311
-0.000650766
-0.0121643
0.0921856
-0.014395
0.0292559
0.105308
0.0532229
-0.0377802
-0.0186049
0.0504069
-0.0609707
0.113458
0.0820281
-0.0121429
0.0261062
-0.00777335
-0.00436095
0.0537204
0.0349599
0.0606046
0.105573
-0.0566171
0.000726313
0.090769
0.186703
-0.0231235
0.11491
-0.0656635
0.0905532
-0.0072244
-0.139613
0.0434706
-0.0288533
-0.088616
-0.0271717
-0.0963119
-0.0722723
-0.0632457
0.103322
0.104105
0.00763089
-0.0144767
-0.0665448
-0.043787
0.0343712
0.0307661
0.0997179
-0.0378482
-0.0208215
0.0788602
0.224075
0.00287707
0.0450694
0.0232516
0.092297
-0.0110173
0.0301573
-0.0137584
-0.0108473
0.0111566
-0.0338279
-0.0248903
0.0262268
0.0351323
-0.00975231
-0.199895
0.0480469
0.00212477
0.0105816
-0.0333123
-0.0130475
0.0378149
-0.00690815
0.0039123
0.00983826
0.0150904
0.00879905
-0.0468189
0.0325501
0.0816535
0.0458204
0.0682438
0.129788
-0.0410204
0.0489187
-0.0792523
0.035065
0.0973301
-0.0314716
0.0139592
-0.00272558
0.0554863
0.113787
0.0564706
-0.0199882
-0.0407704
0.0352842
0.0690451
-0.0671378
-0.0354938
0.031839
0.0426223
-0.0113431
-0.0934517
0.0113951
0.0294154
0.108048
-0.0756526
0.00144278
0.011079
-0.0268444
0.0834098
-0.0424704
0.0231086
0.0642841
-0.031249
-0.00337736
0.00283072
0.0549823
0.0191159
0.017538
-0.204449
0.0275981
-0.00235274
0.0100368
0.129132
-0.00708845
-0.110662
-0.0639481
-0.200092
0.0309492
0.292188
0.144154
-0.133617
0.104305
-0.216995
-0.237769
0.129125
0.0176462
0.00606871
0.0348865
0.0396447
0.0785774
0.0369992
-0.0909104
0.0668996
-0.0129745
0.121958
-0.00290406
-0.178309
0.0205257
-0.00917753
0.0729196
-0.0487614
0.148155
-0.138337
-0.20844
-0.0819888
-0.0332289
0.0452013
-0.0789868
0.0681798
0.0242608
0.003529
0.0470813
0.0191876
0.00351529
-0.0637698
-0.0361375
-0.0602357
-0.0687077
-0.0503465
0.105279
-0.00838702
0.0348398
-0.0571453
0.120717
-0.0293795
-0.0642423
-0.0682054
-0.0294911
-0.0656721
-0.226751
0.0900375
-0.0538344
-0.0258401
-0.0269338
-0.0618059
-0.0758319
-0.270209
0.00146915
-0.051753
-0.22454
-0.134547
-0.139275
-0.0701707
-0.166008
-0.0792909
0.277052
0.0825988
-0.0874972
-0.0638594
-0.0677397
-0.352959
-0.0879692
-0.0238014
-0.0406461
-0.287917
0.0453872
-0.0172235
0.128021
-0.118346
-0.0560655
0.0101623
0.0984151
-0.137734
-0.0791408
0.103358
-0.00572575
-0.0386543
-0.0155455
0.033589
0.015103
-0.0296144
-0.0231524
-0.028721
0.0230473
-0.138774
-0.0440655
-0.168621
-0.0949474
-0.0715677
0.0600215
0.122595
-0.00647954
0.299233
0.0836299
-0.0579123
-0.00366558
-0.0127789
-0.0937235
-0.0247738
-0.0516328
0.00686717
0.0254531
-0.0557329
-0.0851003
-0.0271095
-0.011788
0.0366369
-0.0816164
-0.0421434
-0.0107096
-0.168516
-0.0509099
0.0179355
0.128116
-0.220947
-0.0148009
0.00925392
0.0570891
-0.00632921
-0.0501495
-0.0543944
0.0355231
-0.00818472
0.0932294
0.080519
0.0585897
0.0158366
0.0483899
-0.0701285
-0.045315
0.0236615
0.0474328
0.0608879
0.0740253
0.0855584
0.125532
-0.00831149
0.0689369
-0.107961
0.0690561
0.0668863
0.0200337
0.137273
-0.110767
0.0412343
0.0464404
-0.0035504
-0.0632777
0.00519838
0.223464
0.0763362
0.135119
-0.0153368
0.0524011
0.030717
-0.121094
-0.179907
0.101895
0.00530099
0.043163
-0.0229025
0.113549
-0.0587611
-0.0126966
0.0204623
0.0339554
0.0143838
0.0653179
0.0683741
0.028489
0.0139579
-0.0974334
0.105887
0.0797092
-0.0597235
0.0477917
-0.0357932
-0.00435712
0.0997714
0.113628
-0.00430431
-0.0399021
-0.138802
-0.145538
-0.216557
-0.0183257
-0.0270868
0.123718
0.345821
-0.189824
-0.170662
0.0287592
-0.430204
0.126107
-0.151953
-0.076462
0.0744782
0.0421073
0.0577982
-0.252047
-0.161659
-0.197271
-0.0995614
0.0375975
0.0607278
-0.0948769
-0.0646521
0.0437606
0.0454921
-0.0886247
-0.0962264
0.152506
0.112452
0.027412
-0.0620723
-0.0251162
-0.0044386
-0.0889506
-0.0583286
-0.176397
0.0247429
-0.240461
-0.0273491
-0.0572599
0.177461
0.0828975
-0.0224607
-0.0136723
0.0902991
-0.0454311
-0.0372326
-0.198552
0.0695352
0.0165226
-0.136258
-0.0924179
-0.00937216
0.0575416
0.0450458
0.0139812
0.0482607
0.0302836
0.229133
0.096091
0.0533052
-0.0201088
-0.216141
-0.065478
0.0180123
0.141225
0.0624065
-0.0969288
0.0203255
-0.154982
0.0364119
-0.109524
-0.149702
-0.0029782
0.0215839
0.00774954
-0.357811
0.148517
0.0541878
0.042148
-0.26924
-0.0682757
0.0320531
-0.19002
0.0427468
-0.0531388
-0.0570503
-0.0159087
0.0327814
-0.164509
-0.230363
-0.114067
-0.101531
-0.0902684
-0.204862
0.00350556
-0.00150583
-0.014195
-0.179616
-0.148594
-0.0472674
0.0498397
-0.0522984
-0.0206872
-0.211286
-0.132528
-0.190863
-0.062142
-0.141311
-0.217403
-0.0697312
-0.10845
-0.167739
-0.0520635
-0.0156199
0.0423221
-0.0219285
-0.211235
-0.212426
-0.136754
-0.0601368
-0.0996189
-0.386001
-0.0191996
0.0742374
-0.146756
0.123155
-0.249864
-0.0912697
0.0192188
-0.23807
0.0992495
-0.046512
-0.236773
0.00923526
-0.164529
0.0267604
0.0146282
-0.140465
-0.219097
0.101185
0.0728322
0.0386124
0.0265196
-0.241447
0.0281914
0.0158383
0.0436971
0.0676422
-0.118994
-0.00279026
-0.0423401
0.0208749
0.0107226
0.26224
0.00528135
-0.0770048
0.00222997
0.0239872
-0.259556
0.0215883
0.0342074
0.0215302
0.0494656
0.00862976
-0.0674442
-0.0249709
-0.0955525
0.0515694
-0.0185713
0.0195505
0.122999
-0.234362
0.0159962
0.0288226
0.0610875
0.0207198
0.158356
-0.14038
-0.0524567
-0.0260061
-0.0596462
0.0314749
-0.0680598
-0.0143729
0.0442664
0.0102203
0.113006
0.0268391
0.0977025
-0.0100092
-0.0249429
0.0690821
0.0850407
-0.191562
0.00362453
0.0597819
0.0864757
-0.114829
0.085344
-0.150133
-0.190672
-0.217301
0.0479925
-0.162267
-0.128643
0.125534
-0.0854929
0.239344
-0.224443
-0.0782233
0.0848768
-0.0257653
-0.0278057
-0.0147595
0.00539375
0.000139078
-0.289594
-0.0380247
0.0705719
-0.0639549
