156800,0.00115661
156800,-0.000349246
156800,0.000429725
156800,-0.00025042
156800,-0.000611044
156800,-8.67712e-05
156800,-0.000747815
156800,0.000596446
156800,-0.000513237
156800,-0.000148851
156800,5.61092e-05
156800,0.000332786
156800,-0.000286262
156800,-9.66252e-05
156800,-0.000327309
156800,-0.000190308
156800,0.000649695
156800,-0.00048569
156800,-0.000942151
156800,0.000547595
156800,2.68889e-05
156800,0.000336162
156800,-0.00039047
156800,0.000204986
156800,9.62602e-05
156800,-0.000351877
156800,0.000679991
156800,-0.0001665
156800,0.000182866
156800,-0.000172306
156800,-2.31323e-05
156800,0.000123509
156800,-0.000317716
156800,-0.000489001
156800,-6.06565e-05
156800,0.000275849
156800,0.00043945
156800,-0.000277119
156800,0.000195923
156800,0.000273973
156800,-0.000586499
156800,2.42084e-05
156800,0.000760961
156800,0.000334746
156800,0.000124704
156800,0.000489807
156800,0.000537636
156800,-8.28307e-05
156800,-0.000798214
156800,0.000894743
156800,-5.69856e-05
156800,-0.000325913
156800,-0.000269568
156800,0.000971875
156800,-0.000147683
156800,-0.000174914
156800,-0.000594088
156800,-0.000260251
156800,0.000481368
156800,-0.000246108
156800,0.000486658
156800,0.00054729
156800,0.000158403
156800,0.000464099
156800,0.000358771
156800,4.40257e-05
156800,-6.49529e-05
156800,8.48754e-05
156800,0.000196945
156800,-0.000260936
156800,0.000237069
156800,0.000339996
156800,-0.000289436
156800,-0.000331717
156800,0.000835176
156800,-5.16167e-05
156800,0.000430001
156800,-0.000473134
156800,-0.000209189
156800,-0.000987766
156800,-0.000364594
156800,4.51796e-05
156800,-0.00100643
156800,0.000428087
156800,-0.000246041
156800,0.000356322
156800,-9.32321e-05
156800,-9.86015e-06
156800,0.000240863
156800,-0.000265914
156800,0.000310165
156800,-1.05688e-05
156800,0.000202193
156800,3.37431e-05
156800,0.000248599
156800,-0.000541742
156800,0.0012022
156800,-0.000359792
156800,-0.000571558
156800,0.000276948
156800,6.15423e-05
156800,-4.09228e-05
156800,3.7217e-05
156800,0.000283606
156800,-3.05819e-05
156800,-0.000913362
156800,-0.000674129
156800,-0.000494894
156800,-0.000634388
156800,0.000291304
156800,-0.00056028
156800,-0.000429347
156800,-0.000568993
156800,0.00010574
156800,-0.000326486
156800,0.00063669
156800,0.000692562
156800,-4.8733e-05
156800,8.25642e-05
156800,0.000811054
156800,0.000355149
156800,-0.000100096
156800,-0.000187879
156800,-0.000219671
156800,-9.69018e-05
156800,0.000539967
156800,-0.000638144
156800,0.000254465
156800,-7.94518e-05
156800,-0.00120087
156800,-0.000537896
156800,6.29621e-05
156800,0.000551975
156800,0.000134059
156800,-0.000146678
156800,4.39164e-07
156800,-0.000583979
156800,0.000630852
156800,-0.00018518
156800,-0.00112204
156800,-0.000217746
156800,7.93746e-05
156800,-0.000719358
156800,-0.000598982
156800,0.000633152
156800,-0.000402721
156800,4.40383e-05
156800,-0.000279395
156800,-8.81926e-05
156800,-0.000241372
156800,0.000174786
156800,-7.5385e-05
156800,-1.18758e-05
156800,0.00026084
156800,6.58444e-05
156800,-6.12504e-05
156800,0.000119988
156800,0.000738789
156800,0.000320639
156800,-8.17591e-05
156800,3.28823e-05
156800,0.000339554
156800,-0.000149523
156800,-0.000383563
156800,-0.000437846
156800,4.76951e-05
156800,-0.000494251
156800,-0.000467992
156800,-0.000410681
156800,-0.000620901
156800,0.000278943
156800,-3.70046e-05
156800,8.34874e-05
156800,0.000163196
156800,-0.000326471
156800,0.000727058
156800,-1.02104e-05
156800,-0.000511242
156800,-0.000492915
156800,0.000613923
156800,1.91358e-05
156800,7.85119e-05
156800,9.35514e-05
156800,4.46663e-06
156800,-0.00101618
156800,1.97527e-05
156800,-0.000132774
156800,-0.000662156
156800,-0.000350432
156800,-0.00035649
156800,3.77533e-06
156800,-0.000408258
156800,-0.000343302
156800,0.00078066
156800,-0.000632008
156800,-0.000690397
156800,0.000520491
156800,0.00106733
156800,0.000177084
156800,4.51928e-05
156800,0.000455771
156800,0.00021901
156800,-0.000464262
156800,0.000470134
156800,0.000289578
156800,-9.23689e-05
156800,-0.000200925
156800,0.00029081
156800,1.8893e-05
156800,0.00083509
156800,0.00132431
156800,-0.000431573
156800,0.000210841
156800,-0.000630968
156800,-9.98098e-05
156800,0.000628076
156800,-9.50454e-06
156800,-5.07286e-05
156800,0.00014831
156800,0.000104185
156800,-0.000249473
156800,0.000429133
156800,-0.000215709
156800,0.00106321
156800,-0.000351621
156800,-0.000134984
156800,-4.6232e-05
156800,-0.000364704
156800,0.000467255
156800,-0.000159256
156800,0.000239111
156800,-0.000257065
156800,-0.000463613
156800,-0.000664507
156800,5.92869e-05
156800,0.000348378
156800,0.000362406
156800,-0.000650273
156800,-4.38692e-05
156800,1.40027e-05
156800,0.00053051
156800,-0.000235923
156800,-0.000400214
156800,0.000160194
156800,-0.000157295
156800,-5.94884e-06
156800,0.000306665
156800,-7.36828e-05
156800,-0.000375137
156800,-3.94737e-05
156800,-0.000518584
156800,0.000141561
156800,0.000393833
156800,-0.000422884
156800,1.14508e-05
156800,-4.9902e-05
156800,0.000226155
156800,0.000190235
156800,0.000494423
156800,0.000479844
156800,0.000447578
156800,-0.000824638
156800,-0.000896705
156800,2.14968e-05
156800,-0.00049198
156800,-0.000573606
156800,0.000626761
156800,-0.000525118
156800,0.00029222
156800,-0.000444658
156800,-7.24768e-05
156800,-0.000342159
156800,0.000441323
156800,-0.000392783
156800,-0.000103288
156800,0.00075475
156800,-4.99325e-05
156800,0.000516978
156800,-0.000161971
156800,0.000320507
156800,-0.000338575
156800,0.000667493
156800,0.00070049
156800,-0.000420038
156800,0.000170794
156800,0.000767993
156800,0.000539493
156800,-0.000125374
156800,3.52296e-05
156800,0.000128998
156800,-0.000621824
156800,-0.000101804
156800,0.000250473
156800,-0.000110092
156800,-0.000811838
156800,0.000180015
156800,-0.000390376
156800,0.000426026
156800,-0.000665042
156800,-0.000143587
156800,-0.000157934
156800,4.21967e-05
156800,-0.000773221
156800,0.000209166
156800,7.29923e-05
156800,0.000622465
156800,-0.00034927
156800,0.000933697
156800,-0.00020241
156800,0.00013092
156800,-0.00028771
156800,-1.11978e-05
156800,0.00048972
156800,-0.000518705
156800,-2.68144e-05
156800,9.14096e-05
156800,4.5414e-05
156800,0.000408767
156800,0.000755414
156800,0.000716848
156800,-0.000845983
156800,0.000458704
156800,-6.68375e-05
156800,-0.000262655
156800,0.000569911
156800,-0.000852197
156800,4.21829e-06
156800,-8.44256e-05
156800,0.000407734
156800,-5.23177e-06
156800,0.000370059
156800,-3.48942e-05
156800,-9.06535e-05
156800,-0.00011366
156800,0.000100626
156800,-0.000261213
156800,0.000309698
156800,1.99366e-05
156800,0.000172592
156800,-0.000493287
156800,7.69582e-05
156800,-0.000931709
156800,6.65004e-05
156800,0.000299296
156800,-0.000565551
156800,0.000390525
156800,0.000347863
156800,0.000141918
156800,0.000205999
156800,-0.000546232
156800,8.9625e-05
156800,0.000539319
156800,-7.59482e-06
156800,-7.32437e-05
156800,-0.000864004
156800,0.000352799
156800,0.000809558
156800,-0.00043062
156800,-0.000102748
156800,-0.0014277
156800,-2.99846e-05
156800,8.31531e-05
156800,-0.000102735
156800,0.000496929
156800,-0.000550667
156800,-0.000170103
156800,-7.44446e-05
156800,0.000600866
156800,0.000638357
156800,-0.000407678
156800,-0.000723652
156800,0.000253187
156800,0.000130123
156800,0.000462478
156800,0.000149434
156800,-9.11809e-05
156800,0.000155072
156800,0.000215954
156800,-0.000239079
156800,4.01131e-05
156800,5.16995e-05
156800,-0.000705369
156800,0.000369537
156800,0.000609219
156800,-3.75498e-06
156800,-0.000284212
156800,-0.000447832
156800,6.97966e-05
156800,0.000271141
156800,1.94281e-05
156800,0.000285103
156800,2.17019e-05
156800,-0.000564533
156800,0.000143487
156800,-0.00115889
156800,-0.000206878
156800,0.000140179
156800,0.000324062
156800,0.00111027
156800,0.000173114
156800,-0.000107962
156800,0.000504456
156800,7.14465e-05
156800,-6.82129e-05
156800,-0.00049367
156800,0.000488344
156800,-0.000189224
156800,-0.000455194
156800,-0.000337014
156800,-5.77208e-05
156800,-0.000536673
156800,0.000123363
156800,0.000190716
156800,0.000539908
156800,-0.000896123
156800,-0.000218616
156800,0.000249107
156800,4.82013e-05
156800,0.000262116
156800,-0.000112725
156800,0.000233012
156800,0.000335485
156800,-0.000442954
156800,0.000513232
156800,0.000348235
156800,-0.000577209
156800,5.22848e-06
156800,0.000291579
156800,0.000360345
156800,0.000895147
156800,0.000875714
156800,-0.000336306
156800,-0.00115119
156800,0.000436093
156800,0.000154742
156800,0.000159662
156800,-0.000207914
156800,-0.000188515
156800,4.41975e-05
156800,-0.000236334
156800,-0.000252882
156800,-0.00038775
156800,-0.000128036
156800,0.00111169
156800,-0.000198641
156800,-0.000161067
156800,0.000215192
156800,-0.000449084
156800,2.94325e-05
156800,0.000253819
156800,9.03604e-05
156800,-0.000122617
156800,-0.000264381
156800,0.000107225
156800,-0.000228573
156800,-0.000399848
156800,-0.000299816
156800,-0.000458943
156800,0.000436294
156800,0.000125946
156800,-0.000151681
156800,0.000145899
156800,-0.000134532
156800,0.000504442
156800,9.79515e-06
156800,-0.000353425
156800,0.000545677
156800,-0.000355434
156800,0.00010226
156800,-0.000228992
156800,0.000492065
156800,-0.000226574
156800,0.000117677
156800,0.000339365
156800,5.64842e-06
156800,-0.000659962
156800,-0.000497983
156800,0.000335647
156800,-2.18439e-05
156800,0.000620326
156800,0.000476617
156800,-0.000308842
156800,7.96653e-05
156800,0.000766826
156800,-0.000132509
156800,0.000181284
156800,-0.000999422
156800,-0.000754459
156800,0.000605111
156800,7.6266e-05
156800,0.00020977
156800,0.000180738
156800,-0.000327677
156800,0.000397099
156800,-0.000792558
156800,-0.000733111
156800,-0.000689961
156800,0.000585897
156800,-0.000185333
156800,-0.000186957
156800,-0.000318076
156800,-9.6085e-05
156800,-0.000804995
156800,0.000320031
156800,-0.000385102
156800,-0.00122853
156800,-0.000670415
156800,-0.000497508
156800,0.000808818
156800,-0.000341091
156800,-0.000596538
156800,-0.000104744
156800,-8.43617e-05
156800,0.000281383
156800,0.000321713
156800,-0.000613566
156800,0.000653768
156800,-0.00046732
156800,-0.00058962
156800,-0.000373486
156800,0.00022957
156800,9.04427e-05
156800,-0.000843296
156800,0.000737837
156800,-0.00032033
156800,-0.000141798
156800,-0.000580569
156800,2.13189e-05
156800,0.000367642
156800,-0.000416194
156800,-0.000141574
156800,5.2693e-05
156800,-7.75347e-06
156800,5.16499e-05
156800,-0.00070901
156800,0.000122018
156800,-1.63026e-05
156800,0.00035813
156800,-0.000147848
156800,0.000248478
156800,0.000742899
156800,1.28007e-05
156800,7.29042e-05
156800,0.000267883
156800,0.000240477
156800,-0.000796281
156800,4.12524e-05
156800,-0.000102813
156800,0.00131985
156800,-0.000434279
156800,0.000212466
156800,0.000264115
156800,-3.56014e-05
156800,-5.55525e-05
156800,0.000388336
156800,-0.000198628
156800,0.000291273
156800,0.000318021
156800,-0.000330133
156800,-0.000671399
156800,-0.000519359
156800,-0.000581497
156800,0.000555493
156800,0.000417026
156800,-2.17001e-05
156800,-0.000217221
156800,-0.000445654
156800,-0.000151938
156800,6.5146e-05
156800,-7.34247e-05
156800,0.000101709
156800,-0.000451225
156800,0.00010725
156800,0.000253435
156800,-0.00034536
156800,-0.000771279
156800,0.000232983
156800,-0.000208607
156800,7.76428e-05
156800,0.000602917
156800,-0.000286197
156800,0.000142441
156800,0.000187877
156800,-2.05808e-05
156800,0.00040773
156800,9.43431e-05
156800,6.24463e-05
156800,-0.000272531
156800,-0.000122449
156800,0.00130935
156800,-0.00020506
156800,-0.00108978
156800,0.000733533
156800,-0.000167565
156800,0.000348993
156800,-0.000300512
156800,0.000533335
156800,0.000537488
156800,-0.000617641
156800,-0.000105861
156800,-9.55092e-05
156800,-0.000541142
156800,-0.000544552
156800,0.000397884
156800,0.000359633
156800,0.000141391
156800,0.000795064
156800,-2.67001e-05
156800,-0.000126063
156800,0.000563107
156800,8.56646e-05
156800,0.000578341
156800,-5.16829e-05
156800,8.13109e-05
156800,0.000702264
156800,-8.66014e-05
156800,-0.000377459
156800,4.44701e-05
156800,0.000409553
156800,0.000849154
156800,0.000214989
156800,-0.000512173
156800,-0.000443126
156800,-0.000411622
156800,0.000166345
156800,0.000176461
156800,-0.000204824
156800,-0.000509709
156800,0.0001952
156800,0.00113899
156800,0.00029724
156800,0.00010775
156800,0.000109085
156800,0.000593292
156800,0.000219942
156800,5.54469e-05
156800,0.00059152
156800,0.000194532
156800,-0.000770264
156800,0.000534574
156800,0.00105168
156800,7.49077e-05
156800,0.000353087
156800,0.000483296
156800,-7.63888e-05
156800,0.000245352
156800,0.000253533
156800,-0.000738729
156800,-2.05884e-05
156800,-0.000923151
156800,-0.000225729
156800,0.000396208
156800,0.000822195
156800,-3.57389e-05
156800,-0.000240726
156800,-6.94223e-05
156800,0.000176018
156800,-0.000128467
156800,4.35554e-05
156800,0.000155623
156800,0.000577841
156800,0.000456935
156800,-0.000635549
156800,3.54444e-06
156800,-7.77851e-05
156800,-0.000205095
156800,-0.000596309
156800,0.000412878
156800,-0.000406501
156800,0.000321653
156800,-0.000577888
156800,3.01181e-05
156800,-0.000415555
156800,-0.000679763
156800,-5.95346e-05
156800,2.7386e-05
156800,-0.000265009
156800,-1.23848e-05
156800,0.000481711
156800,0.000324343
156800,-0.000297486
156800,-0.000582755
156800,0.000293472
156800,-0.000367933
156800,-0.000994058
156800,0.000445583
156800,2.54643e-05
156800,0.000983675
156800,0.00108383
156800,-0.000683858
156800,0.000277402
156800,0.000728912
156800,0.000654623
156800,-8.89399e-05
156800,0.000229884
156800,7.48666e-05
156800,-0.000204389
156800,-9.27687e-05
156800,0.000171081
156800,-0.000834738
156800,-0.000472151
156800,0.000515621
156800,0.000291633
156800,0.000269135
156800,0.000247777
156800,-2.13931e-05
156800,-0.000624258
156800,8.29922e-05
156800,-0.000333258
156800,-0.000146603
156800,0.000360294
156800,-0.000207463
156800,-2.98471e-05
156800,-0.000379467
156800,-9.60927e-05
156800,0.000595342
156800,4.70742e-05
156800,-0.00100684
156800,-0.000222787
156800,-1.33751e-05
156800,0.000277363
156800,-0.000189536
156800,0.000563257
156800,-5.21587e-05
156800,0.000577287
156800,-0.000265215
156800,-0.00108407
156800,-0.000497614
156800,0.00021079
156800,-0.000407142
156800,0.000443122
156800,3.98608e-05
156800,-0.00117857
156800,-0.000623922
156800,0.000275893
156800,0.00055369
156800,-0.00076133
156800,0.000373303
156800,0.000103626
156800,-0.000501377
156800,0.000475018
156800,0.000295068
156800,-0.000309361
156800,-0.000257672
156800,0.000366181
156800,0.000229478
156800,-0.00064212
156800,0.000112576
156800,0.000528105
156800,0.000132837
156800,0.000650667
156800,-9.54956e-05
156800,0.000581617
156800,3.59075e-05
156800,5.67698e-06
156800,0.000323336
156800,0.00071038
156800,8.37962e-05
156800,-0.000110365
156800,4.84277e-05
156800,-0.000411939
156800,0.000562731
156800,0.000141031
156800,0.000829671
156800,-0.000566557
156800,0.000616264
156800,3.86213e-05
156800,-0.000256587
156800,-4.43718e-05
156800,0.00050717
156800,0.000219393
156800,0.000356046
156800,0.000248754
156800,0.000382299
156800,-0.000401803
156800,8.65513e-05
156800,-0.000354217
156800,0.000131818
156800,0.000313456
156800,-0.000238768
156800,-0.000453855
156800,-0.000394007
156800,0.000421499
156800,0.000295373
156800,-0.000633116
156800,0.000201911
156800,-0.000224256
156800,-1.61588e-05
156800,4.07027e-05
156800,0.00061585
156800,-0.000663246
156800,-0.000601113
156800,-0.000511742
156800,-0.000464761
156800,0.000621667
156800,0.000442014
156800,-0.000457483
156800,-0.000100208
156800,1.24364e-05
156800,0.000152736
156800,0.000256874
156800,-0.000284217
156800,-0.000378039
156800,0.00021962
156800,0.000463873
156800,-0.000334544
156800,8.32214e-05
156800,0.00063297
156800,-4.87815e-05
156800,-5.92519e-05
156800,-0.000113311
156800,0.000477174
156800,-0.000312874
156800,-0.000392096
156800,-1.58683e-05
156800,0.000536695
156800,-0.000712092
156800,0.00105274
156800,-0.000650609
156800,-2.80553e-05
156800,-0.000245036
156800,0.000320115
156800,0.00100784
156800,-0.000543661
156800,-2.78593e-05
156800,0.000198855
156800,0.000695596
156800,0.000560318
156800,0.000168641
156800,0.000881401
156800,0.000368295
156800,6.71356e-05
156800,0.000333199
156800,-0.00026
156800,0.000921587
156800,0.000318468
156800,-0.000184445
156800,0.000173017
156800,-0.000396299
156800,0.000563544
156800,-0.000378731
156800,0.000852697
156800,-0.000149959
156800,-0.000621093
156800,-0.000704122
156800,0.000239248
156800,-0.000590705
156800,4.14552e-05
156800,-0.000275566
156800,4.28919e-05
156800,-0.0011408
156800,-4.6948e-05
156800,0.000217819
156800,0.000413805
156800,0.000553524
156800,-0.00023773
156800,-1.01674e-05
156800,3.9327e-05
156800,0.00069448
156800,0.000361076
156800,-0.000628442
156800,0.000140996
156800,0.000484154
156800,-0.000201467
156800,4.64447e-05
156800,-7.79635e-05
156800,0.000293433
156800,-0.000147248
156800,-0.000134972
156800,-4.02375e-05
156800,-0.000297038
156800,-0.000156801
156800,0.000935713
156800,-0.000170068
156800,-0.000235405
156800,0.000355068
156800,0.000525
156800,-0.000490843
156800,0.000318181
156800,8.94628e-05
156800,0.000311339
156800,-0.000376444
156800,8.94615e-05
156800,0.000588086
156800,-1.6612e-05
156800,0.00117563
156800,0.00016148
156800,-0.000551708
156800,-0.000359445
156800,-0.000270928
156800,0.00044933
156800,-0.000505594
156800,-0.00015404
156800,0.000539908
156800,-0.00016072
156800,-0.000509047
156800,0.000264224
156800,-7.63999e-06
156800,-0.000463248
156800,-0.000833796
156800,-0.000517985
156800,0.000396682
156800,4.90757e-05
156800,-0.000121923
156800,2.93132e-05
156800,-0.000361458
156800,6.57706e-05
156800,-0.000883078
156800,-0.000177304
156800,4.86053e-05
156800,0.00026402
156800,0.000154657
156800,-5.05488e-05
156800,-8.80331e-05
156800,-0.000134262
156800,0.000177841
156800,-0.000648196
156800,-0.000243705
156800,0.000371016
156800,0.00019515
156800,0.00112914
156800,0.000304039
156800,-0.000372134
156800,-0.000209785
156800,0.00061516
156800,-0.000393151
156800,-0.000239677
156800,0.000372564
156800,0.000676671
156800,-2.68856e-05
156800,-0.000259919
156800,0.000173715
156800,5.11885e-05
156800,0.000193398
156800,6.96897e-05
156800,-0.00065069
156800,-0.000531326
156800,-0.000252227
156800,0.000404535
156800,-0.00030937
156800,3.65283e-05
156800,-0.000107884
156800,-0.00068372
156800,-0.000280294
156800,-0.000281887
156800,-0.000479906
156800,-1.76367e-05
156800,0.000560172
156800,0.000842518
156800,0.000383896
156800,0.00023996
156800,0.000391037
156800,-0.000241648
156800,0.000375546
156800,0.000868598
156800,-0.000191833
156800,0.000584736
156800,-0.000650429
156800,0.000404077
156800,0.000163648
156800,-0.000158623
156800,0.000824537
156800,6.945e-05
156800,1.66492e-05
156800,-0.000618615
156800,-0.000240939
156800,0.000159977
156800,-0.000405943
156800,0.000750269
156800,-0.000181337
156800,-0.000625218
156800,-0.000273147
156800,0.000103573
156800,0.000376135
156800,0.000213753
156800,0.000397764
156800,0.000858031
156800,9.17733e-05
156800,0.000466126
156800,0.000446526
156800,0.000268947
156800,0.000516412
156800,2.19642e-05
156800,-0.000700872
156800,-0.000650413
156800,-0.000389056
156800,-0.000375319
156800,-0.000620085
156800,-0.000386633
156800,9.42447e-05
156800,-0.00018681
156800,2.7165e-05
156800,0.000114799
156800,-7.01102e-05
156800,0.00075262
156800,5.36212e-05
156800,-7.78037e-05
156800,-0.000456904
156800,0.000584684
156800,-0.000502797
156800,0.000634866
156800,-0.000639026
156800,6.58781e-05
156800,-0.00101584
156800,0.000955851
156800,-0.000407226
156800,-2.20092e-05
156800,-0.000525066
156800,0.000214326
156800,2.55142e-05
156800,-0.000274604
156800,-4.95104e-05
156800,-0.000196838
156800,-1.48743e-05
156800,-0.000256558
156800,-0.000582187
156800,-0.000289962
156800,0.000508964
156800,9.82405e-05
156800,-0.000122124
156800,-0.000308784
156800,0.0003613
156800,0.000324469
156800,-0.000857931
156800,0.00022556
156800,0.000279627
156800,0.000128232
156800,0.000919539
156800,-0.000906268
156800,0.00054491
156800,-6.4904e-05
156800,1.70337e-05
156800,0.000266704
156800,-8.14019e-05
156800,-0.000347487
156800,-0.000318037
156800,-0.000789209
156800,0.000368313
156800,0.000233095
156800,-0.000283074
156800,-0.00020812
156800,0.000384495
156800,-5.51226e-05
156800,-0.000156348
156800,0.000326427
156800,0.000967744
156800,6.38224e-05
156800,7.85792e-05
156800,-3.45949e-05
156800,7.32957e-05
156800,-0.000473602
156800,-0.000441202
156800,0.000163813
156800,-0.000361554
156800,-0.00024497
156800,-0.000324184
156800,4.83307e-05
156800,-0.000336445
156800,-0.000394002
156800,0.000619456
156800,0.000264968
156800,7.98624e-05
156800,0.000373303
156800,-0.000151131
156800,-0.00065206
156800,0.000639003
156800,-0.000585716
156800,-0.000119321
156800,-0.000212969
156800,-9.4295e-05
156800,-0.00012645
156800,0.000765169
156800,-7.45203e-05
156800,0.000537154
156800,0.000101506
156800,-0.000151438
156800,0.000166598
156800,-0.000741155
156800,0.000643443
156800,0.000387395
156800,5.15368e-05
156800,-0.000449966
156800,-8.7169e-05
156800,0.000658367
156800,0.000262055
156800,-0.000102049
156800,-0.00020643
156800,-0.000475595
156800,-0.00038966
156800,2.57432e-05
156800,0.000737121
156800,-6.60044e-05
156800,-0.000479382
156800,0.000378988
156800,0.000572381
156800,-0.000165738
156800,-0.000458402
156800,-0.000208461
156800,0.000200142
156800,0.000155557
156800,0.000133874
156800,-0.000349063
156800,-1.47252e-05
156800,0.000539634
156800,-0.000278275
156800,0.000265862
156800,0.000395343
156800,-8.60772e-05
156800,0.000132749
156800,-0.000375007
156800,-0.000319005
156800,0.000761744
156800,0.000435715
156800,2.43757e-05
156800,0.000159142
156800,-8.43618e-05
156800,-0.000560744
156800,-0.000169283
156800,-0.000463803
156800,-0.000356523
156800,0.00021857
156800,-0.000188716
156800,0.00119796
156800,0.000297713
156800,0.000417005
156800,-0.00116079
156800,-0.000178138
156800,-0.000465902
156800,0.000768961
156800,-0.000827267
156800,-0.000257135
156800,0.000121377
156800,-0.000685767
156800,0.000370052
156800,-0.000669879
156800,0.000186883
156800,-0.000335476
156800,-0.000570413
156800,-7.42633e-05
156800,0.00033905
156800,2.93299e-05
156800,0.000153453
156800,6.6745e-05
156800,-0.000762732
156800,0.000307826
156800,0.000458116
156800,-0.000628016
156800,-0.000402013
156800,0.00043287
156800,-0.000213738
156800,4.18813e-05
156800,-0.000451696
156800,0.000351862
156800,0.000424042
156800,6.07364e-05
156800,-0.00103827
156800,-3.89758e-05
156800,-0.000383848
156800,-0.000190518
156800,-0.000672919
156800,9.90575e-05
156800,-0.000818157
156800,0.000205548
156800,-1.45914e-05
156800,-6.13325e-05
156800,0.000315203
156800,-0.000282813
156800,0.000111733
156800,-0.000300157
156800,0.000204437
156800,-0.00027051
156800,-0.000940707
156800,-0.000452105
156800,0.000660451
156800,0.000131033
156800,1.23571e-05
156800,-0.000254919
156800,0.000201337
156800,0.000686115
156800,-0.000617385
156800,-0.000202521
156800,0.000272006
156800,-1.01133e-05
156800,-2.99618e-05
156800,-0.000262607
156800,-0.000489602
156800,-0.000306053
156800,-0.000145722
156800,0.000546467
156800,5.74416e-06
156800,0.000413525
156800,0.000192365
156800,0.000835136
156800,-0.000135003
156800,0.000205128
156800,0.000775735
156800,0.00049681
156800,6.58598e-05
156800,-0.000658973
156800,-0.000654234
156800,-0.000331785
156800,-0.000430115
156800,0.000347735
156800,0.000610397
156800,0.000132266
156800,0.000352432
156800,-0.000677086
156800,-8.67204e-05
156800,0.000143036
156800,-4.94385e-05
156800,0.00070774
156800,-0.000184254
156800,-4.70379e-05
156800,0.000767134
156800,-0.000204329
156800,0.000360856
156800,-0.000180875
156800,-0.00020016
156800,-0.000298334
156800,0.000362794
156800,-9.02904e-05
156800,-0.000168325
156800,-0.000351334
156800,0.000189603
156800,-0.000341521
156800,-0.000387981
156800,-0.00127034
156800,0.000436328
156800,0.000844527
156800,-3.10228e-05
156800,-0.000175257
156800,0.00058274
156800,-3.88626e-05
156800,-0.000229699
156800,-0.000293504
156800,-2.34426e-05
156800,-0.000200709
156800,0.000105634
156800,-0.000467933
156800,0.000215175
156800,0.000269801
156800,0.000932818
156800,-0.000133364
156800,0.000516044
156800,-4.6431e-05
156800,-0.000540581
156800,0.000432519
156800,-0.000380627
156800,0.000293212
156800,8.5622e-05
156800,-0.000623991
156800,4.05459e-06
156800,3.47475e-05
156800,-6.84112e-05
156800,-0.00061581
156800,3.74342e-05
156800,0.000217903
156800,-0.000101283
156800,-1.40905e-05
156800,0.000681987
156800,-0.000226084
156800,0.000251187
156800,-7.57566e-05
156800,0.000288313
156800,-0.000229527
156800,0.000497776
156800,-0.000567418
156800,-0.000315894
156800,0.000461415
156800,-0.000519129
156800,-0.000237441
156800,-0.000522893
156800,-0.00104555
156800,7.3478e-05
156800,-0.000333542
156800,0.000255699
156800,0.000428232
156800,0.000620375
156800,0.00051882
156800,-0.000714431
156800,0.000429499
156800,0.000325238
156800,0.000641951
156800,-0.000285744
156800,0.000188234
156800,-0.000108197
156800,-7.46994e-05
156800,5.9916e-05
156800,0.000621877
156800,5.48144e-05
156800,-0.000439099
156800,-0.000623397
156800,0.000152526
156800,-0.000569828
156800,-0.000517985
156800,-0.000208822
156800,0.000225298
156800,0.000264062
156800,0.000209826
156800,-0.000329678
156800,0.000193636
156800,6.87566e-05
156800,-0.000874112
156800,0.000498617
156800,-0.000321053
156800,0.000340913
156800,-0.00115946
156800,0.000484469
156800,-0.000113549
156800,-0.000354147
156800,0.000463732
156800,-0.000388278
156800,0.000636879
156800,0.000132908
156800,-0.000436393
156800,-0.00022947
156800,0.00037111
156800,0.00118582
156800,0.00028892
156800,0.000880866
156800,6.31599e-05
156800,0.000117446
156800,0.0001464
156800,0.000284173
156800,-0.000559535
156800,0.00020359
156800,-0.000602701
156800,-0.000249079
156800,0.000335167
156800,-0.000799542
156800,-0.000304007
156800,-0.000219466
156800,-6.56129e-05
156800,-1.80669e-05
156800,0.000193022
156800,-0.000287077
156800,0.000552566
156800,0.000102691
156800,-0.00023109
156800,-0.000473363
156800,-1.89749e-05
156800,0.000698008
156800,-3.00043e-05
156800,-0.000965244
156800,0.000121745
156800,-4.34619e-05
156800,0.000547767
156800,-0.000495345
156800,-0.000114687
156800,0.000599464
156800,0.00067729
156800,-0.000601944
156800,-0.000476504
156800,0.00011656
156800,-0.000340876
156800,0.000121821
156800,0.000132799
156800,-0.000169288
156800,-0.000470301
156800,0.000152241
156800,-0.000117421
156800,-0.00022886
156800,-0.000520557
156800,-0.000184504
156800,0.000769138
156800,-0.000676359
156800,0.000333412
156800,-0.000809712
156800,-8.73766e-05
156800,-0.000108998
156800,0.000925449
156800,-0.00122545
156800,0.000311368
156800,0.000422383
156800,0.000746249
156800,-0.000291985
156800,-0.000263948
156800,0.000209804
156800,0.000307554
156800,-0.000560132
156800,0.000510599
156800,-0.000527887
156800,-0.000252157
156800,8.79926e-06
156800,-0.000475104
156800,4.10148e-05
156800,-0.000776528
156800,0.00030828
156800,6.14361e-05
156800,9.12007e-05
156800,-0.000431584
156800,-0.00036169
156800,-3.1197e-05
156800,-0.000138713
156800,-0.000874173
156800,-0.00031585
156800,-0.000148853
156800,-0.000143991
156800,1.83542e-05
156800,2.21784e-05
156800,-3.98389e-06
156800,-0.000233252
156800,0.000543482
156800,-0.000292774
156800,-0.000347509
156800,0.000328955
156800,6.10188e-05
156800,0.000671611
156800,-0.000345331
156800,0.000556785
156800,0.00057661
156800,1.06874e-06
156800,0.000267171
156800,-0.000391291
156800,-0.000324423
156800,0.000100528
156800,0.0010755
156800,0.000218844
156800,-0.00116665
156800,0.000418972
156800,-0.000230349
156800,4.9203e-05
156800,8.13447e-05
156800,0.000369153
156800,0.000395481
156800,-0.000604994
156800,0.000408073
156800,-0.000215289
156800,-1.02888e-06
156800,0.000121019
156800,0.000992854
156800,-2.62229e-06
156800,-0.000121884
156800,0.000559807
156800,-0.000589305
156800,-0.000434984
156800,0.000954459
156800,-0.00106096
156800,0.00033997
156800,0.000554153
156800,-0.000595726
156800,-0.000199991
156800,0.00108609
156800,-8.99173e-05
156800,-0.000152549
156800,-0.000399825
156800,-0.000781491
156800,-0.000429212
156800,-0.000409653
156800,-0.00061412
156800,-0.000998122
156800,5.99158e-05
156800,-0.000118167
156800,-0.000343968
156800,-0.000329936
156800,-0.000355345
156800,-0.00021114
156800,0.000183471
156800,-0.000533094
156800,0.000303075
156800,0.000302953
156800,-0.000333189
156800,-0.00057287
156800,0.000430249
156800,0.000154126
156800,0.000284195
156800,-0.000643973
156800,0.000110219
156800,-0.000344444
156800,0.000287494
156800,0.000646639
156800,0.000213859
156800,-0.000487682
156800,0.00156156
156800,5.59769e-05
156800,-0.000220007
156800,5.4214e-05
156800,0.00021543
156800,-0.000677546
156800,-0.000993333
156800,-8.90826e-05
156800,-0.000109923
156800,-2.68572e-05
156800,-0.000206162
156800,-4.39084e-05
156800,-0.000171535
156800,0.000111996
156800,0.000258868
156800,1.67508e-06
156800,0.000261949
156800,-0.00055848
156800,-0.000206148
156800,3.35523e-05
156800,0.000808242
156800,-0.000110938
156800,0.000699287
156800,-0.000250884
156800,-0.000126968
156800,0.000420331
156800,0.000825444
156800,0.00012819
156800,3.2374e-05
156800,-0.000257465
156800,-0.000147251
156800,-0.000701311
156800,0.000741779
156800,-0.000574938
156800,0.000313266
156800,0.000225958
156800,-0.000331229
156800,4.94988e-05
156800,-5.72561e-05
156800,0.000197575
156800,0.000348317
156800,-0.00010737
156800,5.02924e-05
156800,-0.000229462
156800,0.00104719
156800,0.000315427
156800,-0.000116849
156800,-5.71776e-05
156800,-0.000106369
156800,0.000142167
156800,0.000290194
156800,0.000806553
156800,-0.000237331
156800,0.000217648
156800,0.000462573
156800,-0.000435704
156800,-0.000430485
156800,0.00034013
156800,0.000578431
156800,-0.000131825
156800,0.000405862
156800,6.56696e-05
156800,-0.000502177
156800,-0.000421607
156800,0.000891512
156800,-0.000671667
156800,-0.000264204
156800,-0.000330355
156800,0.000471799
156800,6.74898e-06
156800,0.000322763
156800,5.23018e-05
156800,5.96713e-05
156800,-0.000322852
156800,-0.000251616
156800,0.000277549
156800,-0.000512237
156800,0.000103465
156800,-0.00103886
156800,-0.000482921
156800,0.000429333
156800,-0.000511045
156800,0.000114003
156800,3.05101e-05
156800,0.000299173
156800,-0.00132998
156800,-0.00028498
156800,-2.11915e-05
156800,0.000413437
156800,-0.000908906
156800,-0.000336252
156800,0.000596906
156800,6.609e-05
156800,0.000370503
156800,-0.000234061
156800,-0.00038645
156800,0.000212826
156800,9.21387e-06
156800,0.000228168
156800,0.000238989
156800,-0.000900607
156800,-0.000668314
156800,-0.000217722
156800,-0.000679459
156800,0.000458825
156800,-0.000428654
156800,-0.000164816
156800,0.000515391
156800,8.81154e-05
156800,0.00016041
156800,-7.5911e-05
156800,0.000253183
156800,-0.000289704
156800,-0.000204439
156800,5.59559e-05
156800,-8.36824e-05
156800,0.000215029
156800,0.000154201
156800,0.000640278
156800,-0.000208371
156800,-0.000760519
156800,0.000291401
156800,-0.000120539
156800,-0.00119456
156800,0.000225816
156800,0.000607129
156800,0.000372214
156800,0.000491865
156800,4.79251e-05
156800,-0.000326383
156800,0.000572725
156800,0.000506056
156800,-5.5604e-05
156800,0.000223722
156800,3.15975e-05
156800,-0.000276023
156800,1.95667e-05
156800,0.000675269
156800,-0.00011425
156800,-0.000387716
156800,-0.000601631
156800,-2.19419e-05
156800,0.000385807
156800,0.000351207
156800,-0.000375243
156800,0.000152094
156800,-0.000382508
156800,0.000605294
156800,-0.000589191
156800,0.000338106
156800,6.96585e-05
156800,-0.000200915
156800,-0.000495286
156800,0.000130364
156800,-0.000334066
156800,-0.000272613
156800,0.000397835
156800,0.000283985
156800,-0.000300645
156800,-0.000553061
156800,9.30496e-06
156800,0.000688069
156800,-0.000486447
156800,-0.000139965
156800,0.000156704
156800,0.000171035
156800,-0.000770978
156800,0.00101312
156800,0.00037039
156800,0.000221605
156800,-0.000537358
156800,0.00053464
156800,-0.000423834
156800,0.000465266
156800,3.11238e-05
156800,2.35229e-05
156800,0.000392193
156800,-0.000159152
156800,0.000332956
156800,-0.000279928
156800,-0.00106433
156800,-0.000182658
156800,0.000203833
156800,7.40933e-05
156800,-0.000294184
156800,-0.000315925
156800,-0.000529421
156800,0.000363997
156800,0.000197759
156800,0.000467522
156800,0.000731207
156800,0.000245367
156800,-4.639e-05
156800,-0.000102985
156800,0.000507007
156800,-0.000530073
156800,-0.000171955
156800,7.93011e-05
156800,-0.000373391
156800,-0.000393337
156800,-0.000143832
156800,0.000178765
156800,-0.000387676
156800,0.000203934
156800,-0.000290668
156800,-0.000144837
156800,0.000230928
156800,-6.10189e-05
156800,0.000309236
156800,6.46226e-05
156800,-0.000471245
156800,-0.000215842
156800,0.000119981
156800,-0.000534492
156800,-0.000710924
156800,-0.000753033
156800,0.000543266
156800,-8.74769e-05
156800,8.91758e-05
156800,0.000376384
156800,0.000207287
156800,0.00022511
156800,0.000455002
156800,0.000431178
156800,0.000493011
156800,-0.000281261
156800,0.000288178
156800,0.000128902
156800,0.000281292
156800,5.65968e-05
156800,0.00112995
156800,-0.000393756
156800,0.000216791
156800,-0.000342579
156800,-3.09022e-05
156800,-0.000261899
156800,-0.000249806
156800,0.000292976
156800,-0.000368712
156800,-6.90155e-05
156800,-5.85629e-05
156800,0.000949019
156800,0.000446438
156800,-0.000356719
156800,-0.000356741
156800,-0.000130336
156800,-0.000919788
156800,0.000342595
156800,8.95314e-05
156800,0.000129765
156800,-8.58409e-05
156800,-0.000739128
156800,-1.60698e-05
156800,5.62732e-05
156800,-0.000752768
156800,-0.000540145
156800,-0.000726422
156800,-0.000328525
156800,-0.000120487
156800,-0.000453117
156800,0.000173445
156800,0.000571844
156800,0.000295591
156800,0.00056332
156800,0.000571215
156800,0.000229562
156800,-0.000694626
156800,-0.00041122
156800,0.000249739
156800,0.000771373
156800,0.000435568
156800,-0.000236815
156800,-0.000395644
156800,0.000170254
156800,0.000269353
156800,-0.000495943
156800,-0.000180307
156800,1.15162e-05
156800,-0.000350765
156800,-0.000584217
156800,7.15269e-06
156800,0.000565987
156800,-0.000199402
156800,0.000734817
156800,-0.00024806
156800,-0.000501023
156800,-0.000647457
156800,5.41469e-05
156800,0.000589903
156800,-9.22395e-05
156800,0.000488722
156800,-0.000609981
156800,6.27445e-05
156800,-0.00029326
156800,-0.000730206
156800,3.71676e-05
156800,-0.000140534
156800,0.000665221
156800,0.000525921
156800,0.000489378
156800,8.46597e-05
156800,-0.000166055
156800,-0.00010121
156800,0.000173631
156800,-0.000617792
156800,-0.000280013
156800,-4.45754e-06
156800,-0.000540166
156800,1.14052e-05
156800,0.000674963
156800,0.000291349
156800,0.000482179
156800,0.000979306
156800,0.000167615
156800,0.000132026
156800,0.000298712
156800,0.000649136
156800,-0.000757934
156800,0.0004698
156800,-7.80228e-05
156800,-0.000444173
156800,-4.28747e-05
156800,-0.00019934
156800,-4.90462e-05
156800,4.99652e-07
156800,0.000537996
156800,-0.000314752
156800,0.000313073
156800,-0.000256323
156800,0.00010188
156800,0.000445283
156800,8.22611e-05
156800,-0.000637014
156800,2.19099e-05
156800,0.000530226
156800,0.000192565
156800,7.86781e-05
156800,0.000320271
156800,-0.000297356
156800,-0.000390382
156800,-0.000742062
156800,-0.000154395
156800,-0.000351766
156800,0.000538796
156800,-1.71047e-06
156800,0.000609446
156800,0.000372678
156800,0.000119461
156800,-0.000625213
156800,0.000486931
156800,0.000456004
156800,0.000205073
156800,0.000368049
156800,0.000362898
156800,0.000298743
156800,0.000141582
156800,0.00028079
156800,-0.000332075
156800,-0.000893183
156800,-2.61309e-05
156800,5.70485e-05
156800,9.04983e-05
156800,-5.97228e-05
156800,-0.000702147
156800,0.00107738
156800,0.000165991
156800,0.00033321
156800,0.000252238
156800,0.000170285
156800,0.000187589
156800,0.00039326
156800,0.000345894
156800,-0.000781173
156800,-0.000142793
156800,-0.000814266
156800,-0.000449909
156800,0.000332299
156800,-0.000429667
156800,0.000130236
156800,-3.42692e-05
156800,-9.31021e-05
156800,-0.000317612
156800,-0.000135921
156800,5.92801e-06
156800,4.5618e-05
156800,-8.99332e-05
156800,-6.05629e-05
156800,0.000397875
156800,-2.56395e-06
156800,0.000194328
156800,0.000438088
156800,-0.000579212
156800,-0.000918712
156800,-0.000894896
156800,-0.000343994
156800,-0.000257632
156800,-0.000316792
156800,-4.61117e-05
156800,0.00109105
156800,-0.000430648
156800,-0.000594423
156800,-0.000509111
156800,0.000667805
156800,0.00104339
156800,-7.83563e-06
156800,-7.71958e-06
156800,-2.07277e-05
156800,0.000125921
156800,0.000869818
156800,0.000113381
156800,0.000276399
156800,9.69471e-05
156800,0.000292172
156800,-0.000499192
156800,0.000312902
156800,0.000520399
156800,-0.000363986
156800,1.65635e-05
156800,-0.000240484
156800,-0.000465964
156800,-0.000255931
156800,-0.000267823
156800,-0.000270536
156800,-0.00038359
156800,0.000298416
156800,-0.000276812
156800,-2.12359e-05
156800,6.59019e-05
156800,0.000388599
156800,-0.000441394
156800,0.000113026
156800,-0.000279094
156800,0.000805618
156800,0.000548161
156800,0.000328318
156800,-0.000183794
156800,0.000191889
156800,0.000323848
156800,2.30031e-05
156800,-0.000258916
156800,-0.000472078
156800,-0.000647655
156800,-0.000195062
156800,5.20329e-05
156800,-8.71155e-05
156800,-0.00118078
156800,-2.91659e-05
156800,0.000125773
156800,0.000882257
156800,-0.000104298
156800,-0.00027378
156800,-0.00034332
156800,0.000828383
156800,0.000122359
156800,-0.000261795
156800,0.00029991
156800,-0.000896301
156800,4.25779e-06
156800,0.000264084
156800,-0.000359552
156800,0.000149309
156800,0.000266031
156800,-0.00039763
156800,-0.000726599
156800,0.000358134
156800,0.000321348
156800,0.000276128
156800,0.000409089
156800,0.000453316
156800,0.00075512
156800,0.000294951
156800,-0.000479325
156800,-0.000508866
156800,-5.93714e-05
156800,0.000513835
156800,-0.000317259
156800,0.000222617
156800,-9.83569e-05
156800,0.000754972
156800,-0.000608588
156800,-0.000149971
156800,0.000442057
156800,-0.000159234
156800,-0.000161612
156800,-0.000223475
156800,0.000456468
156800,-0.000277817
156800,0.000519739
156800,0.000819394
156800,-0.000122297
156800,0.00135218
156800,-0.000633663
156800,-0.000343139
156800,-0.000235488
156800,-0.000488554
156800,0.000144424
156800,0.000177738
156800,0.000240542
156800,-0.00044562
156800,-0.000634462
156800,0.000163297
156800,-8.66657e-05
156800,0.000533562
156800,-0.000106101
156800,-0.000176926
156800,0.000571331
156800,-0.000454442
156800,0.000525275
156800,0.000390069
156800,0.00065765
156800,-0.000267175
156800,-0.000749349
156800,-0.000100595
156800,-0.00081368
156800,-0.000912056
156800,0.000392394
156800,0.000383972
156800,-0.000342126
156800,0.000264049
156800,5.82486e-05
156800,-0.000213575
156800,-0.000516722
156800,8.54111e-05
156800,-0.000258884
156800,0.000256262
156800,-0.00013586
156800,-0.000342749
156800,0.000734632
156800,-0.000736335
156800,-0.000739877
156800,0.000381416
156800,-0.000207435
156800,0.000260064
156800,-0.000135592
156800,0.000582454
156800,-0.00033197
156800,-0.000217263
156800,0.000477461
156800,-0.000213549
156800,-0.00064632
156800,0.000367193
156800,0.000534261
156800,-0.000856661
156800,-0.000241212
156800,-0.00024346
156800,-0.000558678
156800,-0.000257354
156800,-0.000778007
156800,-8.86955e-05
156800,5.34227e-05
156800,-0.000304336
156800,0.000240776
156800,-3.88712e-05
156800,0.000554762
156800,0.000876721
156800,0.000180159
156800,-0.000446364
156800,-0.000990954
156800,-0.00044658
156800,-0.00086353
156800,-0.000135438
156800,-0.000612124
156800,-0.000120243
156800,0.000945596
156800,0.000150976
156800,0.000662666
156800,0.000392219
156800,-0.000841905
156800,-0.000552336
156800,-0.000407719
156800,-4.47775e-05
156800,-0.000557305
156800,0.000106783
156800,-0.000380351
156800,-0.00013638
156800,-0.000211968
156800,-0.000275773
156800,0.000282913
156800,0.000447303
156800,0.000240362
156800,3.36707e-05
156800,0.000179813
156800,-0.000400118
156800,-0.000399752
156800,-0.000498399
156800,-0.000332518
156800,-0.00135357
156800,-0.000249256
156800,-7.51387e-05
156800,0.00144757
156800,4.19121e-05
156800,0.000230437
156800,0.0016279
156800,0.000200891
156800,-0.000513977
156800,-4.30867e-05
156800,-0.00142763
156800,-0.000298278
156800,0.000337544
156800,-0.000209145
156800,0.000126823
156800,0.000510858
156800,-0.000324058
156800,4.87373e-05
156800,0.000327541
156800,-0.000286659
156800,-4.13109e-05
156800,0.000450591
156800,-0.000423581
156800,0.000394008
156800,-0.000565225
156800,-0.000370622
156800,-0.00042675
156800,-0.000106234
156800,-0.000465378
156800,0.000181653
156800,-9.0261e-05
156800,-0.000156795
156800,0.000496934
156800,-0.000680028
156800,-0.000434503
156800,7.9113e-06
156800,-0.000941967
156800,8.45002e-05
156800,-0.000282498
156800,0.000246696
156800,-0.000163693
156800,-8.16855e-05
156800,0.000354002
156800,0.000106314
156800,-0.000165973
156800,1.46295e-05
156800,-0.000456523
156800,-0.000455869
156800,0.000315094
156800,0.000776807
156800,0.00102606
156800,5.85717e-05
156800,0.000350593
156800,-0.000359904
156800,-2.45636e-05
156800,0.000200564
156800,0.000637631
156800,0.000435609
156800,0.000696917
156800,-0.000615948
156800,-0.000642474
156800,-0.000551245
156800,-0.000318934
156800,8.70678e-05
156800,-0.000175659
156800,0.000392227
156800,-0.000535009
156800,0.00027852
156800,0.000570277
156800,3.63214e-06
156800,0.000216597
156800,-7.12887e-05
156800,0.000285019
156800,0.000174525
156800,-0.000271378
156800,-0.000762656
156800,0.000523654
156800,-0.000203014
156800,3.54822e-05
156800,-0.000281333
156800,0.000223918
156800,-0.000236306
156800,-0.000552161
156800,0.000378797
156800,-0.0006577
156800,0.000476408
156800,-0.000190398
156800,0.00041055
156800,-2.53146e-05
156800,-0.000161366
156800,0.000469911
156800,-1.64392e-05
156800,-4.25293e-06
156800,0.000147573
156800,-1.05238e-05
156800,0.000242658
156800,0.000255261
156800,-0.000542328
156800,-0.000212377
156800,-0.00037881
156800,0.00075858
156800,0.000584278
156800,6.2151e-05
156800,0.000293728
156800,-0.000147214
156800,-0.000366468
156800,-0.000245074
156800,-0.000279432
156800,-0.000486148
156800,-0.000109234
156800,0.000459661
156800,0.000392649
156800,-0.000346378
156800,-0.000598956
156800,8.48172e-05
156800,-0.00114694
156800,0.000398053
156800,6.02252e-05
156800,-0.000230971
156800,-0.000129405
156800,0.000402354
156800,-0.000335532
156800,-0.00065286
156800,-0.000918892
156800,0.00043859
156800,0.000153004
156800,-0.000993399
156800,-0.000474144
156800,0.000415884
156800,-0.000232414
156800,0.000145419
156800,0.000185485
156800,0.000793535
156800,-0.000675943
156800,0.000463398
156800,-0.000209106
156800,-0.00057943
156800,0.000929245
156800,4.26132e-06
156800,0.000266121
156800,9.42648e-05
156800,-0.000589628
156800,-0.000451821
156800,0.000634808
156800,0.000255815
156800,0.000308925
156800,0.000628011
156800,-6.72485e-05
156800,-0.000556517
156800,0.000271063
156800,-0.000164702
156800,-0.00067372
156800,-0.00039849
156800,-0.000484008
156800,-0.000104194
156800,-0.000580588
156800,-0.00082339
156800,0.000487796
156800,-0.000975865
156800,-0.00028048
156800,0.000365097
156800,0.000701249
156800,0.000371495
156800,0.000562629
156800,-0.000403679
156800,0.000104491
156800,-5.83364e-05
156800,0.000909377
156800,0.0004548
156800,0.000742715
156800,-0.000242087
156800,0.000892335
156800,0.000720524
156800,-0.000494058
156800,-8.87649e-05
156800,0.000975221
156800,0.000148903
156800,0.000586397
156800,0.000432195
156800,4.41077e-05
156800,-0.000647509
156800,-0.000437252
156800,-0.000176118
156800,-0.000139235
156800,-0.000129669
156800,0.000599433
156800,0.000249712
156800,-3.87811e-05
156800,5.18613e-05
156800,0.000256864
156800,-0.000314276
156800,-0.000532861
156800,-0.000237057
156800,0.0004535
156800,-0.000381087
156800,-0.000189103
156800,-0.000581276
156800,0.000586634
156800,-0.000576543
156800,0.000369364
156800,0.000419108
156800,0.000121476
156800,0.000417543
156800,-0.000421154
156800,-0.00012232
156800,0.000483477
156800,0.000119565
156800,-0.000697514
156800,5.61026e-05
156800,-8.22472e-05
156800,0.000167342
156800,-0.00018874
156800,-0.000108095
156800,0.000183503
156800,0.000510647
156800,-0.000363602
156800,-0.000983042
156800,-0.000676889
156800,0.000592569
156800,-0.000213118
156800,0.000955208
156800,0.000506923
156800,0.00020022
156800,-4.7291e-05
156800,0.00032737
156800,-0.000276482
156800,0.000179318
156800,6.81042e-05
156800,0.000380256
156800,-0.000363699
156800,0.000311576
156800,0.000729303
156800,-8.21141e-06
156800,-0.000604775
156800,-9.64664e-05
156800,-8.96615e-05
156800,-0.000298133
156800,-3.74695e-05
156800,-0.000211581
156800,0.000537451
156800,-0.000604493
156800,0.000361126
156800,0.000553598
156800,-0.000310699
156800,0.000349192
156800,-2.8537e-05
156800,-0.000633293
156800,-0.000379896
156800,3.37219e-05
156800,-0.000187334
156800,-0.000164507
156800,0.000237532
156800,0.00103549
156800,-0.000218522
156800,-0.000421642
156800,-0.000376509
156800,-0.000175486
156800,-0.000537987
156800,-6.79045e-05
156800,0.000503975
156800,-4.44524e-05
156800,5.89546e-05
156800,-0.000186608
156800,-0.000225432
156800,0.000156066
156800,-0.000474043
156800,-0.000285551
156800,-1.99518e-05
156800,0.000676842
156800,-0.000368716
156800,0.000519605
156800,0.000333784
156800,0.000509847
156800,0.00057761
156800,-0.000229001
156800,-0.000566511
156800,0.000170505
156800,0.000205767
156800,0.000277175
156800,-0.000328441
156800,0.000462562
156800,-0.000518703
156800,-8.29087e-05
156800,-0.000823224
156800,0.00025197
156800,-0.0003152
156800,-0.000287159
156800,0.000385888
156800,-0.000501991
156800,0.000413719
156800,4.84249e-05
156800,-0.000206696
156800,0.000547696
156800,0.000153803
156800,-0.000158292
156800,0.000484689
156800,-0.000224387
156800,-0.000330696
156800,-0.000424661
156800,-0.000195649
156800,-0.000510233
156800,9.53344e-05
156800,-0.00116071
156800,-0.00072949
156800,-0.000277946
156800,0.000337941
156800,0.00113466
156800,-0.000725863
156800,-0.000479757
156800,-0.000106169
156800,-0.000750196
156800,0.000640485
156800,0.000355627
156800,4.15912e-05
156800,0.000920081
156800,0.000515716
156800,0.000235488
156800,0.000111877
156800,0.000149462
156800,0.000739944
156800,-0.000440783
156800,-0.00017189
156800,-0.000680156
156800,0.000129236
156800,0.000270559
156800,-0.00115167
156800,-0.000531904
156800,-7.86972e-05
156800,1.95164e-05
156800,0.000492596
156800,7.49735e-06
156800,-5.4585e-06
156800,2.59248e-05
156800,-0.000924191
156800,-0.000405366
156800,0.000780249
156800,0.000270143
156800,-0.00100047
156800,6.17119e-05
156800,-0.000257888
156800,0.000268967
156800,-0.000596844
156800,-0.00010031
156800,-0.00032037
156800,-0.000296035
156800,-0.000121777
156800,0.000467319
156800,-0.000525062
156800,-0.000305295
156800,-0.00065866
156800,-0.000569726
156800,0.000191197
156800,-0.000755317
156800,0.00040743
156800,-9.95468e-05
156800,0.000700468
156800,-0.000272678
156800,5.59975e-05
156800,-2.97913e-05
156800,0.000513019
156800,-0.000488573
156800,0.000344167
156800,-0.000534103
156800,0.000858131
156800,-0.00058343
156800,-0.00046077
156800,-0.000436867
156800,0.0003741
156800,0.000703029
156800,-0.000345337
156800,0.000755064
156800,-0.000322654
156800,0.000348441
156800,0.000399317
156800,0.000200331
156800,0.00015711
156800,-0.000593912
156800,9.34606e-05
156800,-0.000525224
156800,0.000519894
156800,-0.000110255
156800,0.000602567
156800,0.000209036
156800,0.000232225
156800,-0.000533042
156800,-0.000481545
156800,0.000231056
156800,-4.69637e-05
156800,0.000101587
156800,-0.000440646
156800,0.000592652
156800,-0.000433848
156800,0.00060515
156800,-0.000402092
156800,-0.000161404
156800,-0.000680011
156800,0.000195848
156800,-0.000924827
156800,-3.84444e-05
156800,0.000530193
156800,0.000406582
156800,-0.000138351
156800,-0.000195364
156800,-0.00055154
156800,0.000616906
156800,-6.85845e-05
156800,7.82321e-05
156800,-0.000336209
156800,-0.000157439
156800,0.000399226
156800,0.000325383
156800,0.000178903
156800,0.000590716
156800,0.000204875
156800,0.000932682
156800,0.000107677
156800,-0.000676293
156800,-0.000402983
156800,0.000729642
156800,-2.46578e-05
156800,0.000322778
156800,0.000245191
156800,0.000718441
156800,0.000462951
156800,-0.00127132
156800,0.000375677
156800,-0.000517535
156800,-0.000194339
156800,0.000162717
156800,-8.46392e-05
156800,0.000345324
156800,0.000664683
156800,3.05096e-05
156800,-0.000485835
156800,6.78912e-05
156800,0.000246511
156800,-5.81456e-05
156800,-9.14886e-05
156800,0.00031349
156800,0.000319999
156800,0.000312442
156800,-0.000716912
156800,0.000609853
156800,-0.000108452
156800,-0.000574545
156800,-0.000903741
156800,0.00063903
156800,0.000418957
156800,0.000915776
156800,-0.000258686
156800,0.00027349
156800,0.000651982
156800,0.0010604
156800,-0.000782015
156800,-0.000228663
156800,0.00034079
156800,-7.52196e-05
156800,-0.000590264
156800,0.000400059
156800,-0.000654047
156800,0.000515329
156800,0.000221856
156800,-0.000547415
156800,-0.000508219
156800,-0.000779668
156800,-0.000456406
156800,-0.000380907
156800,-0.000382023
156800,-0.000512512
156800,-3.29891e-05
156800,0.000240814
156800,0.000255472
156800,0.000355575
156800,-0.000123685
156800,-5.42986e-05
156800,-0.000159849
156800,0.000490861
156800,-0.000216721
156800,-0.000899405
156800,-0.000521839
156800,0.000312736
156800,-0.000500357
156800,0.000618049
156800,-0.000631204
156800,-0.000219028
156800,-0.00035843
156800,0.000362522
156800,0.000199304
156800,-0.000504938
156800,-0.000209756
156800,1.41976e-05
156800,0.000190701
156800,-0.000561664
156800,-0.000168297
156800,0.000122398
156800,0.00016967
156800,0.000880946
156800,0.000204972
156800,-0.000531473
156800,-0.000139229
156800,-6.5534e-05
156800,-4.0853e-05
156800,0.000847185
156800,0.000218815
156800,-0.000180078
156800,-0.000408071
156800,-0.000338455
156800,-0.000691518
156800,6.3931e-05
156800,-0.000281747
156800,0.000340917
156800,0.000319864
156800,7.91312e-05
156800,-0.000639651
156800,0.000249437
156800,-0.000188729
156800,0.000812295
156800,9.48854e-05
156800,-0.000236321
156800,-0.000271103
156800,0.000187007
156800,0.000201368
156800,0.000407582
156800,-0.000194462
156800,0.000732934
156800,-0.000322766
156800,-0.000135965
156800,-0.000271675
156800,-0.000283945
156800,7.0713e-05
156800,-0.000231035
156800,-0.000483535
156800,0.000693052
156800,5.87975e-05
156800,8.35452e-05
156800,0.000681236
156800,0.000532295
156800,0.000868257
156800,-0.000326481
156800,0.000431896
156800,2.26195e-05
156800,0.00057455
156800,0.000560515
156800,-0.00107484
156800,-0.000630838
156800,-0.000123192
156800,0.000550171
156800,-0.000111289
156800,0.000795393
156800,-8.14382e-05
156800,-0.000392749
156800,0.000815668
156800,-0.000487613
156800,-0.000175538
156800,-0.000126743
156800,-0.000148781
156800,-0.000680044
156800,-7.28417e-05
156800,-0.0010273
156800,-0.00016116
156800,0.000126821
156800,0.000485551
156800,0.000284218
156800,9.84988e-05
156800,0.000121624
156800,8.01115e-05
156800,-0.000525603
156800,-0.000780802
156800,0.000464575
156800,0.000156115
156800,-0.000335604
156800,-0.000531748
156800,-0.000396967
156800,0.000476735
156800,-0.000348811
156800,0.000819594
156800,-0.000226097
156800,-0.000429551
156800,-0.000487509
156800,-0.000141346
156800,0.000204413
156800,-5.06118e-05
156800,-0.000276255
156800,-0.000150717
156800,-0.000384995
156800,0.000907636
156800,0.00031989
156800,0.000446661
156800,-0.000748482
156800,-0.00033846
156800,-0.000499401
156800,0.000364918
156800,-0.000437034
156800,-0.000165423
156800,-0.000100414
156800,-0.000683625
156800,-0.000378843
156800,-0.000144375
156800,0.000615194
156800,0.000627283
156800,0.00105655
156800,-0.000213462
156800,-7.32535e-05
156800,0.000671821
156800,0.000416534
156800,-0.000300655
156800,-4.82963e-05
156800,0.000263977
156800,-4.54463e-05
156800,-0.000541447
156800,0.000830524
156800,-0.000147668
156800,0.000425304
156800,0.000124829
156800,0.000262531
156800,-9.86412e-06
156800,0.00010559
156800,-0.000105982
156800,0.000240234
156800,-5.93629e-05
156800,0.000361815
156800,-0.000961981
156800,0.000605201
156800,-0.000339734
156800,-1.7615e-05
156800,7.44803e-05
156800,-0.000158615
156800,-0.000363092
156800,-0.000903206
156800,0.000578014
156800,-0.00020953
156800,0.000366957
156800,8.08267e-05
156800,-0.000121388
156800,0.000280746
156800,0.00050954
156800,0.000425156
156800,8.09101e-05
156800,-0.000152481
156800,-0.000494529
156800,0.000201686
156800,-0.000483126
156800,-0.00143629
156800,-0.000405046
156800,-9.1771e-05
156800,0.00120127
156800,0.00062673
156800,-0.00066833
156800,-0.00011091
156800,0.00115614
156800,-0.00127749
156800,0.000298388
156800,7.33398e-05
156800,0.000377231
156800,0.000929584
156800,-0.000218176
156800,-0.000165915
156800,0.000301227
156800,3.55907e-05
156800,-0.000337818
156800,0.00013501
156800,-0.000573023
156800,4.60717e-06
156800,-0.000906283
156800,-0.000202946
156800,-6.04057e-05
156800,-0.000268342
156800,0.000558423
156800,2.52619e-05
156800,0.000172269
156800,7.89492e-05
156800,0.000124249
156800,8.84362e-05
156800,0.00045139
156800,0.00016072
156800,8.64285e-05
156800,0.000472008
156800,0.000158858
156800,-0.000561151
156800,0.000280295
156800,-0.000826356
156800,-0.000379198
156800,-0.000188079
156800,6.92818e-05
156800,0.0001294
156800,0.000447789
156800,0.000265567
156800,-0.000364464
156800,0.000250652
156800,0.000418753
156800,-0.000725741
156800,-9.91371e-05
156800,-2.85856e-05
156800,-0.000480286
156800,0.000309204
156800,0.000165832
156800,0.000144259
156800,0.000161497
156800,-0.000297635
156800,-0.000123024
156800,0.00095175
156800,0.000303184
156800,0.000341751
156800,0.000884393
156800,-0.000789017
156800,-0.000399149
156800,-0.000463824
156800,-0.000476746
156800,0.000130675
156800,0.000331921
156800,0.00122438
156800,0.00025973
156800,0.000181355
156800,-0.000379513
156800,-0.000617162
156800,0.000443775
156800,-0.000136415
156800,0.000139613
156800,0.000276773
156800,-0.000178499
156800,0.000468278
156800,-5.71959e-05
156800,0.000158859
156800,-0.00095358
156800,0.000417621
156800,-0.000714349
156800,0.000286273
156800,0.00014717
156800,-8.80506e-05
156800,0.00107188
156800,0.000670201
156800,0.000200126
156800,-0.000505992
156800,0.000680659
156800,-0.000349325
156800,-0.000562159
156800,-0.000710591
156800,-9.07628e-05
156800,-0.0002529
156800,0.000241943
156800,-0.00144975
156800,-0.00010602
156800,-0.000795374
156800,-5.17797e-05
156800,0.000333737
156800,-7.31868e-05
156800,0.000119199
156800,-0.000234403
156800,-0.00051156
156800,-0.00123666
156800,-0.000202248
156800,-0.000120864
156800,0.00052353
156800,-0.000144524
156800,-0.000851771
156800,0.000899791
156800,5.84874e-05
156800,-0.000602315
156800,4.28046e-05
156800,0.000161341
156800,4.91955e-05
156800,-6.23525e-05
156800,-0.000795584
156800,-0.000656612
156800,0.000160458
156800,-0.000256801
156800,0.000565466
156800,0.000697739
156800,-0.000643154
156800,9.6001e-05
156800,-0.000267437
156800,0.000458194
156800,0.000490466
156800,0.000592133
156800,0.000279497
156800,-6.40509e-05
156800,-3.81742e-05
156800,-0.000197764
156800,0.000124919
156800,-0.000153754
156800,-0.000234494
156800,-0.00012199
156800,0.000462683
156800,-0.000551341
156800,-0.000278482
156800,-9.43414e-05
156800,0.000891516
156800,-0.000332296
156800,-0.000529597
156800,3.97454e-05
156800,0.000551347
156800,-0.000182278
156800,-0.000791703
156800,-0.000191959
156800,-0.000984493
156800,-0.00037715
156800,-0.000439514
156800,0.000137038
156800,0.000481632
156800,0.000715224
156800,4.25286e-05
156800,-0.000251011
156800,0.00106029
156800,-0.000300491
156800,0.000141211
156800,-0.000315876
156800,-0.000245432
156800,-6.0307e-05
156800,-0.000468057
156800,0.000765683
156800,0.00041277
156800,0.000111729
156800,0.000503958
156800,0.00023098
156800,-0.000402056
156800,0.000662318
156800,0.000604547
156800,-0.000255036
156800,0.000147693
156800,0.000110057
156800,-0.000610613
156800,-0.000114002
156800,-1.61089e-05
156800,-0.000116168
156800,-0.000368219
156800,0.000696405
156800,0.00106801
156800,-0.000216544
156800,-0.000289482
156800,-3.43892e-05
156800,-0.000204702
156800,0.000545741
156800,-0.000202548
156800,0.000144942
156800,-0.000726812
156800,0.00105436
156800,9.78673e-06
156800,5.91682e-07
156800,0.000742595
156800,-0.000177703
156800,0.000676455
156800,-4.61416e-05
156800,-0.000714556
156800,-0.000882462
156800,0.000681189
156800,0.000247134
156800,-0.00079942
156800,0.000818689
156800,0.000395553
156800,9.40867e-05
156800,-0.00031684
156800,-0.0003369
156800,0.000452941
156800,0.000361479
156800,0.000148956
156800,-0.000551935
156800,-0.000320605
156800,0.000139866
156800,-6.60214e-05
156800,0.000202119
156800,-1.85087e-05
156800,-0.000153842
156800,0.000136852
156800,-2.77455e-05
156800,0.000932047
156800,-0.000417178
156800,-0.000196249
156800,0.000487338
156800,-0.000357935
156800,-0.000877049
156800,5.90697e-07
156800,-0.000415579
156800,-0.000242845
156800,-0.000124501
156800,0.00075396
156800,-0.000234965
156800,-0.000941286
156800,0.000190427
156800,3.0359e-05
156800,0.00020438
156800,-0.000276427
156800,-0.000270449
156800,0.000993826
156800,-0.000425904
156800,0.000383347
156800,0.000313958
156800,-0.000210937
156800,0.000291321
156800,4.78483e-05
156800,0.000350803
156800,-0.000136588
156800,0.00126131
156800,0.000153251
156800,0.000658455
156800,-7.44596e-05
156800,0.00045391
156800,0.000564912
156800,-0.000581979
156800,-0.000203657
156800,0.000402187
156800,0.000367628
156800,-3.68107e-06
156800,-7.74865e-05
156800,-2.48254e-05
156800,0.0003215
156800,-2.64512e-05
156800,-0.000399314
156800,1.89206e-05
156800,-0.000305702
156800,-0.000324079
156800,-0.000122275
156800,6.59978e-05
156800,-3.47025e-05
156800,0.000629163
156800,-0.000266656
156800,-0.000925571
156800,0.000146196
156800,0.00021487
156800,-0.000351432
156800,0.000427441
156800,7.67314e-05
156800,-0.000492618
156800,-5.84842e-05
156800,-0.000498888
156800,0.000279576
156800,-0.000642484
156800,-1.31976e-05
156800,-0.000165161
156800,0.000158757
156800,-0.000849485
156800,-0.000154059
156800,0.000476705
156800,-0.000208618
156800,-7.93311e-05
156800,-0.000195816
156800,-2.77423e-05
156800,-8.53287e-05
156800,-0.000188317
156800,0.000136238
156800,0.000335946
156800,-2.12992e-05
156800,0.000823841
156800,0.000261092
156800,-0.000758394
156800,0.000458127
156800,-0.0005965
156800,-0.000420033
156800,0.000380385
156800,0.000197445
156800,-0.000616239
156800,0.000149543
156800,0.000260697
156800,-0.00035114
156800,0.000122762
156800,-0.0001524
156800,-0.000585017
156800,2.39879e-05
156800,0.00024382
156800,-1.47858e-05
156800,-0.000575855
156800,3.74389e-06
156800,0.000323311
156800,0.000383552
156800,0.00014451
156800,-0.000102119
156800,0.000348103
156800,-0.000566766
156800,5.71713e-05
156800,-0.00055249
156800,0.00059917
156800,9.4134e-06
156800,0.000405613
156800,-0.000785035
156800,-0.000934481
156800,0.000538534
156800,0.000269109
156800,0.000318662
156800,0.000168239
156800,-0.000345514
156800,0.00108769
156800,-0.00127736
156800,-0.000563962
156800,0.0003287
156800,0.000917556
156800,-0.000634228
156800,-4.37977e-05
156800,0.00016665
156800,0.000539239
156800,-0.0006601
156800,0.000324732
156800,8.55938e-05
156800,3.26731e-05
156800,-0.000250061
156800,-0.000226051
156800,-0.000453281
156800,0.000369313
156800,-0.000263251
156800,-5.16812e-05
156800,0.000585418
156800,-0.000982007
156800,-0.000184632
156800,0.000685196
156800,0.000459365
156800,0.000311028
156800,-0.00080198
156800,-0.000609431
156800,-0.000114567
156800,-0.000439626
156800,0.000540843
156800,0.000150011
156800,-0.00080567
156800,0.000165064
156800,0.000674151
156800,-0.00050053
156800,-0.000260792
156800,3.05892e-06
156800,0.000703731
156800,0.000236409
156800,5.69312e-05
156800,0.000335954
156800,0.000311917
156800,-0.000281561
156800,0.000193397
156800,-0.000321718
156800,-0.000166053
156800,-7.71991e-05
156800,0.000549177
156800,0.000491071
156800,0.000144893
156800,-0.000456736
156800,0.000220752
156800,-0.000337616
156800,0.000583237
156800,-9.82096e-06
156800,-0.00040781
156800,0.000289897
156800,-0.000494085
156800,0.000641404
156800,-0.000276986
156800,5.43846e-05
156800,0.000290385
156800,-0.000216249
156800,3.29229e-05
156800,0.000347784
156800,0.000392036
156800,-0.0003618
156800,0.000131753
156800,-0.000108882
156800,0.00053327
156800,-0.000998092
156800,-0.000489153
156800,-0.000187017
156800,-0.000174326
156800,-0.000192096
156800,0.000702938
156800,0.000255473
156800,0.000666163
156800,0.00025058
156800,-0.000387913
156800,-5.68503e-05
156800,0.000256189
156800,-0.000233629
156800,-0.000346117
156800,4.19034e-05
156800,5.55283e-05
156800,-2.81372e-05
156800,0.00037191
156800,-0.000595015
156800,0.000705525
156800,0.000902374
156800,-0.000127348
156800,-0.000475094
156800,-0.000369587
156800,-0.000867389
156800,-0.000324675
156800,-5.61623e-05
156800,0.000238068
156800,-0.000449188
156800,-0.000599986
156800,0.000875261
156800,0.000757354
156800,-0.000188856
156800,-0.000680125
156800,-0.000161288
156800,0.000818977
156800,0.000702145
156800,0.000201697
156800,-0.000456224
156800,0.00030946
156800,-0.000417625
156800,0.00139371
156800,0.00045445
156800,4.31339e-05
156800,0.000228273
156800,0.00050135
156800,-0.00115095
156800,-0.000421916
156800,0.000435068
156800,0.000258595
156800,-0.000680329
156800,-0.000469796
156800,2.15182e-05
156800,0.00051045
156800,0.000119851
156800,7.08822e-05
156800,-0.000240167
156800,-0.000107675
156800,0.00075615
156800,-0.000332674
156800,-7.36648e-05
156800,-3.8148e-05
156800,-0.000843176
156800,-0.000105606
156800,-0.000226091
156800,3.89939e-05
156800,0.000451954
156800,-0.000100244
156800,-0.000540993
156800,0.000650401
156800,-5.50772e-05
156800,-0.00141596
156800,0.000195461
156800,0.000592553
156800,-0.000120654
156800,4.67372e-05
156800,-0.000175471
156800,-0.000748563
156800,-0.000341646
156800,8.08672e-05
156800,-0.000597581
156800,-0.000128777
156800,-0.000687519
156800,0.000254126
156800,0.00063621
156800,-4.39804e-05
156800,0.000254068
156800,-0.0001079
156800,-0.000579908
156800,0.000132241
156800,-5.60669e-05
156800,-0.000156651
156800,4.08342e-05
156800,-0.00091015
156800,-0.000411807
156800,0.000419125
156800,-0.000323526
156800,0.000333418
156800,0.000293187
156800,-9.2286e-05
156800,-0.000384064
156800,-8.48487e-05
156800,2.74788e-05
156800,-0.000232712
156800,0.000530367
156800,0.000111484
156800,-8.49623e-05
156800,2.2933e-05
156800,0.000911801
156800,-0.000549516
156800,-0.000177439
156800,-0.000364835
156800,-0.000722245
156800,0.000316685
156800,0.00113421
156800,-0.000522712
156800,0.000542879
156800,-0.00050898
156800,0.000304311
156800,-8.24462e-05
156800,-0.00036852
156800,0.000483067
156800,0.000288591
156800,-0.00114818
156800,0.000675153
156800,0.000132494
156800,6.59816e-05
156800,0.000189124
156800,-0.000145024
156800,0.000351981
156800,-0.000250951
156800,0.0002333
156800,6.15203e-05
156800,0.000416136
156800,-0.000405171
156800,-0.000113969
156800,6.90739e-05
156800,0.000218342
156800,-0.000714013
156800,0.000389288
156800,-0.000293078
156800,-0.00056897
156800,-0.000115116
156800,0.000558415
156800,-0.000897316
156800,-0.000464651
156800,0.000153717
156800,-0.000187343
156800,0.000642374
156800,-0.000171084
156800,-0.000396436
156800,-0.000577541
156800,-0.0007369
156800,0.000501812
156800,-0.00010645
156800,-0.000752766
156800,0.000331954
156800,0.000120025
156800,0.000404901
156800,-0.000300114
156800,0.000294615
156800,-0.00052736
156800,0.000746447
156800,0.000219799
156800,-0.000396854
156800,0.000208883
156800,-0.000230738
156800,0.000525586
156800,-0.000369963
156800,0.000492006
156800,0.000348359
156800,0.000557015
156800,0.000701804
156800,0.000690784
156800,-0.00033472
156800,-5.1164e-05
156800,-0.000524341
156800,-0.000583867
156800,0.0001111
156800,-0.000454495
156800,0.000679969
156800,-0.00010251
156800,0.00102823
156800,-0.000749762
156800,-0.000308072
156800,-0.000337947
156800,0.000301229
156800,-0.000551703
156800,0.000353593
156800,-1.36442e-06
156800,-0.00105167
156800,6.2361e-05
156800,0.000485295
156800,4.23867e-05
156800,0.00027672
156800,0.000387023
156800,-0.000236491
156800,0.000554978
156800,0.000112004
156800,-8.16392e-05
156800,-0.00036441
156800,-0.0006535
156800,-0.000207652
156800,0.000459111
156800,-3.74709e-05
156800,-6.45434e-05
156800,-0.000497328
156800,0.000255082
156800,0.000750824
156800,0.000570892
156800,5.06565e-05
156800,6.89024e-06
156800,-0.000303851
156800,-0.00016952
156800,0.000394148
156800,0.000299022
156800,-0.000150491
156800,-0.00091835
156800,1.67528e-05
156800,-0.000405505
156800,-0.000408912
156800,-0.000139642
156800,-0.000105309
156800,-0.000736912
156800,-0.000260302
156800,0.000480424
156800,5.64795e-05
156800,-0.000128955
156800,-0.000457945
156800,0.00055416
156800,-0.000284964
156800,-0.000743805
156800,-0.000244219
156800,0.000418696
156800,0.000885559
156800,0.000641746
156800,0.000105138
156800,-0.00014059
156800,0.000159745
156800,-0.000512058
156800,-6.36189e-06
156800,0.000115622
156800,-0.000118882
156800,0.000652873
156800,-0.000413472
156800,-0.00042091
156800,-0.000265086
156800,-0.000364228
156800,7.76614e-05
156800,0.000668529
156800,-4.07382e-05
156800,-0.000233712
156800,0.000150878
156800,-0.000145234
156800,0.000601195
156800,0.000413302
156800,0.000172581
156800,0.000181799
156800,-9.51577e-05
156800,0.000682968
156800,0.000278162
156800,-0.000129741
156800,-0.000154262
156800,1.31736e-05
156800,-0.000320477
156800,9.40788e-05
156800,-0.000171353
156800,6.61529e-05
156800,0.000842797
156800,0.000473192
156800,-0.000554577
156800,0.000341853
156800,0.0004601
156800,-0.000882333
156800,4.70357e-05
156800,-0.000989323
156800,-0.00035621
156800,-0.00070634
156800,0.000565032
156800,0.000625458
156800,0.000290159
156800,-0.000410149
156800,-0.000425291
156800,-0.000361901
156800,-0.000810516
156800,0.000748559
156800,-0.000461625
156800,-8.00162e-05
156800,0.000515009
156800,0.000115757
156800,0.00031762
156800,0.000220821
156800,0.000164639
156800,-1.33819e-05
156800,-0.000136394
156800,0.000216766
156800,0.000261346
156800,-0.000256347
156800,0.00025947
156800,0.000284525
156800,0.000121537
156800,-0.000111181
156800,-0.000334197
156800,-1.86576e-05
156800,-0.000139794
156800,-0.000461374
156800,0.000604017
156800,0.000200418
156800,-0.000134997
156800,4.98432e-05
156800,0.000336324
156800,0.000525775
156800,-0.00083619
156800,-0.000182159
156800,-0.000314676
156800,0.000242387
156800,-0.000519034
156800,0.000328892
156800,0.000200535
156800,-0.000661663
156800,-0.000713396
156800,0.00012084
156800,0.000202398
156800,0.00127478
156800,0.000417606
156800,0.000569736
156800,8.18405e-05
156800,-0.00029346
156800,0.000595557
156800,-0.000687353
156800,2.18772e-05
156800,0.000277199
156800,0.000893142
156800,0.000302027
156800,-0.000561348
156800,-0.000224586
156800,0.000519944
156800,-0.000307995
156800,-0.000282828
156800,-0.000134628
156800,0.000247238
156800,-7.27681e-05
156800,-0.000264742
156800,-0.000237903
156800,-0.00095834
156800,-3.09714e-05
156800,-0.000555158
156800,-0.000650367
156800,0.000117252
156800,-0.000355805
156800,0.000382904
156800,7.29473e-05
156800,-8.44081e-05
156800,-7.87118e-05
156800,0.000360419
156800,-0.000429834
156800,-0.000343083
156800,0.000236626
156800,-0.000251412
156800,0.000424594
156800,0.000175939
156800,0.000543976
156800,-0.000286004
156800,0.000111873
156800,-0.000255758
156800,0.000187516
156800,0.000904598
156800,-0.000251654
156800,-0.000188519
156800,-0.000417539
156800,0.00028084
156800,-7.57006e-05
156800,0.000466566
156800,-0.000113089
156800,-0.000692064
156800,0.000325429
156800,0.000937581
156800,0.000248867
156800,0.000351795
156800,0.000536828
156800,0.000240447
156800,0.000212753
156800,0.000110198
156800,0.000381824
156800,0.00014257
156800,0.000101862
156800,-9.39129e-06
156800,0.000735546
156800,7.87306e-05
156800,0.000573925
156800,0.000465153
156800,0.000750976
156800,0.000427451
156800,-0.000837339
156800,-0.000267081
156800,9.65663e-05
156800,-0.000247058
156800,0.000706903
156800,-0.000555355
156800,-0.000540181
156800,0.000473862
156800,-0.000237596
156800,0.000330334
156800,0.000423478
156800,-0.000370859
156800,-0.00036031
156800,-0.000237461
156800,-0.000215562
156800,0.000582368
156800,-0.000719945
156800,-0.000349407
156800,-0.00141486
156800,0.00094929
156800,0.000154444
156800,-1.15808e-06
156800,0.000145006
156800,-0.000167698
156800,0.000253699
156800,-0.00046704
156800,0.000140353
156800,0.000432796
156800,0.000286406
156800,0.000714665
156800,5.27288e-05
156800,0.000141228
156800,0.000243632
156800,0.000165339
156800,-3.49021e-05
156800,0.00102543
156800,0.0004522
156800,0.000155879
156800,-0.00050805
156800,0.000179887
156800,4.94342e-05
156800,0.000354602
156800,0.000122055
156800,-3.35876e-05
156800,-0.000260678
156800,0.000977194
156800,8.76538e-05
156800,5.24601e-06
156800,-0.00025725
156800,0.000154752
156800,-0.00055088
156800,0.000163573
156800,0.000146721
156800,-0.000365225
156800,2.1109e-05
156800,1.6566e-06
156800,-0.000145172
156800,0.000410041
156800,0.000434578
156800,0.000295899
156800,-3.02432e-05
156800,0.00051144
156800,-0.000368536
156800,-0.000290017
156800,0.000439875
156800,-0.000559066
156800,0.000270893
156800,-0.000193536
156800,5.50762e-05
156800,-3.989e-06
156800,0.000177664
156800,-8.55637e-05
156800,-0.000743172
156800,0.000126231
156800,-0.000210329
156800,-1.62001e-05
156800,0.000379472
156800,0.000123613
156800,0.000558868
156800,-0.000562283
156800,-0.00020061
156800,0.000100088
156800,0.000563286
156800,-0.000785241
156800,0.000277369
156800,0.000503126
156800,0.000159165
156800,-0.000195329
156800,-0.000354883
156800,-0.000104915
156800,7.14336e-05
156800,0.000580308
156800,-0.000102806
156800,-0.000765125
156800,-0.000433978
156800,-0.000170719
156800,-0.000429192
156800,0.000262811
156800,-5.15257e-05
156800,0.000112245
156800,-0.000642514
156800,3.76527e-05
156800,0.00042796
156800,0.000601694
156800,0.000206078
156800,-0.000857824
156800,-0.00047873
156800,0.000403714
156800,-0.000128351
156800,-0.00018921
156800,-2.48448e-05
156800,-0.00012294
156800,-0.000375125
156800,-0.000284318
156800,0.000575633
156800,0.000178232
156800,0.00060229
156800,0.000593774
156800,0.000352018
156800,-0.000557238
156800,-0.000345834
156800,0.000245208
156800,-0.000199439
156800,-0.000282783
156800,-0.000936801
156800,0.000501825
156800,-0.00106705
156800,0.000392591
156800,-4.68975e-05
156800,-0.000206864
156800,0.00053038
156800,5.54801e-05
156800,-0.000358516
156800,-2.50114e-06
156800,0.000863847
156800,-0.000693828
156800,0.000556002
156800,-0.000898145
156800,-2.87799e-05
156800,-0.000546844
156800,0.000697499
156800,4.43925e-05
156800,0.000220618
156800,-0.000193522
156800,0.000586013
156800,0.000100627
156800,0.000513175
156800,0.000167337
156800,-6.70476e-05
156800,0.000116526
156800,-0.00020739
156800,0.00114793
156800,5.69423e-05
156800,-6.75857e-05
156800,-0.000198098
156800,0.000354092
156800,0.000332066
156800,9.88808e-05
156800,0.000399126
156800,0.000530222
156800,0.000329237
156800,-0.000118928
156800,0.000389035
156800,0.000256104
156800,-0.000636861
156800,1.42517e-05
156800,-0.000593949
156800,-3.31185e-05
156800,0.000183122
156800,-0.000570315
156800,0.000441251
156800,-0.000317503
156800,0.000190255
156800,-0.00039871
156800,-0.0005947
156800,-0.000670692
156800,0.000302195
156800,0.000807419
156800,-0.000256453
156800,-0.000926019
156800,-0.000256705
156800,-0.000710527
156800,-0.000441041
156800,-0.000236744
156800,0.000234364
156800,-0.000259832
156800,-0.00103791
156800,0.000433453
156800,0.00104741
156800,0.000121314
156800,-0.000730422
156800,0.000180423
156800,0.000444822
156800,0.000225077
156800,-0.000451682
156800,-0.000592813
156800,9.49837e-05
156800,0.000233464
156800,0.000135506
156800,6.31883e-05
156800,-0.000507746
156800,0.000650692
156800,-0.000367818
156800,9.76673e-05
156800,-0.000103029
156800,-0.000137287
156800,0.000518184
156800,0.00125255
156800,0.000698441
156800,9.76093e-05
156800,0.000199613
156800,0.000133285
156800,0.000472718
156800,-0.000139202
156800,-0.000605709
156800,-0.000433491
156800,0.00063164
156800,8.00468e-05
156800,0.000153107
156800,0.000481514
156800,0.000468694
156800,-8.50988e-05
156800,-0.0004967
156800,-0.000429424
156800,0.000948262
156800,-3.43161e-05
156800,-0.000477258
156800,-0.000108687
156800,-0.000183794
156800,-3.26446e-05
156800,-0.000311741
156800,6.93638e-05
156800,-0.000265093
156800,-0.000646836
156800,-0.000283813
156800,-0.000263549
156800,0.000285623
156800,-0.000493775
156800,0.000503722
156800,0.000276709
156800,0.000442661
156800,0.000223063
156800,-0.000235266
156800,0.000210635
156800,-0.000228634
156800,0.000368495
156800,0.000221114
156800,-0.000310016
156800,-0.000798206
156800,-9.84855e-05
156800,0.000527476
156800,-9.17776e-05
156800,-0.000173555
156800,0.000568956
156800,0.000785686
156800,-0.00104272
156800,-0.000347024
156800,-0.000129539
156800,-9.67764e-05
156800,-0.000323651
156800,0.000838266
156800,0.000707635
156800,-0.000290524
156800,0.000166065
156800,0.000207354
156800,-0.000291036
156800,0.000184736
156800,-0.000113661
156800,-3.4658e-05
156800,-0.000326566
156800,0.0007291
156800,0.000249675
156800,0.000419527
156800,-0.000510907
156800,0.000255902
156800,0.000235308
156800,-0.000415664
156800,-0.000458403
156800,0.000763924
156800,-0.000794741
156800,-0.000520756
156800,0.000215779
156800,-0.000517674
156800,0.000575802
156800,-0.000310503
156800,0.000389519
156800,9.17349e-05
156800,0.000524948
156800,-0.000166484
156800,-9.01492e-05
156800,-2.48046e-05
156800,-9.56567e-06
156800,0.000476141
156800,-0.00057518
156800,-0.00054268
156800,0.000325357
156800,-0.000365623
156800,-0.000416588
156800,-0.000217939
156800,0.000106059
156800,-0.000354076
156800,-0.000112985
156800,-0.000849388
156800,0.000278523
156800,-4.49537e-05
156800,0.000118993
156800,-0.000708863
156800,-7.22018e-05
156800,0.000618702
156800,-0.000358141
156800,0.000251657
156800,0.00108462
156800,-0.000572997
156800,-0.000104778
156800,0.00016641
156800,0.000560441
156800,0.000133104
156800,-0.000477473
156800,-8.56805e-05
156800,-0.000956176
156800,-0.00124393
156800,0.000162088
156800,0.000335828
156800,0.000840718
156800,0.00155112
156800,-0.000862301
156800,0.000592381
156800,-0.000168428
156800,0.000399486
156800,0.000849618
156800,-0.0002701
156800,0.000235973
156800,-0.000298458
156800,0.000173526
156800,0.000509565
156800,0.000486755
156800,0.000696858
156800,0.000400472
156800,-0.000102325
156800,-0.00130389
156800,-0.00102442
156800,-4.17166e-05
156800,-0.000433067
156800,-0.00030867
156800,0.00049895
156800,0.00012236
156800,0.000333595
156800,-6.8846e-05
156800,-0.000176197
156800,0.000121166
156800,0.000291339
156800,-0.000264041
156800,0.000103298
156800,-0.000437514
156800,-0.000453394
156800,0.000698871
156800,-0.000240257
156800,0.00076989
156800,-0.000872173
156800,-0.000738994
156800,6.84539e-05
156800,0.00015024
156800,0.000686173
156800,-0.000365738
156800,-0.000388686
156800,-0.000119914
156800,0.00066673
156800,0.000246278
156800,0.000254262
156800,0.000101746
156800,0.000132038
156800,-0.000368198
156800,0.000963212
156800,0.000345381
156800,2.18482e-05
156800,-0.000248225
156800,-0.000433072
156800,0.000172066
156800,-6.7286e-05
156800,0.000214815
156800,-0.000170948
156800,-0.000461408
156800,0.000217921
156800,-0.000571004
156800,0.000573711
156800,0.000472254
156800,0.000274771
156800,-0.000124832
156800,-0.000758754
156800,0.000493943
156800,-0.000318284
156800,0.000201416
156800,-0.000368828
156800,6.68645e-05
156800,-0.000141045
156800,0.000345619
156800,-0.000171778
156800,-3.17097e-05
156800,0.000144116
156800,-0.000262987
156800,0.000704628
156800,0.000682854
156800,0.000239073
156800,0.000448328
156800,-0.000559075
156800,0.000505948
156800,0.000278914
156800,0.000576155
156800,-1.4792e-06
156800,0.000379333
156800,0.000576846
156800,0.000148897
156800,-0.000490994
156800,-0.000483324
156800,-0.000637072
156800,0.000426954
156800,-2.11452e-05
156800,0.00020639
156800,-0.000764042
156800,0.000230773
156800,0.00100314
156800,4.22211e-05
156800,1.53816e-05
156800,0.000570053
156800,0.00023189
156800,0.000123893
156800,0.000185743
156800,-0.0001034
156800,-0.000286271
156800,0.000783775
156800,0.000237925
156800,-0.000728387
156800,0.000212581
156800,0.000858731
156800,4.24946e-05
156800,-0.000287745
156800,0.0009548
156800,0.000649002
156800,0.000111177
156800,0.000529015
156800,0.000170701
156800,0.00098747
156800,-0.000301904
156800,-0.000261816
156800,-0.000257439
156800,-0.000139961
156800,-0.000544232
156800,0.000790193
156800,-0.000914118
156800,0.000388463
156800,-0.00035539
156800,-0.000657975
156800,-0.00041299
156800,0.000356696
156800,-0.000944081
156800,0.00027329
156800,0.000189813
156800,0.000311242
156800,0.000267003
156800,0.000569243
156800,0.000429514
156800,5.13749e-05
156800,0.000113637
156800,0.000748175
156800,0.000480468
156800,0.000367871
156800,-0.000604123
156800,0.000188578
156800,-5.03084e-05
156800,0.00032464
156800,-0.000336874
156800,-0.000324013
156800,-7.85679e-06
156800,-0.00054677
156800,-0.000320921
156800,-0.0001064
156800,-0.000111272
156800,0.000295354
156800,0.000697061
156800,-0.000154875
156800,-0.00014691
156800,0.000475944
156800,-0.000226882
156800,2.93833e-05
156800,0.000567127
156800,0.000734088
156800,0.000193361
156800,-0.00110987
156800,0.000185826
156800,0.000148902
156800,0.000436819
156800,6.72649e-05
156800,-5.90347e-05
156800,-2.54611e-05
156800,0.000521693
156800,-4.84119e-05
156800,0.00027212
156800,-0.000344834
156800,0.000348077
156800,0.000313432
156800,1.40651e-05
156800,0.000180076
156800,-0.000435328
156800,-0.000562037
156800,0.000582391
156800,-0.000285799
156800,-0.000856906
156800,0.00027061
156800,0.000365202
156800,-0.000352288
156800,-0.0001348
156800,-8.24105e-05
156800,0.000447271
156800,0.000271852
156800,5.13998e-05
156800,-0.000350934
156800,0.000253165
156800,-6.94978e-05
156800,-0.000195354
156800,6.13637e-05
156800,-0.000223152
156800,0.000463337
156800,-0.00137021
156800,0.00062921
156800,0.000366783
156800,-1.11704e-05
156800,0.000551591
156800,0.000569563
156800,0.000393064
156800,0.000589273
156800,2.80147e-05
156800,0.000227113
156800,0.000513443
156800,0.00077804
156800,0.000201163
156800,-0.00029719
156800,-0.000714186
156800,0.000292257
156800,0.000367435
156800,8.92606e-05
156800,0.00029025
156800,-0.000123706
156800,-2.34304e-06
156800,-0.000198606
156800,-0.000568947
156800,-0.000576965
156800,-0.00121378
156800,-0.000515725
156800,-0.00034011
156800,0.000119693
156800,0.000179441
156800,0.000789361
156800,-0.000296167
156800,0.0011905
156800,-0.000273267
156800,-0.000290058
156800,-0.000158595
156800,-0.000571231
156800,4.40096e-05
156800,-2.96377e-05
156800,-0.00077851
156800,-0.000130182
156800,0.000378104
156800,0.000520385
156800,-0.000911241
156800,0.000287237
156800,0.000212596
156800,-0.000297603
156800,-0.000316054
156800,-0.000104781
156800,-0.000282738
156800,0.000197622
156800,-7.98962e-05
156800,2.83142e-06
156800,0.00039885
156800,4.19747e-05
156800,-0.000368991
156800,-0.000707698
156800,-0.000456065
156800,-0.000385615
156800,-0.000747759
156800,-0.00121655
156800,0.000141164
156800,0.000117744
156800,-0.000585059
156800,-0.000375247
156800,6.58949e-05
156800,-0.000222621
156800,-1.48247e-05
156800,-0.00048205
156800,2.44924e-05
156800,-3.31521e-05
156800,-6.30873e-05
156800,0.000117384
156800,-0.000848327
156800,-0.000569708
156800,0.000572853
156800,0.000625996
156800,0.000375239
156800,-0.000601868
156800,0.000840742
156800,0.000368792
156800,-0.000362367
156800,-0.000999004
156800,0.00036343
156800,-0.00150853
156800,0.000229843
156800,-5.22409e-05
156800,0.000247495
156800,0.00145748
156800,-0.000318864
156800,-0.000216122
156800,0.000166066
156800,-2.08212e-05
156800,-4.68208e-05
156800,0.000321124
156800,-0.000132774
156800,-1.72003e-05
156800,-0.000536285
156800,0.000766153
156800,0.000831609
156800,0.000283286
156800,0.000148771
156800,0.000290823
156800,-0.000744619
156800,9.39847e-05
156800,0.000437434
156800,0.00111287
156800,-0.000116235
156800,-0.000146712
156800,-0.000392054
156800,5.55607e-05
156800,-0.000710847
156800,-0.000230491
156800,-0.0002052
156800,0.00032201
156800,5.03558e-05
156800,-7.7092e-05
156800,-0.000210149
156800,0.00100896
156800,-0.00044492
156800,-0.000466438
156800,-0.00050218
156800,6.83011e-05
156800,0.000391753
156800,-0.000100492
156800,0.000178123
156800,0.000390034
156800,0.000239788
156800,-0.000127956
156800,-0.000189633
156800,9.62896e-05
156800,-0.000506988
156800,-0.000410817
156800,5.76198e-05
156800,0.000271121
156800,0.000664392
156800,-0.000382402
156800,-0.000125017
156800,0.000302136
156800,-0.000626587
156800,-0.000278087
156800,-7.19089e-05
156800,-0.000393138
156800,-7.08315e-05
156800,8.98062e-05
156800,-0.000560226
156800,0.00118736
156800,-0.000113854
156800,0.000442885
156800,0.000799626
156800,0.00047794
156800,-2.68448e-06
156800,0.000580859
156800,-0.00025521
156800,5.9695e-05
156800,-0.000463043
156800,-0.000243133
156800,0.000948812
156800,-0.000362262
156800,5.67482e-05
156800,0.00074152
156800,0.000550718
156800,-0.00074928
156800,-0.000471758
156800,0.000522053
156800,-0.00118975
156800,0.000494005
156800,-0.00029009
156800,-0.000571193
156800,-0.00028055
156800,-0.000591603
156800,-0.000530993
156800,0.000517171
156800,-0.00074265
156800,1.69444e-05
156800,-0.000173617
156800,0.000183225
156800,0.000562794
156800,-0.000619547
156800,0.000118375
156800,5.17504e-05
156800,-0.000414962
156800,0.000519996
156800,0.000298009
156800,0.000358007
156800,2.00271e-05
156800,-0.000117496
156800,-0.000160169
156800,0.000481967
156800,-0.000358162
156800,0.000131212
156800,0.00086895
156800,0.000214108
156800,0.000135601
156800,-0.000987815
156800,0.000357399
156800,-0.000177272
156800,0.000636914
156800,0.000741855
156800,0.00095692
156800,0.00037957
156800,-0.000479745
156800,0.000472157
156800,-0.00086494
156800,0.000688222
156800,0.000138859
156800,0.000351237
156800,0.000535545
156800,-0.000334666
156800,-0.000219565
156800,9.69208e-05
156800,-0.000868988
156800,0.000238913
156800,0.00117319
156800,-0.000145256
156800,-5.28026e-05
156800,0.000706025
156800,1.90277e-05
156800,0.000202179
156800,0.000329483
156800,0.000101649
156800,-0.000469139
156800,-0.000728769
156800,-8.32436e-05
156800,-0.000690073
156800,-0.000430691
156800,0.000419906
156800,-0.000535289
156800,-0.000385446
156800,-0.000438182
156800,3.39716e-05
156800,-5.35082e-06
156800,-0.000630977
156800,3.25408e-05
156800,2.95825e-05
156800,0.000517117
156800,-0.000218774
156800,0.000420158
156800,6.00217e-05
156800,-0.000931728
156800,0.000491864
156800,3.62639e-05
156800,-0.000201257
156800,7.1362e-05
156800,-0.00105021
156800,-0.000292915
156800,0.000752739
156800,0.000588737
156800,-0.00045512
156800,0.000633647
156800,7.35755e-06
156800,-0.000795883
156800,0.000130186
156800,0.000848979
156800,-0.000433392
156800,0.000506478
156800,-0.000220112
156800,-0.00012108
156800,0.000183911
156800,0.000132792
156800,0.000323191
156800,-0.000116528
156800,0.000258753
156800,-0.000686693
156800,0.000437089
156800,-0.00023937
156800,-0.000314681
156800,0.000308624
156800,0.000231579
156800,-0.000370125
156800,-0.000282804
156800,0.00035879
156800,0.000246415
156800,-0.000401379
156800,0.000338529
156800,-0.000189593
156800,0.000483805
156800,7.30234e-05
156800,-0.000176817
156800,0.000530868
156800,-0.000329861
156800,0.000504957
156800,-0.000101056
156800,1.39799e-05
156800,0.000150497
156800,-0.000513474
156800,0.00028652
156800,0.000135234
156800,5.89197e-05
156800,3.87473e-05
156800,0.000114377
156800,-0.000186332
156800,0.00033481
156800,-0.000495252
156800,-0.000194159
156800,0.000226363
156800,0.000469797
156800,-0.000296647
156800,-0.000143876
156800,-0.00024428
156800,-0.00045475
156800,0.000478288
156800,0.000177294
156800,0.000594818
156800,-0.000550902
156800,0.000808179
156800,0.000950918
156800,-0.000364883
156800,0.000348521
156800,-0.000139277
156800,-0.000416499
156800,0.000258609
156800,0.000511147
156800,0.000211703
156800,-0.000116733
156800,0.000174353
156800,-0.000203814
156800,0.000310084
156800,-3.14193e-05
156800,-0.00038842
156800,0.000160438
156800,0.000191318
156800,0.000308874
156800,-0.000596633
156800,0.000711375
156800,-0.000389257
156800,-0.000157492
156800,-0.000217943
156800,0.000813173
156800,0.000657612
156800,-0.000612201
156800,-0.000718398
156800,-0.00067248
156800,-0.000193014
156800,0.000187873
156800,1.05517e-05
156800,-0.000123621
156800,0.000237776
156800,0.000476332
156800,3.96992e-05
156800,0.000173906
156800,-0.000535714
156800,0.000255093
156800,0.000403067
156800,0.000573146
156800,-0.000305454
156800,0.000113399
156800,0.000482612
156800,0.0007583
156800,0.000357018
156800,0.00119665
156800,-0.000715129
156800,-0.000114995
156800,0.000159481
156800,-0.000485914
156800,-0.000911151
156800,0.000263296
156800,-0.00082893
156800,-0.000828486
156800,-0.000284741
156800,-0.000679298
156800,3.74861e-05
156800,-0.000908609
156800,0.000486476
156800,0.000107432
156800,0.000370937
156800,5.66984e-05
156800,-0.000229295
156800,0.000556225
156800,0.000258952
156800,-0.000758022
156800,1.72955e-05
156800,-0.00013828
156800,0.00042268
156800,-0.000340394
156800,-0.000370009
156800,-0.000269133
156800,2.41357e-05
156800,-0.000287951
156800,-7.8223e-07
156800,0.00037913
156800,0.000179741
156800,-0.000593721
156800,0.0005095
156800,0.000129889
156800,-1.40784e-05
156800,-0.000501295
156800,-0.000108895
156800,0.00068948
156800,0.000573322
156800,-0.000564887
156800,0.000431379
156800,0.000175759
156800,-0.000120877
156800,0.000466174
156800,0.000398996
156800,-0.000410293
156800,-0.000939399
156800,0.000582109
156800,1.23717e-05
156800,0.000176264
156800,-0.000626619
156800,0.000169085
156800,0.00033587
156800,-0.000490426
156800,-0.000694673
156800,-0.000190693
156800,-0.000224675
156800,0.00036894
156800,-0.00033414
156800,3.36837e-05
156800,-1.67114e-05
156800,-0.00015031
156800,-0.000572418
156800,-0.000156224
156800,0.000258521
156800,-0.00060456
156800,-9.93686e-05
156800,0.000442986
156800,-0.000326795
156800,-5.36504e-05
156800,-0.000313029
156800,0.000380604
156800,-0.000388462
156800,0.000711764
156800,-0.000350404
156800,0.000433418
156800,0.000386993
156800,-0.000436711
156800,-9.05025e-05
156800,6.71815e-05
156800,0.000282344
156800,0.000526524
156800,-1.79753e-05
156800,0.000414056
156800,-5.31308e-05
156800,0.000146779
156800,-0.00081503
156800,-0.000131087
156800,0.000888011
156800,-4.22505e-06
156800,-0.000235685
156800,0.000579315
156800,3.96919e-05
156800,-0.000628905
156800,-5.31634e-05
156800,-0.0009748
156800,0.000578838
156800,0.000108263
156800,-7.17292e-05
156800,0.000626624
156800,0.000505895
156800,-2.971e-05
156800,-0.000175579
156800,-0.000304736
156800,-0.000669289
156800,0.00016911
156800,0.000452218
156800,-0.000306877
156800,-7.54094e-05
156800,-0.000863774
156800,0.000231131
156800,0.000568032
156800,0.000124114
156800,-0.000208002
156800,5.9677e-06
156800,-2.45622e-06
156800,0.000288552
156800,0.00072469
156800,-0.000104457
156800,0.000208358
156800,0.000211702
156800,0.000693717
156800,-0.000142987
156800,0.00038702
156800,-0.000857856
156800,-0.000242506
156800,-0.000280126
156800,-0.000225118
156800,0.000399942
156800,-0.000127705
156800,-0.000151271
156800,-0.000518189
156800,0.00033264
156800,-8.16394e-05
156800,2.63577e-05
156800,-0.000441444
156800,-0.000179575
156800,-0.000190744
156800,-0.000416699
156800,-0.000126427
156800,0.000292426
156800,0.000113834
156800,-0.000201237
156800,-0.000482438
156800,-0.000721241
156800,0.000343653
156800,0.000446056
156800,-0.000422626
156800,0.000229495
156800,0.000103823
156800,8.77443e-05
156800,-0.000161914
156800,-0.000789953
156800,0.000191675
156800,-0.000266906
156800,0.000146637
156800,0.000223153
156800,0.000822434
156800,0.00020558
156800,-0.000612322
156800,-0.000567732
156800,-0.000145863
156800,-0.000103425
156800,-0.000382897
156800,-3.43404e-05
156800,0.000332129
156800,-0.000832719
156800,0.000524698
156800,0.000695256
156800,0.00112503
156800,-0.000232905
156800,4.53645e-06
156800,-0.000590535
156800,-0.000515496
156800,0.000157581
156800,-0.000640055
156800,-0.000680718
156800,-0.000262324
156800,0.000359021
156800,-0.000382129
156800,0.000564833
156800,0.000102249
156800,8.70775e-05
156800,-0.000603963
156800,-0.000374461
156800,-0.000703075
156800,1.48457e-05
156800,-4.8328e-05
156800,0.000405761
156800,0.000667499
156800,-0.00050104
156800,0.000509197
156800,-0.000377343
156800,0.000280968
156800,-9.785e-05
156800,0.000118707
156800,-0.000724284
156800,0.00118334
156800,9.10908e-05
156800,0.000200049
156800,-0.000286679
156800,-1.39206e-05
156800,-0.000227401
156800,0.000191532
156800,0.000156505
156800,-0.000272557
156800,-4.38055e-05
156800,5.35615e-05
156800,-0.000398962
156800,0.000270268
156800,0.000465653
156800,0.000206533
156800,0.000138583
156800,-0.000200783
156800,4.85987e-05
156800,9.08788e-05
156800,-0.000126529
156800,0.000106058
156800,-2.16544e-05
156800,-0.000644699
156800,-0.000585677
156800,-4.1265e-05
156800,-0.000213737
156800,-0.00022327
156800,-0.000249557
156800,-0.000339203
156800,-0.000250919
156800,0.000609432
156800,0.000140326
156800,0.000450001
156800,0.000357647
156800,-0.000331376
156800,-0.000488741
156800,0.000160429
156800,6.31404e-05
156800,-0.000150713
156800,1.87351e-05
156800,-0.000567452
156800,0.000944383
156800,-0.000755033
156800,-0.000194745
156800,-0.00047835
156800,0.000633797
156800,-3.54886e-05
156800,0.00012867
156800,0.000202754
156800,-0.000256031
156800,-0.000344435
156800,-0.000184076
156800,-0.000787037
156800,0.000202267
156800,0.000100338
156800,-0.000267783
156800,-3.34587e-05
156800,0.000694757
156800,0.000434917
156800,0.000304597
156800,0.000168416
156800,5.11932e-05
156800,-0.000692706
156800,0.00012124
156800,0.000596224
156800,-0.000288075
156800,0.000209508
156800,-0.00026532
156800,-9.06609e-05
156800,0.000510801
156800,-0.000435563
156800,-0.000557859
156800,0.000170729
156800,0.000404239
156800,8.00543e-05
156800,-4.81562e-05
156800,0.000492881
156800,-0.000141591
156800,-0.000404745
156800,0.000182713
156800,-1.36053e-05
156800,0.000170972
156800,-0.000146723
156800,-3.51596e-05
156800,-4.90732e-05
156800,4.45857e-05
156800,0.000537695
156800,0.000101725
156800,3.23057e-05
156800,7.77213e-05
156800,0.000624467
156800,-0.000752249
156800,0.000348329
156800,0.000105304
156800,-0.000130684
156800,6.69107e-05
156800,-0.000700047
156800,5.81338e-05
156800,-0.000350741
156800,0.00089896
156800,0.000156845
156800,-0.00037204
156800,-0.000187838
156800,-0.000341502
156800,-0.000239873
156800,-0.000150442
156800,0.000426425
156800,0.000639124
156800,-0.000592607
156800,0.000391718
156800,-8.32671e-05
156800,-0.000619179
156800,0.000208114
156800,-0.000365081
156800,-0.00084856
156800,-0.000978221
156800,-0.000771601
156800,3.31467e-05
156800,0.000586406
156800,0.000244632
156800,0.000241963
156800,-9.33229e-05
156800,-8.96981e-05
156800,-0.000455397
156800,-0.000437603
156800,-0.000656059
156800,0.000892891
156800,-0.000496365
156800,9.37381e-05
156800,6.67595e-05
156800,-0.000552672
156800,-0.000372848
156800,6.10831e-05
156800,-0.000432493
156800,0.000869217
156800,0.000270321
156800,-0.000372641
156800,0.000250682
156800,0.000469357
156800,-0.000316699
156800,-0.000137179
156800,0.000451242
156800,-0.000552208
156800,0.000185136
156800,-0.000705335
156800,-0.000588545
156800,0.000278418
156800,0.000692563
156800,0.000108136
156800,-8.34764e-05
156800,0.000364695
156800,0.000827372
156800,0.000220888
156800,0.000467126
156800,-0.000219836
156800,-0.000478766
156800,5.66548e-05
156800,-0.000131961
156800,2.54028e-05
156800,0.000228557
156800,0.00031705
156800,5.23819e-05
156800,0.000732924
156800,-0.000166588
156800,-0.000601301
156800,-0.000976029
156800,0.000504077
156800,-0.000522759
156800,-3.20851e-05
156800,0.00085135
156800,-0.000599668
156800,0.000653251
156800,-8.44864e-05
156800,-0.000130324
156800,-0.00032239
156800,0.000242432
156800,0.000418963
156800,-0.000381705
156800,-0.000249908
156800,-0.000806836
156800,-1.40597e-05
156800,0.000494822
156800,0.000140842
156800,0.000818986
156800,-0.000373176
156800,0.00102533
156800,7.48951e-05
156800,8.15297e-05
156800,0.0002503
156800,0.00120032
156800,1.77126e-06
156800,-0.000191121
156800,0.00125268
156800,-9.04287e-05
156800,-0.000256055
156800,0.000231608
156800,0.000135638
156800,-0.000662372
156800,0.000319753
156800,-4.58905e-05
156800,-0.000870653
156800,8.55895e-05
156800,-0.000812181
156800,-0.00062448
156800,0.000232206
156800,-0.000503385
156800,0.000140878
156800,-0.000232522
156800,-0.000375738
156800,3.97834e-06
156800,-8.17455e-06
156800,0.000659285
156800,0.000228445
156800,0.000172134
156800,0.000227882
156800,-0.000318398
156800,0.000131671
156800,0.00044828
156800,0.000370624
156800,8.50414e-05
156800,-0.000434481
156800,7.17537e-05
156800,0.000352548
156800,0.00028968
156800,0.000587396
156800,-0.000175731
156800,-0.00027616
156800,7.0541e-05
156800,-0.000295972
156800,2.60567e-05
156800,0.000556403
156800,2.28428e-05
156800,-0.000550441
156800,-0.000112947
156800,0.000401338
156800,-0.000117118
156800,0.000137226
156800,0.000624566
156800,0.00018142
156800,-2.0404e-05
156800,0.00016799
156800,-0.000863118
156800,-0.00077259
156800,0.000569417
156800,-0.000152347
156800,-6.81302e-05
156800,-0.000220848
156800,0.000119743
156800,0.000681484
156800,0.00125086
156800,-0.000490395
156800,-6.62018e-05
156800,0.000325287
156800,-0.000722086
156800,-0.000158584
156800,-0.000777369
156800,-0.000569046
156800,0.000492118
156800,-0.000371966
156800,0.000152602
156800,0.000181573
156800,0.00113566
156800,-0.000525433
156800,0.000343889
156800,-0.000495848
156800,-5.86002e-05
156800,-0.000285174
156800,-0.000544426
156800,0.00103838
156800,3.67558e-05
156800,-0.000100313
156800,-0.000142737
156800,-0.00032314
156800,0.000484091
156800,0.00051498
156800,-0.000342024
156800,0.000380606
156800,0.000179362
156800,-0.00011064
156800,0.000508084
156800,-0.000115023
156800,-0.000960234
156800,-6.63672e-05
156800,-0.000177334
156800,-0.000145348
156800,-0.000238192
156800,-0.000305206
156800,-0.000617197
156800,0.000453768
156800,-0.000123022
156800,0.000231866
156800,-0.000388507
156800,-0.000248013
156800,0.000361407
156800,-0.000444932
156800,0.000589337
156800,-0.000508474
156800,0.000217399
156800,-0.000971067
156800,0.000516769
156800,-0.000458365
156800,-6.8524e-05
156800,-0.000606758
156800,-0.000186612
156800,-0.000135305
156800,-0.000684336
156800,-0.000115048
156800,0.000272435
156800,0.000844434
156800,0.00071962
156800,-8.91903e-05
156800,-0.000109029
156800,-0.000302281
156800,0.000159316
156800,0.000110781
156800,-0.00072268
156800,-0.000148699
156800,-0.000611164
156800,-0.000193516
156800,-0.000148502
156800,0.000125777
156800,0.000256273
156800,0.00131543
156800,0.000208919
156800,-4.08131e-06
156800,-9.96761e-05
156800,0.000291641
156800,-0.000270469
156800,2.93225e-05
156800,-0.000585461
156800,0.000318264
156800,0.000819793
156800,-0.000412412
156800,-0.000618126
156800,-5.08278e-05
156800,-0.000345759
156800,-0.000251574
156800,-0.000245653
156800,-0.000295063
156800,-0.00072038
156800,0.000801334
156800,0.000609673
156800,-0.000339977
156800,-4.27193e-05
156800,-0.000588231
156800,0.000590976
156800,-0.000572781
156800,0.000670503
156800,-0.000109511
156800,0.000260181
156800,0.000211943
156800,3.98242e-06
156800,2.70425e-05
156800,-2.54278e-05
156800,1.03522e-05
156800,-0.000217074
156800,0.000139592
156800,0.00121031
156800,-0.0010068
156800,-0.000140074
156800,0.000266095
156800,0.000865452
156800,-0.000198765
156800,-0.000671754
156800,0.000876842
156800,-0.000254765
156800,0.0014964
156800,-0.000501546
156800,-0.000215349
156800,0.000469545
156800,-0.00064579
156800,-0.000195197
156800,-0.000208575
156800,0.000454717
156800,-0.000391565
156800,0.000421747
156800,0.000179074
156800,0.000936069
156800,-0.000454027
156800,0.000211631
156800,-0.000221904
156800,0.000314312
156800,0.000194442
156800,0.000377843
156800,0.000246565
156800,0.000366866
156800,-0.000421933
156800,0.000837524
156800,5.92734e-05
156800,-0.000326152
156800,-0.000244674
156800,4.75163e-05
156800,0.000456966
156800,-0.000180011
156800,-0.000281681
156800,-0.000714864
156800,-0.000200561
156800,7.39687e-05
156800,0.000368054
156800,-0.000197303
156800,-0.000149396
156800,0.000822165
156800,0.000177055
156800,-2.42366e-05
156800,-0.000146713
156800,0.000734892
156800,-0.000397703
156800,-0.000174105
156800,0.000812837
156800,0.000307365
156800,3.96948e-05
156800,0.000347828
156800,0.000770801
156800,0.000657316
156800,-0.000514728
156800,-0.000474939
156800,0.000366199
156800,0.000470526
156800,-0.000929632
156800,-0.000558715
156800,-0.00107804
156800,0.000394854
156800,-0.000295907
156800,-5.91241e-05
156800,9.95895e-05
156800,0.000186829
156800,0.000352524
156800,-0.000354533
156800,0.000303758
156800,-0.000191546
156800,-0.000140111
156800,0.000141263
156800,7.42965e-05
156800,-0.000308257
156800,0.00045265
156800,-0.000535874
156800,-0.000144528
156800,0.000225405
156800,-1.01712e-05
156800,0.000685947
156800,0.000120956
156800,0.000465605
156800,4.40334e-05
156800,-0.000538663
156800,-2.18404e-05
156800,-0.000340193
156800,-0.000182169
156800,0.000792981
156800,0.000768495
156800,-0.000430292
156800,0.000396467
156800,0.000406309
156800,0.000270122
156800,-0.000142352
156800,8.90981e-05
156800,0.000536165
156800,-0.000550981
156800,0.000386031
156800,-0.000223867
156800,3.65915e-05
156800,-0.000330495
156800,0.000421861
156800,-4.97246e-05
156800,9.98175e-05
156800,0.00020202
156800,0.00024829
156800,0.000120002
156800,0.000764056
156800,0.000533215
156800,-0.000509066
156800,-0.000143597
156800,-0.00019592
156800,-9.68449e-06
156800,-0.000124879
156800,0.000208952
156800,0.000238748
156800,6.57793e-05
156800,-0.000157418
156800,0.000396175
156800,-0.00047442
156800,0.000464451
156800,0.000782967
156800,-6.24412e-05
156800,-0.000543443
156800,-0.000562158
156800,3.16246e-06
156800,0.000970792
156800,-0.00012496
156800,-0.000389618
156800,-0.000373644
156800,0.000157927
156800,0.000174511
156800,-7.114e-05
156800,-0.00065492
156800,-0.000101284
156800,0.000349916
156800,0.000100713
156800,0.000438571
156800,0.00011702
156800,-0.000577158
156800,0.000455174
156800,0.000505351
156800,-0.000654347
156800,0.000102303
156800,-0.000834862
156800,0.000571446
156800,-7.83656e-07
156800,0.000452236
156800,0.000369861
156800,0.000139602
156800,0.000268513
156800,6.13577e-05
156800,0.000190602
156800,0.000909164
156800,-0.000617091
156800,-0.000778226
156800,6.19802e-05
156800,0.000108147
156800,-0.000718934
156800,-0.000207646
156800,0.000298914
156800,4.40557e-05
156800,0.000551654
156800,0.000851067
156800,0.000401244
156800,0.000450126
156800,-0.00065252
156800,0.000351452
156800,0.00122729
156800,-0.000377914
156800,0.000372442
156800,-2.4352e-05
156800,-0.000511114
156800,0.000368513
156800,0.00047104
156800,0.000108589
156800,8.2292e-05
156800,0.000167055
156800,0.000975438
156800,-0.000220022
156800,-0.000335185
156800,-0.000276625
156800,0.000630116
156800,0.000233366
156800,-0.000451083
156800,0.00013348
156800,0.00023015
156800,-0.000872176
156800,0.000381607
156800,-0.000464341
156800,-0.00038513
156800,0.000200068
156800,0.000546015
156800,0.000633265
156800,-4.72455e-05
156800,0.000481245
156800,-0.000770645
156800,0.00112993
156800,-0.000342708
156800,0.00042355
156800,-0.000156177
156800,5.43404e-05
156800,0.000223421
156800,0.000824274
156800,-0.000760276
156800,0.000467625
156800,0.000449231
156800,-0.00057755
156800,-5.57286e-05
156800,0.000908694
156800,0.000951003
156800,0.000170556
156800,-0.000151012
156800,-0.000264231
156800,-0.000451982
156800,-0.00036188
156800,0.000352043
156800,-4.4645e-05
156800,0.00021843
156800,0.00015014
156800,-0.00125419
156800,-0.00156852
156800,-0.000476299
156800,-0.000403998
156800,0.000312889
156800,0.000210582
156800,-0.000321332
156800,-0.00157143
156800,0.00047875
156800,-0.00107635
156800,-0.000210478
156800,-0.000521323
156800,-0.000230632
156800,-0.000380287
